{"cost": "CrossEntropyCost", "biases": [[[0.15875677943161803], [0.23644866762465655], [0.047526463687374204], [0.02241490314093148], [0.19659884834462357], [0.19223986901930804], [0.07382785085237006], [0.14267687036278223], [-0.12365618327912714], [0.042899067134733355]]], "sizes": [784, 10], "weights": [[[0.0027265131735350586, -0.04349365388190563, 0.012181471047884963, 0.05272183843177321, 0.05162104189712428, -0.0026454503157798378, 0.08021464582231803, -0.02646583832430988, -0.12006915252822885, -0.04762186092473335, 0.013300970973072044, 0.02064678072392354, -0.11356869122876286, -0.0647940506973642, -0.0205260641111361, 0.020392917046164624, -0.010128191221637654, -0.05674015437158078, 0.05167463280519589, -0.04497607289154404, -5.611085831266251e-05, -0.03381516265399891, -0.030419090061987335, 0.017716102864281096, 0.0010584315136191443, 0.027389124152457336, -0.034136397408473136, -0.01652285399811347, 0.026074566816764063, -0.015256676223666533, -0.025098424367634643, 0.039134643738036955, -0.030547639778795797, -0.0032279065526168685, -0.03555889953536894, -0.013933733340571896, 0.04000022534136612, -0.012397442849489113, 0.025015842317366446, 0.053444560222234615, -0.018310753000468496, -0.019918424716841247, 0.007045155537251622, -0.0005570506699628569, 0.016143741256073374, -0.04483631675746307, 0.0390826127333767, -0.0007977693117792605, 0.019204137200221138, -0.00041750847434957847, 0.025490349817905978, -0.039761296054514235, -0.017115053609566094, -0.02339508502514411, -0.031520828267556776, 0.002767733856960266, -0.039826179097140736, 0.041354307176042666, 0.007003182347560214, -0.006082037707105343, -0.048150666684400135, -0.0008055937724319391, 0.03581943548767786, -0.040696075041444, -0.0038834569449636928, -0.0050393386424337815, 0.014942607165158533, -0.028211446497576922, -0.007734311229772368, -0.03164137891821787, -0.002561335805845332, -0.013427844729601625, -0.036708793240288945, -0.022586260994653027, -0.00957178558365411, -0.025297195276694585, -0.021896606698804413, -0.0019942495292918877, 0.00619280556022183, -0.036903345451550176, 0.02779192589901166, -0.016128892777637828, 0.04382159892959623, -0.04056249593010915, 0.006669772515094063, 0.047530484698618085, -0.03733269987627274, 0.003198089189498589, 0.08689947927522187, -0.054386156608336976, 0.013350916636675085, -0.0003735934554442912, 0.0009257024516975829, -0.04727860773636141, -0.00343988781383778, -0.02334619723494827, 0.03980266898872125, -0.007978733616114333, -0.02490165792039848, -0.010119303282552674, -0.00794182580923342, -0.034086236143175436, -0.04411705861131064, -0.03022065083334706, -0.05294033296024665, -0.05055764559733475, -0.05212487822583259, -0.0382048829185362, -0.019609115064797004, 0.04888277663458686, 0.011944163584042392, -0.006730713649384676, -0.02196352385920696, 0.03602465624987561, 0.005278149326900615, -0.039709933051495144, -0.04008380665096127, -0.03136896868083266, -0.09234144211036567, 0.038507155012704124, -0.012464377016490327, -0.0074115414944554, -0.024766329229316437, 0.02214117974003781, -0.039241709969121005, 0.04166462214891705, -0.032261387395298186, 0.03036590280989554, -0.0183596569595431, 0.007854226544002871, 0.005503287967260989, 0.0017174563090045574, 0.0031824092800163428, 0.013287764597130077, -0.005590459150642778, -0.005307266740817931, -0.06467342364303601, 0.0015600889308132386, -0.04303938320272879, -0.006008346973940289, 0.013776320446545049, -0.007884004050311758, 0.0111053182869132, 0.12161228103724184, -0.04772404394259574, -0.011186695626659394, 0.06405423713376518, -0.040763761262542386, 0.004773702321258774, -0.012484836356345974, -0.02443646169377216, 0.0063414025205027705, -0.002497734219762479, 0.008036047271274932, 0.007643735206965614, 0.0008395367670897002, 0.019037424962793516, -0.001601146865184288, -0.008556513928328405, 0.01652238174862276, -0.01691548164321612, -0.008996984969403736, -0.01997841420986194, -0.04309673659420662, -0.01376345799822222, 0.01749666657742331, -0.059591815366572466, 0.0040478046976589405, -0.025503003218095892, -0.0011043261637255241, 0.009889418991013291, -0.019878644517541316, 0.0005723992617357137, -0.022314694007112012, -0.007026356799879055, -0.006447216122304081, 0.0032526758644204627, -0.01418195732833593, 0.0034831306742984544, -0.02134476598073979, 0.014687635206365393, -0.0005229718941194551, 0.011870444526822923, -0.002447716179130006, 0.0014223034503487591, 0.0008202730752848977, 0.011813707094030157, -0.012670469449694018, -0.0012009224319138496, 0.018254133095843193, -0.02079217725336365, -0.015251510268081655, -0.04480333647780989, -0.03264004654280575, -0.024318899711581306, 0.01616674414096329, 0.026420774263072468, 0.027568410220263243, -0.004074898016749006, 0.009784618659465581, 0.01235753149207971, 0.0010098313444900917, 0.021900861220758402, -0.015805815663939616, 0.012178441131930895, -0.00522513898315587, -0.0020438009660080705, 0.004620312773935858, 0.0028474131418025177, 0.017484004123501363, 0.007227323249444559, 0.021442062360882433, 0.0009976730754807253, 0.020997398093579187, 0.007600390960487801, 0.01501380168756026, -0.010792040520000379, -0.006594062672259011, 0.01684946177781897, 0.00850807539642974, -0.06326620430531285, -0.04563378274326148, 0.08000519122885873, -0.03651662943333581, 0.043536790331031465, 0.056867514634590915, -0.005585818316069176, -0.06116885991496979, 0.02241347108098814, 0.0037139186137037997, -0.00474755065692038, 0.0055282554212160665, -0.006340037073475564, 0.01087128824540591, -0.0018326307956503726, 0.0039814494620702525, -0.00011532384019368988, 0.007527301770083602, 0.014122521658341382, 0.002736151795817705, 0.02666147121938373, 0.006016340266620996, 0.0066029803590631365, 0.00033637214217615083, 0.017012161725037757, -0.02160539728020369, 0.010582946621568997, -0.024285048259407017, -0.06002608938990669, -0.06829873272057885, 0.027312838231740584, -0.0233735997076862, 0.006744682200460768, 0.02446669182336881, 0.03254952321744254, -0.004345007014152199, -0.008719670535319341, -0.037755924930451046, 0.01852989235276643, 0.002735159128906521, 0.007134625992064235, 0.003539854511571896, -0.004841160834762955, -0.011688895141258164, 0.0071266877282345036, 8.228118555087964e-06, 0.019196264834940403, 0.01977647902372798, -0.0008096705750926898, 0.005456570042981508, 0.012947870121002927, 0.014117580634359103, 0.011353126147214811, 0.007786650458110758, -0.01810038368675958, 0.03576147091571274, -0.04622638049649966, -0.06325372084653154, 0.03143747162372407, -0.02527353336997914, -0.039504889790653995, -0.06646811521374289, 0.0034288255750447153, 0.01048990652384964, -0.021500882899189284, 0.03297741534217536, -0.0061002523274446855, -0.0018718059732749511, -0.018002400577945294, 0.012755321149359294, 0.005480394914790792, 0.005587175134650352, 0.007469530529132333, 0.00969008187261116, -0.00447180583295888, 0.009557035547198481, 0.017681709195689465, 0.011964584234629243, 0.006174336131738864, 0.005779387838420221, 0.033998621586808546, 0.019937531092468784, 0.013162776666361934, 0.056900939120890615, -0.07138099698928048, -0.06639586174557965, -0.017763931488237444, -0.05157631815012462, 0.08065050242566935, 0.022770108570319306, -0.04809266019319719, 0.001885760133583805, -0.006018958356296296, -0.05997098334160708, 0.010772209052421792, -6.782049617037662e-05, 0.024955525989477177, -0.005778113429137708, 0.012984954209473753, -0.0005877545685409066, -0.005657967681684091, 0.00013707456429913248, -0.01409294519240053, -0.01632036705273026, -0.011403879693163293, 0.00547746838847612, 0.009880301617783412, 0.022341719320141975, -2.4939570982287113e-05, 0.0360765837509099, -0.01266913892148485, 0.03271576331401307, 0.010921565329015268, -0.04875274509645901, -0.03805965838793959, -0.06427223642754844, -0.021682767934777934, 0.027465577334041494, -0.07540536384997756, -0.038036509616793016, 0.01162601917148632, 0.0008749338782063251, -0.0039624438350924435, 0.008962452195899598, -0.016433152520245367, 0.006669899057300819, 0.006243697442957085, -0.002791168137945165, -0.00044786555711468813, -0.009314760071680216, -0.03474819755977334, -0.009533777872322452, -0.02883911624501329, -0.015597947680481311, -0.02260602190110845, -0.011835521867206121, 0.016527625023741353, 0.006081730467439724, 0.032888750288051855, 0.076019946959972, 0.05634795014186701, -0.0019713333469028034, 0.0005998387283688767, 0.0056344997617679355, -0.018500936499925836, -0.015024010634395924, 0.05230013231280685, 0.015889325102429373, -0.05165667722145161, 0.008335568847417985, -0.0042774523051311375, -0.001738079215959146, 0.0072713422257663345, 0.008578271485850948, 0.0036462275036651926, 0.007386306390180187, -0.015787879719469405, -0.013985894058860415, -0.03853981029134759, -0.0041526099523771206, -0.011037979960369336, -0.025859837673538815, -0.01884547870112802, -0.01848056224336317, -0.020495194387017173, 0.014163250616941243, 0.04789191089664414, 0.0029634280803523174, -0.01594707034302472, -0.05674303039566715, -0.03658267874502275, -0.018111463120974048, 0.05832435049563443, -0.018572824240201007, -0.011012304543614859, -0.05177030959787168, 0.011119930450338378, -0.0063143812072383385, 0.02093270105537931, 0.021193684118607774, 0.0016511942918354698, 0.008177827787723975, 0.02516263022009589, -0.010642424754116964, -0.01279364198490301, -0.00043975974043770406, -0.03239407203175671, -0.001873542899644652, -0.016008225245658193, -0.02493889854494914, -0.015238293568244764, -0.016044052994502518, 0.017840956449636743, 0.016268975511233647, -0.010226568532826864, 0.046145988051392264, -0.023782471518629635, -0.030447044728311102, -0.017762945379512982, 0.00446225393636308, -0.055822329570180344, 0.04057765877770095, 0.02447720572053516, -0.019225759705896378, -0.024185636011319827, 0.0073095658675379075, -0.010345380960320267, 0.0042886147799030385, 0.016642803748167168, 0.021287005841558845, 0.013391539868161115, 0.00038796080369476543, -0.0230308603055729, -0.013539298458202422, -0.029225898362390697, 0.00042413292390485347, -0.0258710877731152, -0.021229156305818044, -0.008641360516001447, -0.01275621647929765, 0.01192548157967106, 0.023364085479747217, 0.005974452628656365, 0.016056016106859312, 0.0012516876453571395, -0.06586809835273832, -0.01698552629393002, -0.006496439030073807, -0.025699565907472265, -0.04915817605730152, -0.02632195481693153, 0.009339632297967748, 0.00536843730718235, 0.012367124012555736, 0.023122672365410973, 0.0024639373225264147, 0.010379561946680025, 0.0009975837901654945, 0.02401185187473964, -0.017670758210796528, -0.02641069168875013, -0.010802869566148392, -0.023059478236293878, -0.023746889123713023, -0.01689882186128879, -0.022266135712285074, -0.008646472965523622, 0.016177992958167436, -0.003911637812339553, 0.0014636193768518342, -0.033848178534307785, -0.007312341260916924, 0.03786740403367344, -0.01445744909101938, 0.027242888278209896, 0.07474306227656023, -0.017047427436386264, -0.01371837834119358, -0.02946903999171291, -0.029535129632566316, -0.00487940964920181, 0.03982742178935616, -0.018169589798399506, 0.029395359308305936, 0.009126330075758554, 0.0009373756819632934, 0.007059486001523939, -0.005231816998402502, -0.009868862403629152, -0.029111684954188664, -0.02116355785006804, -0.01938262687855786, -0.011671033488053288, 0.006294194787784365, 0.005391917123445482, 0.0029223714399787977, 0.013119575021390082, -0.01751156757869072, 0.029395675126662798, -0.012328505904996973, 0.002359370508014339, 0.004992175488725593, 0.01896524679857952, 0.017744619378347103, -0.016970916274417575, 0.011669557833927136, 0.04433298418962242, -0.08323539998069379, -0.010220329623913256, -0.009002937035780922, 0.023188719628155947, -0.002637576583409374, 0.005852491636613599, 0.0024655870513412255, -0.0010854997824444516, 0.0013293188776565253, -0.0037283250566953223, -0.016576339715753525, -0.016081540003653288, -0.00015162228017138036, -0.002883005827147746, -0.0012029275116831758, -0.012842655674825414, 0.007139869266211072, -0.035641517934295215, 0.017395396678049214, -0.001621348263393528, -0.029976006579944935, 0.030709992580317695, -0.049480487435948885, 0.01651501932004778, 0.0005912997212842087, 0.03366239124120235, -0.01608013214912345, -0.0478728028869985, -0.01433931510777234, 0.0098419265935746, 0.002357544135113162, -0.00451053054617229, 0.02081364345858729, 0.02438099950430369, 0.01623315809110845, 0.00243060372740501, -0.0006159213734708212, 0.0066531280694223215, 0.015956261712475918, -0.004627226616464872, 0.0008305973856228311, -0.010965007790224055, 0.0035700640039330587, 0.0018500076171217943, -0.0014684327191728614, 0.00507109014703439, -0.01792042752838837, 0.007490463871648467, -0.018232299632032125, 0.007909053345269212, 0.0003090853872129716, 0.015056734310558205, -0.0067401406891138575, -0.034841068653526965, 0.026156929194973155, 0.04092012488737149, -0.04797129501407831, -0.006097493097308507, -0.010437477806011569, -0.002201805281596611, 0.00749705447893159, -0.019160483829147246, 0.007780553249695131, 0.0028441943066394018, 0.01328687380245206, -0.0005077969119493816, 0.007265685058960683, 0.002989212103454316, -0.0032782746946532155, 0.003318920210580322, -0.009642094097713898, -0.010757469463772937, -0.007206272211746465, 0.003196572203435972, 0.019569033845243135, -0.012645779247589879, -0.01959561925278411, 0.03560056032071081, -0.06591116815611975, -0.06188471044037646, 0.0029968074376813176, -0.010140325548364153, -0.007223976847565708, 0.01926692849393793, -0.0029062504180142196, -0.04185982073842039, 0.04069349064306197, -0.018183452431581395, 0.0010207788107009371, 0.0017091689500301145, 0.015016977819995178, 0.00907198056002761, 0.009212386663298064, 0.004378232315069362, -0.011874822454050074, 0.002839631132444763, 0.014974208024921342, -0.010409230443786638, 0.0007597914618868884, 0.009644993485895374, -0.01250030932486123, 0.0009142114966938012, -0.019687844958524086, 0.0015679964118153616, 0.0027655923950693413, -0.016179733188892494, 0.02544128447043291, 0.03143239974295888, -0.007271122659434973, 0.0388330391046601, -0.014762514419923607, -0.006000578862132919, 0.0154682741530084, 0.011999955827039794, -0.031644820747850765, 0.027685563011445348, -0.01256805583358609, 0.008517892538737488, 0.008309239101711502, 0.0013450629469510798, 0.002749880971565444, 0.01597124943456296, 0.015075261469758062, 0.009548111648750196, -0.006455840102767698, -0.006867603285653335, 0.002131239990810369, -0.035124791040520964, 0.023467502009635856, -0.02051435341336391, 0.00386234983671412, 0.0056456234386152325, -0.00488219494120387, 0.007868584864387969, 0.021101300936958098, -0.03914667176006033, -0.025364329373710158, -0.017856755369820152, 0.003109392442335024, 0.015338021522023513, 0.0013904759101468793, -0.041408823471779335, -0.011939375643442498, -0.03489272623630664, 0.035269651726050136, -0.02167623848329587, 0.0036176764576859805, 0.006766808186214456, 0.01562444603601667, -0.006132222993037802, 0.022185682190683162, -0.0009793116995831432, 0.025593967891698204, 0.01636785477972972, -0.004142936910313219, 0.01825522585856603, -0.045416547058034065, 0.010293018413097387, -0.01716681336002618, 0.014332637487446448, -0.059997527892574794, 0.03160918650537288, 0.011604207132967698, -0.00424302520810812, 0.0368325742151609, -0.10332182190881699, 0.03902423860782716, -0.019154299875577444, -0.03699934060817626, 0.04514174914848427, -0.02419028802847179, -0.010537329871761196, 0.004584196573984368, -0.002795317910205333, 0.0014057146849766114, -0.020590802057931543, -0.01333808703517467, 0.00506462405198276, -0.026481190715819884, -0.004560764148110821, -0.007486610021442651, -0.0016958109505437534, 0.004251575353982923, 0.012310864957929454, 0.00826200717404781, 0.009332598656093866, -0.020255601187602543, -0.022015584710199564, 0.06402074359168132, 0.01412506956223875, 0.06633347129902376, -0.018516270815242167, -0.03335656128342119, -0.03736561094869466, -0.04247480089177747, -0.009288479211263122, 0.033305687962666676, 0.0010009644680620132, -0.02328873854895266, -0.022234462502682746, -0.05360928800942822, -0.0551165169273607, -0.01472882364239297, -0.030132536604042935, -0.017754730024691502, -0.0446886024606584, 0.0034945628721075555, -0.027581083528716962, -0.02307449716563683, -0.011179085942587293, -0.005404613475566353, -0.035693793791939134, 0.015043720819951846, 0.007357980994462641, -0.027280920391519827, -0.07313319065517085, -0.016447066965164958, 0.04085428626832148, -0.02303174581872402, 0.04298190308120545, -0.027521322701583875, 0.005284949720445082, -0.011585587560819005, 0.07719471251727862, 0.0009013410039774817, 0.0025720840367589783, 0.02899735386764976, -0.023344946159512922, -0.03730988011248518, -0.029133066622532972, -0.051384312256275266, -0.021513696989725477, -0.04988312174856582, -0.029769329933126497, -0.03312117333218102, -0.05187900258247438, -0.01995023326107676, -0.035005610463207305, -0.04352659753076852, 0.0060870103428426236, -0.03541582962764872, -0.020414257450071843, 0.002855543040600433, 0.01969938456564269, 0.06741027059655613, -0.00295577304617191, 0.009809738859903012, -0.046057572597449394, -0.0017806154711640255, 0.006930918780010234, 0.0322499020534299, 0.04800245959322983, -0.04172564839532919, -0.059675358180173756, -0.011242093007353033, -0.002730211792410381, -0.0004737350671105565, -0.039751073593151894, -0.05449510514630669, -0.011104834249964427, 0.018361526208236233, -0.004841719618574652, -0.009325798128711668, 0.01652209827157438, 0.006729153354577325, -0.01977421972596179, -0.020836164188232902, 0.02654537071961634, 0.0025161855273558038, -0.025551127841562844, -0.008763669067317527, 0.03249371813510249, 0.06829615087041047, 0.05336063791858809, -0.007913781810169567, 0.025679911005715587, -0.025806033374168393], [0.03916693260202076, -0.04495701183713767, -0.014190705524194925, 0.0434947002950028, 0.03458191657498558, 0.026034648756082003, -0.016135286527791448, -0.0017416565785653207, -0.05443605002094698, -0.010351239537197077, -0.05134110758346438, -0.062276018097480366, -0.0069142544430185445, -0.013251240000633607, -0.03490982638400998, 0.03119171321340438, -0.03927813629244096, 0.03501460335349685, -0.05054508240420451, -0.0420413520306304, 0.04512633388090152, 0.032795486772279975, -0.01344982484545677, -0.050996165837722984, -0.009368113197704668, 0.016746745791174862, 0.03596595593102028, 0.0190377687565002, -0.029138722018943738, -0.04761844841951305, 0.04731325881199422, 0.01053492297513175, -0.02180721893538146, 0.044096109802632795, -0.0441682352489862, -0.020353562871057117, -0.019344403555737695, 0.0393715474975491, 0.017162739975522204, 0.019312381849901285, -0.04079884035517928, 0.04725653833369299, 0.028763261829765158, -0.04365958466529562, -0.014143608548165206, 0.02445745799325958, 0.033334880565410854, 0.0003078249865137665, 0.013154618418918677, 0.014690666642915625, -0.035904908412624795, -0.03975370102013881, 0.024420693852201202, 0.008985363215946946, 0.022832314361535523, -0.025985743603407784, 0.020127651270508265, -0.02399186772884517, 0.005667525046533744, -0.028276531251347353, -0.026182436293571927, 0.004899873262061667, -0.0010766611812328345, -0.07255480890658411, -0.046890715000549824, -0.01284065949636784, -0.014793614868378832, 0.0025778058857504234, -0.002329104735510526, 0.03303216173735847, -0.033851380458284175, -0.0020956694428320346, -0.005774472597891452, -0.0005184210731751046, -0.016411949449025645, -0.030023537357927045, -0.021197645164074262, 0.06232769554429681, -0.09414346704685364, -0.01923173004662586, -0.007288209811236357, -0.05418502135129341, -0.055801809236998026, -0.0024490299287864207, 0.03807129628585405, 0.010212993825971342, 0.008700548260215152, 0.008799895595361285, 0.015232323259066156, -0.00328510089705741, -0.01724858232655024, 0.0011678588740629131, 0.04857130310880151, -0.014741923498371272, -0.05162490502534294, 0.03285427939992518, -0.0465097958823594, -0.02141950995214974, 0.006208084796280157, -0.018840076602458556, -0.033195159567745415, -0.014541099853924822, -0.008843921887317125, -0.03807272522044149, -0.08818691790791842, 0.014561618177580164, -0.04837579238184409, -0.048441579581281535, 0.025465170512173306, 0.030913766134695854, -0.008733697514118614, -0.05235475350370721, 0.01655397265630489, -5.744730459931883e-05, -0.017586911115638648, -0.05908141809542815, -0.001473493130224597, -0.018580435911929885, 0.05575652843860567, -0.05539808268295338, 0.03381503308215493, -0.03580217184467098, -0.012035329848544222, -0.017811245511273267, 0.008902400302845715, 0.0022219688797519323, -7.492793406195027e-07, 0.008705431539086412, -0.008328392477181723, 0.01970844858739511, -0.014631029102625629, 0.04806383241215768, -0.008805275474020213, 0.008939705886361707, 0.014030213369642127, -0.029350884397239315, -0.015211476009944554, -0.012311526850252703, 0.05822565505329963, 0.03660808649887462, 0.016579987374155156, 0.08141651706422157, 0.07000934633478693, -0.026268977426098458, -0.0005794421668599674, -0.0241637114951987, -0.021462432322979324, -0.012284344886400879, -0.031777156596485626, -0.0031293154458421494, -0.014912323830733107, -0.0038664457195819297, -0.019710155164216855, 0.001082352102948017, 0.0060536162101101024, -0.005002366967651754, 0.0037308644137574974, -0.0006168516044296071, 0.007553105147134417, -0.009779700875073204, 0.015687857762594026, 0.037859655831050665, -0.018902254033742856, 0.016560442229861222, -0.023733317247499063, -0.018293404508634894, 0.002300525939054433, -0.032032468826551815, 0.016547156249846103, 0.007156091319981284, -0.051350057980571163, 0.015334947714354506, 0.03054054748257835, -0.008012069401616955, -0.0034050232506970006, -0.00540152791495026, -0.008721254013962763, -0.012094403117793133, -0.02536161277813266, -0.010107882156195427, 0.003175904409152344, -0.011507230065598246, -0.0070191353957869814, 0.006339164448539191, -0.020583375740072483, -0.0054662397228853535, -0.0001625230741226284, 0.00831246913432353, 0.019039338966272166, -0.04084393633025636, 0.021663949020238486, -0.029791037404698743, 0.005257523220538211, -0.02232669683812735, 0.012464333437844345, 0.05072725342803418, -0.024943741526926643, -0.019041700794707, 0.0340234280728829, 0.0033243277502870852, -0.02203007932763101, -0.01680866306476091, -0.008880405572238228, 0.009744358297379883, -0.025551918614148354, 0.0019176523772285203, -0.012978011947532302, -0.011053643407598039, -0.012350778731505863, 0.026469744081106777, -0.015486101995810677, 0.0024927530040420283, -0.005678809648981437, 0.01083209664934035, 0.00768824465586075, 0.0022680439961038933, 0.0037082514233878323, 0.01292205832320438, -0.0008629897815196225, -0.012978408851608338, -0.032214207723911155, 0.0064027119330430345, -0.014962049381039925, 0.053820525099499854, -0.011038436307995617, 0.013151439762908147, -0.04141069757001808, -0.008109920750146762, 0.0022612599143473694, 0.032168110759955536, -0.02151817774356766, 0.005804199857684063, -0.017798235412059812, -0.0044877910631954685, -0.007832429453649287, -0.009400181271093624, -0.014957119848574325, 0.009484897137995642, 0.008097317626900047, 0.0006177103315650159, 0.0096280415128504, 0.018472630470034255, -0.001440940252579226, 0.0035051296395727585, 0.0004292725417425134, -0.02351758084096879, 0.005607004284576671, 0.005618058974199341, -0.030402331249192394, -0.005708020510858312, -0.05436691101006381, -0.009280926809156488, -0.05336578395477216, -0.012816200922518332, 0.007657458084953524, 0.01681427364893353, -0.01392085147127464, -0.019206260988139302, -0.008465853789954422, 0.002390448965926013, 0.014276908991648221, -0.014032366810671063, -0.001038176393490213, -0.024483008966292078, -0.01444357866419333, 0.009812380238403622, 0.014093172580553285, 0.008367424650160786, 0.002777091740894479, -0.0027801452041671003, 0.003887077825442127, -0.008572744340901566, -0.01596497781801047, 0.019938340245085413, -0.01587521305450343, -0.019987482668128942, -0.008371916366652729, -0.06445980747380473, -0.02674986980580172, 0.002721758718031341, 0.01218928000289881, 0.06255038249076567, 0.015028172589900218, -0.03177221227110381, 0.0035772512572126358, 0.000834381764369385, 0.004621191731396013, -0.00032788015836311316, -0.01757796047389083, -0.0005024407350895313, -0.008357039744074023, -0.004532741184689498, -0.025321006165372698, 0.001582217698963841, 0.03502536065111203, 0.021837963912865344, -0.007974895448104419, 0.007339409918918848, -0.01792955171917306, 0.0063771838459103156, -0.007765496182570632, -0.016688892165539624, 0.009487999982762835, -0.0008651230976911913, 0.017998934575376376, -0.041753239030649855, -0.006302484265281248, -0.07542144841001319, 0.007885770414460518, 0.06333531200856879, -0.02836137093487778, 0.017765865561606392, -0.006540748960536561, -0.003244388478965191, -0.012560366276579237, -0.005610484147246362, 0.01057153069163147, -0.0015264595140021455, -0.008116914368953976, -0.009598349782402028, -0.030298744750897177, -0.018153982700717747, 0.056141478729906054, 0.034859597116138015, -0.03549719160446106, -0.004778825779576037, 0.0008212695555248168, -0.004144467374384661, 0.009613098635219863, 0.014138810821243223, -0.017232803524144205, -0.004059562391801744, -0.04133604919826439, -0.006064889820369555, 0.01810688769304675, -0.0235474227211865, -0.024476827610801204, 0.0013105281099552574, -0.003247788352236758, -0.02064115225498206, -0.003306202372407858, -0.024278580764255524, 0.01133889190985802, 0.02268365975283233, -0.01696711081014238, -0.004901161846087709, 0.000889257972861995, -0.012783114681855307, -0.02383298497436484, -0.05799821880351561, 0.13591716867601802, -0.007142087236422844, -0.013593904515432024, -0.019354028377879213, 0.011804402823964829, -0.006157256350916864, 0.0007468445289277173, -0.001405356220078865, 0.028815612649703733, 0.04049313239063439, 0.022993452395131914, -0.0639927767603319, 0.02085345064251932, 0.009569836432614614, 0.017930838317201804, 0.017849841623189575, -0.04378291002031036, 0.035965956631703884, -0.018411368415206623, 0.012783362077268113, -0.012867397708569622, -0.019088998139490207, 0.023868679612000794, -0.00976448245128851, -0.008948991076771254, 0.004168933011278413, -0.08191415109252569, 0.012250231226291087, 0.10167905392243737, -0.018932741745581794, -0.03267239427014278, -0.015396131524000043, -0.00297799632723008, 0.013830182044643468, 0.00405650024887276, 0.0007873988885787242, 0.003739937476718901, -0.033619353029128454, 0.00469250290716842, -0.044410438000620896, 0.004016903288961625, 0.020405987393771044, 0.013397906980451988, 0.03025607772790405, 0.012271572310430292, 0.03649561869770907, 0.003479975285967147, -0.008914538962348131, 0.0011225394683609831, 0.004817234016252004, -0.015220845139341686, -0.0009423385345820214, 0.011560867429716841, -0.03893735816314063, -0.05149852446465137, 0.052362437883125924, 0.037510736973848505, 0.033751192306478495, -0.050440598323232395, -0.0070661331812727724, 0.010081092809886871, -0.005704709996085282, -0.0035234391204498772, -0.0011916612072470048, -0.0011920027341610592, -0.008270559757345487, 0.013151287946424003, -0.04107063679719242, 0.0024441896654366336, 0.047684510281968, 0.04307017129090454, -0.0324496083321681, 0.0013912741027276606, -0.0404054472110195, -0.0005614466953452232, 0.003527720874996826, 0.02076572643181799, -0.0008633123760694112, 0.011518337323093365, -0.01121919691492435, -0.002223181621484033, -0.019111549635171896, -0.035416946256075284, 0.05355176173560067, 0.026249815376117775, 0.007581171726942052, -0.04570489454360787, 0.0030782268839421698, 0.004452392929696959, -0.00706775339128627, 0.013038987876022437, 0.0008116904248690166, 0.0027555055979778635, 0.011735102694224245, -0.019370243573925368, 0.02047809080512187, -0.016432371982073275, 0.004310098242224475, -0.04517648653789536, 0.0022647045847210764, 0.03101478772049721, 0.009400224494091858, -0.0005694190282607271, -0.04293430841338628, -0.00531530263376781, -0.012923866124892271, -0.0038980316866085688, -0.005077867454406246, 0.0005612453729315684, -0.024742895259781305, -0.028910097581148413, 0.038182991198739046, 0.042241702710387276, -0.0031861044757570327, -0.034055875196860784, 0.00711564393051669, -0.006292115838801951, 0.003964848158679161, -0.010050587812917658, -0.012232839584933188, -0.00429334272963073, 0.014320180927980732, -0.02042286650238001, -0.018942793468689115, 0.0062604016984955085, -0.022666433361082435, 0.0003421149029769493, -0.028843022024986013, 0.030514924256195612, -0.05418800819640988, -0.008193533920647323, 0.04910068068485823, -0.019876396964703606, 0.017469144688776275, -0.0038210902606457538, -0.009961634424644438, 0.0014694632459552749, -0.003956688012410142, -0.00740148374852382, 0.032894405968819554, 0.026719471638297576, -0.016753136647589737, 0.004450460430271293, -0.02080155930313873, -0.00614462099572478, -0.0018576221512765709, 0.006978287713685547, 0.005136140853808858, 0.010942473823990011, -0.011660351836638052, 0.001144200748675322, -0.07085198727167444, 0.04656349664330257, 0.029495728970060454, 0.0037777523045404863, -0.009263965075228583, 0.010258883514113214, 0.010363407606927706, -0.022956550326927404, -0.029542518751152103, -0.0010287090326461673, 0.008126526677022692, -0.007215819279733098, -0.003104420720446445, -0.015195265284898259, 0.0019769532286910006, 0.01513202664394741, 0.016744618402403776, 0.00931257001299482, -0.002037580957677856, -0.013092729867849751, 0.0041642370672198776, -0.014944648733002785, -0.006027670087910014, -0.0028198345902273607, 0.015101232883219837, -0.008095604320316212, 0.0027600573112657595, 0.000966574402239707, -0.058809793517838216, 0.02452262284848036, -0.07813686300810262, 0.04926336214527945, -0.022299761281859294, -0.052564009548449836, 0.00846690355088743, 0.0014076574981806442, -0.017343429231783596, -0.00361304703797262, -0.04866593025440481, 0.008595105736580224, -0.01278894168443095, -0.002944035219059171, 0.003509450722094695, 0.0037292986439275127, 0.027366457179708904, -0.0010243176875542677, 0.0034295801212922005, -0.009427132614703074, -0.026766983299105585, 0.0040159320938744, 0.005451456446536945, -0.01632511096060691, -0.003424620309341588, -0.015519406602684338, -0.011794751307985315, -0.0035579858739909344, -0.022379551634023415, -0.0160538202276832, -0.05902447331036888, 0.02923622750634057, 0.02766888372096119, -0.019530007288590244, -0.002703731331972086, -0.012002610695880538, -0.02221553546188655, -0.002653239988523368, 0.008640395825562818, -0.0075402187455504786, -0.007151189321879006, 0.004471832994573477, 0.007803169404049637, -0.0038039486196246655, 0.008243525784744262, 0.00990213530842805, -0.01542606738346157, 0.0039814596234602805, 0.0012433680966383706, -0.007381843503748602, -0.004374166962194902, 0.008604316062072109, 0.008167616012229277, 0.012188260531116534, 0.038414390939931715, -0.06287346393116378, 0.020650113055903703, -0.05931927014576634, -0.029479541779478622, 0.0009287194843930302, 0.03836003880971439, -0.06187114994278016, -0.019012247658895625, -0.022803570666432908, -0.0001372565780309389, -0.012127721334718719, -0.01688275640248243, 0.0014602760184143008, 0.008887984110481442, 0.01758016795022621, -0.005955124150244175, -0.003467005554051019, 0.004989436299987917, 0.026185120401940484, 0.0034996087994188492, -0.003700968218961982, -0.008497949252327561, -0.020117021141165856, -0.002097369150278156, -0.01035028764619635, -0.012802623443177733, -0.013530818805467349, -0.005101297737082185, -0.020722657667465512, 0.007182482411575472, 0.08482710288156517, 0.012440777137642378, 0.029840502320745123, -0.03914505551021329, 0.002488067767857027, -0.006060908813525805, -0.007555383016491882, -0.0069620490647360495, 0.00452360299006613, -0.0027178142808106636, 0.0009426470120971677, -0.0083080683987716, -0.008190601872557638, -0.0074211165660240915, -0.02393207384643454, -0.015186782606551518, 0.006449058958730344, 0.012499618934096431, -0.005098146007686645, 0.006981894388441973, 0.0011905813952740537, -0.025103486911764436, 0.011812419184814056, 0.004003556543719759, -0.028883733012331145, 0.0329990220762992, -0.025842901631729507, -0.018786646684672524, -0.02592129229753442, 0.04727873289686737, 0.049084286094586725, -0.006190278415579264, -0.0025319414672229225, 0.021467454521757277, 0.012347937572873205, -0.02034564737646848, 0.009701441589930105, 0.005107204880745447, 0.007176574594108584, 0.01779955438218583, 0.008689686478326807, -0.007852352719227176, 0.01201587987366448, -0.016603466388229883, 0.007961997089431206, 0.023839931058180046, 0.016975308344036353, 0.02759243862933072, -0.014490519861926713, 0.02415179803186899, -0.020492699860097687, 0.002449942994443663, 0.042901654254760425, -0.04710453560390301, 0.0561815422671226, -0.019760032261334225, 0.007183325209906232, -0.022794336789849937, -0.036715584095813, -0.11097830571119773, 0.002678108750761161, -0.01519088700957302, -0.04505633538695826, -0.007532926828992004, 0.03259658065197416, -0.025456613466119965, -0.025107535439783932, 0.009161745724605604, -0.03266696618326452, -0.0043751656495201975, -0.012978292260222898, -0.005525282332957229, -0.026420221662043053, 0.00766715750140252, -0.013737417455583371, 0.002975315509858631, 0.01840044340098339, -0.015750622208036146, -0.008242037170798616, -0.021056795311098716, -0.06109821114135958, 0.04540081073247253, -0.05581550097681005, 0.0015047368525641404, 0.00017992668920021655, -0.004469658732778632, -0.0062495202780039096, 0.007426703472431903, -0.03981120880520615, 0.006097141684028709, -0.025063383155026504, -0.027877746616107955, -0.05492828611227287, -0.06344405154493386, -0.012647188389317476, -0.06967687805490576, 0.008798635011858678, -0.03475966000935797, -0.005107555680984819, -0.016402435526981052, -0.005618218421753002, -0.05583619242665708, 0.004116752319327976, -0.027563691077737543, -0.01359646522919147, -0.008989127509327033, 0.04550576371996111, 0.006968265157763571, 0.04676211111129678, 0.0020128644226109853, -0.02155129904899117, 0.08952266005832961, 0.042898957411227276, -0.046280389407136344, -0.034484228418066885, -0.017829372877520715, 0.003426269951786789, 0.04266931091286067, -0.03360418936154323, 0.024341141212450033, -0.026613162163694356, -0.017377091554882762, 0.005108132106477315, -0.009676718512011307, -0.011014234429912615, 0.013353962887508761, -0.004300837999145536, -0.015626994427405973, 0.017295433315987332, 0.006700415062781747, -0.037686442877388, 0.006051554220831993, -0.0021047935891875887, 0.04482704093197791, -0.04933439714800483, -0.048247278899955746, 0.02695699655504044, 0.06884292418301298, 0.04557171928492105, -0.03925397871077188, 0.011626236463272982, -0.04309345944086267, 0.045873896120703826, -0.020854145994781612, 0.02265866178840608, -0.041338286090026585, -0.00992141757121873, -0.04196158083551188, -0.09179293691021195, -0.047886230356762635, 0.00796859588366781, -0.012908628057383404, 0.05613813646645032, -0.03951864161874392, 0.010771167896685072, 0.0077247274704277, -0.018839215278973174, 0.01887585202002459, 0.034837074239495114, -0.02993010534439234, -0.04461510232682715, -0.03897972141450531, -0.06454777105227424, 0.05385618290001052, 0.019086523321842117, -0.02886636226378393, 0.0476333897277133, -0.026383424869001904, 0.0027591042324535547, 0.04102264211997668], [0.008479247539872977, -0.022875542786459355, 0.026879340690157724, 0.041021377248813544, 0.01936162308371689, -0.05027703078765062, -0.015381532431526046, -0.023926869180268567, -0.0348243171356962, -0.027489706181586342, 0.00023432680248648805, 0.053943185117478094, -0.05520750730378606, -0.012241265449879636, 0.019952790799666616, 0.0264822981148738, 0.043170570070718624, -0.005291874442618336, -0.030514188857596557, -0.02287700229627643, -0.004384551155321083, -0.021004786312990905, 0.022101674606597208, -0.03942786674452041, 0.019957206409707506, 0.03352547961001286, 0.01620435525975977, -0.043364009964786135, 0.03008797681766683, -0.03069436138632541, 0.05161737429463932, -0.08024256738174426, 0.015309558635153089, -0.05849795662627, -0.04836712643710961, 0.017827425569141683, -0.006524931693346784, 0.03199088725614778, 0.0120415098419957, -0.03867744882751576, 0.012184964471396154, -0.03147902173354042, -0.0022677903236750555, -0.010574567901359083, -0.015545196372823996, 0.04928819357120683, -0.09812229517906322, -0.06611297318722897, 0.025102163036534828, -0.026652056937109918, 0.025980709937640584, 0.032897893757082027, -0.025188578034000347, 0.04363551162224706, 0.0075518231043095905, 0.030148268722276505, -0.0037536594664371015, 0.02542350900714249, -0.0037236203193064424, -0.02725992631430831, -0.026211393741795253, 0.046908771363456905, -0.005784841609638266, -0.07117592109586876, -0.027202028695338124, -0.00951159986765472, -0.03148239634911147, -0.03412967046890128, -0.05048062125942169, -0.05387037374144937, -0.084777868238877, -0.03653083456569804, -0.035721878747235904, -0.053551160163651766, -0.07761111202055324, -0.03260766322961601, -0.0252679842681373, 0.026640265995006393, -0.03288896785561554, -0.028024261631267176, -0.05076313488958466, 0.023053443138039646, 0.014123305423882656, -0.07906295440097216, -0.0368050777787212, 0.00814179460981759, 0.01845680296253534, 0.014945721485034416, 0.02062156381494545, -0.04286537923534801, 0.06433353248015217, 0.05510656816755766, 0.01354089588044218, 0.011921556087619141, 0.03896538127915509, -0.007723723093464329, 0.01852916540585671, -0.002580276491261538, 0.03428817456184017, -0.02360461446564735, 0.003036764773680727, -0.019602417463290146, 0.006903119044009303, -0.026561787622068383, -0.05692293686161563, 0.009015464270826907, -0.0713954087500943, -0.044131491945050026, 0.05550736723270335, 0.021044327150108632, 0.09233196570041939, 0.051601967680205814, -0.06534563440452765, 0.00472112043726325, -0.08848410298567988, -0.023998038685199088, -0.018829951862862973, 0.028352204189350413, -0.018869663232323305, 0.004348132740453513, -0.00038787496598241886, -0.011331224146159212, 0.03536374199693148, 0.014452991890820619, 0.030712439509889857, 0.021265769230799175, 0.011916303624593843, 0.014747012945195374, 0.019004053886819215, 0.014410368595050944, 0.004321199654227832, -0.025385356224568657, 0.021659950646469736, -0.029890588390097013, -0.023916509886966236, -0.02408774593551898, 0.0024065034703082506, -0.06204425855858858, -0.01863356503140805, -0.03286048605987193, -0.0059818702002789855, -0.026760539797546896, -0.0034408546160800747, 0.001510964996611171, 0.05782460034920292, -0.005938257086289278, -0.004193762680133818, 0.01409152718083742, 0.0012978675113978454, 0.006621903874530064, 0.01662408753485405, 0.01817273660857473, 0.0018491095519022306, 0.017996579020391434, 0.008415287357068478, 0.004204107034766624, 0.01135800898404958, -0.004780520897628084, 0.01641377361900285, -0.011298659702953746, -0.00011576633807413276, 0.008889804380261131, 0.003838090359902206, -0.008981991763105802, -0.03021923489100516, 0.056560098496662596, -0.02794512527155494, -0.0048866253702289, 0.008582134093650802, -0.0011223411522748596, -0.0077947654520682174, 0.020234123474839813, -0.023487502303791274, -0.02204466222772911, 0.020272309692556195, 0.01025702001970855, 0.0044071517119486205, -0.0016354494044810667, 0.01433441666638365, 0.00035958490055063626, 0.017745375374649548, -0.0018424660574267598, 0.0021551092182416926, 0.017550088032871444, -0.004684271282671804, 0.014928957534185936, -0.003976010320255546, 0.0017419072686196053, 0.006211497437852067, -0.026728592885879723, 0.018123202966967275, -0.017885716990928342, 0.010070315529973225, -0.006326477117073643, 0.007433379726581437, -0.010381124390511452, -0.05142962777195229, 0.04726846143785981, -0.007157942384788484, 0.007737303852665064, -0.012604024882155217, 0.014888169167145098, -0.026320158334869632, -0.015083279903409125, 0.021954741389672155, -0.01933450126332495, -0.0017740513113720774, 0.0011767581852350417, -0.0020522139175838997, 0.003671125056705202, 0.010192216058009115, -0.02071067999802093, 0.019430938883482293, -0.016824935451949557, 0.007080790548884039, -0.007960526855725946, -0.005321190866070168, 0.012331797618161036, 0.014303321095109317, -0.010643164143401714, -0.020784960615009174, 0.014427828474290518, 0.01682570618038871, 0.0020890424158438127, -0.022695662607710186, -0.030359775551782202, 0.039229210088883124, 0.01142638507872368, -0.014020874183492122, 0.00022640556351378067, 0.040020149510830515, -0.01703937096488864, 0.0012808451618853312, -0.004387082965577292, 0.002281312532270351, -0.0074902323205009195, -0.0014292784193007993, -0.007973991241694978, 0.015553948101409368, 0.008693975754998058, -0.022794323916401217, 0.009579670266349465, -0.003691732809201214, -0.0033796841304488765, 0.006258618724049101, 0.00532984364104261, -0.005518301503492097, -0.02749608949356765, 0.024212130614842134, -0.01953199316295623, -0.0173923285022096, 0.03641100082538412, 0.010048090815985816, 0.024613933130411495, 0.0017540819809742322, -0.038348842599461176, -0.026255341577465695, 0.030327728822561885, -0.04481709751529808, -0.01820390306674687, -0.008487320336997372, -0.02130196258060259, -0.0038542003506019623, 0.0004728376334252654, -0.007534228144185671, 0.0033656119268179107, -0.0031170087741758255, 0.006602400000108501, 0.018364236187379493, -0.009185251478541307, -0.0028469156693813674, 0.007251881993467023, -0.019343688806500583, -0.021240753882694707, 0.027282047804925977, -0.0035205684503925114, -0.014966191655401211, -0.02429732423493643, 0.0067531134857392, 0.024678474218743723, 0.13013014882712462, 0.018838396799018095, -0.0006518388301467586, 0.008030834611261998, 0.05896268861447581, -0.04421529840152291, 0.05712837857578223, -0.017857948062143657, -0.00031462687026630475, 0.002712583963353897, -0.010087659677802372, -0.015180157505860853, -0.0008297470043571111, -0.019563401995041037, 0.017973438745617173, -0.011618725636548997, -0.0025773599703867913, 0.014905601724703975, 0.01596167374906352, -0.007011388550138749, 0.011079269512944528, 0.0007392963301211551, -0.00935817475527771, -0.019545843818725483, -0.008898284801513228, 0.005686357368746487, -0.013075672201654873, -0.0009285783240864514, -0.0213576532957908, -0.03578271002040022, 0.013507036672971878, -0.027064348633473772, 0.0045519056379755085, 0.014581432533081827, -0.015250626366439292, -0.011229277912606892, -0.012724422074710454, -0.018796741328792537, 0.0030657331790710017, -0.008833640627603515, -0.02152947522087652, -0.02199373521485685, -0.03845343216285701, 0.0068632813676500395, 0.013942541262226387, -0.018717976335510176, -0.0024450230125736376, 0.006420184301171428, -0.017122181450334385, 0.008130728149283306, 0.0067171043902780675, 0.0234913994214796, 0.010054428558786277, 0.028822626614056424, 0.017304103301716736, -0.017955148478733522, 0.04204302910893683, -0.031372446287819204, 0.05728629962758071, 0.003398737731493028, 0.02985935995912572, -0.02685762282696299, -0.030302277480668608, -0.005522525784042196, 0.006665977813712384, -0.014318631967116, -0.025117194412547, -0.03396666558789447, -0.026401664220254, -0.02641167422712534, -0.042902344785484894, -0.014932562916079885, 0.0012988360388941655, 0.0093703564240641, -0.005080691879933378, 0.014798911705833345, 0.011197131873929735, -0.013651124140074588, -0.0016498742627787534, -0.0362020374847942, 0.007761675309399551, 0.00919370667835733, -0.006702181914627907, -0.0016279977631137748, -0.0012752886978397346, -0.0025992011930322423, -0.01256001115628986, 0.008118017476952108, 0.004543119714945447, 0.004128554897950059, -0.02351996788566852, -0.009652062273315913, -0.03397912520077643, -0.011847749299435514, -0.014496979130642658, -0.00935651262201124, -0.013106346810949302, -0.01115027625076126, 0.01066080744062816, -0.009926315059122646, -0.014728210573066709, 0.0013606673336696172, -0.006294692720740991, -0.0065589177426541865, -0.0018937980721491718, -0.00807169598641603, -0.032430403667428005, -0.0639381748746477, 0.006052146038046707, 0.03242566345145003, -0.02935138367252278, 0.07216642070485228, -0.03707543719146576, -0.04881148264876673, -0.07499355203121327, 0.061623936357921336, 0.04178189803273424, -0.030113189930019806, -0.011130534767030532, -0.02467635014776013, 0.009226315863471845, -0.011607601039059527, 0.0010304395415811243, 0.0014310709122788185, 0.016220480457281004, -0.010384366978522264, -0.010051302011178162, -0.00892467734833535, 0.012648750384844573, -0.003419359673437935, 0.014642022545193326, -0.005730414469306814, -0.001891530382168438, -0.03671219969426635, 0.0025582897774547417, -0.013564480912415225, -0.012682475671951141, 0.008327834537301858, 0.0020349687919550483, 0.04828539689396859, -0.038663339476167104, -0.011432328629508857, -0.06947242631941081, -0.03576594767487385, -0.061799177784811, 0.03221702654362766, -0.0066246011414539535, 0.00797881980242056, -0.013444762519346147, -0.001090159289471619, 0.000965107956900953, 0.018480912688780847, -0.007227199606195318, 0.012085742158644377, 0.0025459384272087265, -0.016952689364219023, -0.003567178733369422, -0.0039958744754090975, -0.008852370068627645, 0.006781237406700763, -0.018024757490960646, 0.009882037939401926, -0.03156640969553095, -0.007715834005684338, -0.023120219866256144, 0.06639861113509057, 0.052911659347720456, -0.04722420876629913, 0.03454658483125363, -0.04059512026835011, 0.00949292267747042, -0.026393004219962657, 0.027318672895067186, -0.04440716348475521, 0.015003342108174854, -0.004230099085205718, -0.002157383358812657, 0.022620989890033083, -0.0046284120680656115, 0.010397534470437534, 0.02280463907293409, 0.015691945124595336, -0.01339427578279998, 0.0017514611710430527, 0.030531671016338555, 0.015527757209249145, -0.001035199865998601, -0.007465351589919729, -0.013691905466481942, -0.010506274023026741, -0.006556764404312159, -0.010642927795999643, 0.010478279666213319, 0.07355248378167983, 0.0728610762238672, 0.0631763986894788, -0.016634009983886335, -0.022977341520926498, -0.012601942009825054, 0.03681389629200476, 0.0381074917368633, 0.04967404956179457, 0.026370941724931964, -0.0017495320764349717, 0.0038212170133433035, -0.0021888293662593135, -0.003850507180364278, -0.003841627803778379, 0.009799314295862916, 0.004939619763940752, 0.004183902773098004, 0.036982156956208836, -0.00571775702103039, 0.006869990293086552, 0.00552715022982641, -0.0008865886694511066, -0.0024933483272781658, 0.014070203701381956, 0.021835675562116682, -0.02097223297223898, 0.03919312465218442, 0.11901393276363538, 0.09781668077468184, 0.018280612945833906, 0.019614275002195952, -0.06539645653805863, -0.029012463258555315, -0.002506174458274384, -0.011992579787052059, 0.028078479934672527, -0.002118285674749304, 0.017581292715443474, 0.01121574105518216, -0.00043580054323275915, 0.005928140326979301, -0.0035227500967497166, 0.012009225487600356, 0.03191271937237083, 0.03053181663740274, 0.009176412929472542, 0.020028713955519098, 0.009810436201179985, 0.008086655997059409, 0.0024751350162239005, 0.020556789504933316, -0.0015764515321118123, -2.3986093939997234e-05, 0.03057323249878325, 0.07873726266986694, 0.1049444589498787, 0.025096402420366076, 0.02425999185656047, -0.0014746821931543236, 0.02740456974865263, 0.012709669565468413, 0.010613416542437784, 0.029126980212883086, 0.028180974417012245, 0.006289843931817124, 0.039784327244509636, -0.005772147124702155, 0.021716248776054024, 0.020478959613512374, -0.00014881093955949654, 0.01208054709401106, 0.01876218645770893, 0.01154773778697654, 0.012871179943248507, 0.0035084950190860057, 0.008095100528563447, 0.0087279086436544, 0.013310111831806252, 0.011987253659681684, 0.007815517847327027, 0.0036970055371049024, 0.06167720658052315, 0.03608611953039499, 0.08658143392881287, 0.02102758206428352, -0.010483343791695618, 0.011556006537375011, -0.03498338318021312, -0.05096639323471298, -0.015099356093228714, 0.010606809541817913, -0.014333567123034909, 0.02040474177613003, 0.011387647332990181, 0.029405045890982418, 0.01877878656281235, -0.0031506504740138057, 0.022131016695276298, -0.02230106426699963, -0.019934367320115994, 0.0042830266589919015, 0.005260737230504621, 0.005111949726763458, 0.019015252195640767, 0.008863148644937341, 0.004759741189915887, 0.01352041545595959, 0.03550690522553265, 0.00844501494993897, 0.07165048173846339, 0.07630557243287549, 0.042940692858611636, 0.011289219640658073, 0.016064564264266064, 0.008948445407913133, -0.0258689794339965, 0.04708863041198712, 0.013869636785623387, 0.013401941653640344, 0.01834868524849437, 0.017190149314626747, -0.0005658642950879154, -0.005076899800082718, 0.01740850019989548, 0.005012404258475159, -0.011839801587003599, -0.0010159556520748356, -0.0076492237068331095, -0.028676823593245082, -0.002371266817504209, 0.005100259220246083, -0.0047102951216512045, 0.03562102042025748, 0.023247533936792658, -0.004812462446551712, 0.02522821478123619, 0.012319646427967413, 0.03703516143052934, 0.08493766617632974, -0.013289256045472247, -0.013810557425464547, 0.030502689505987543, 0.03928315022297233, 0.04298458041697061, 0.018991791376399357, -0.0012553086247378122, 0.0193418497238369, 0.007160225619213732, 0.010076889598516606, 0.02624623182728688, 0.03706911394002642, 0.004802274745717847, 0.0014666081434424026, 0.009044985691819666, 0.0012488351623507696, -0.0110742223281976, -0.0026889145582291094, -0.017324397715979177, 0.0012139185361046735, -0.005034359372620109, -0.004330248489785079, 0.04253750902931793, 0.047288885678900404, 0.04848796982717236, 0.006680611647750197, 0.08470480107411539, -0.011389329679831663, 0.06114850003673065, -0.027870018932542456, 0.0501241899447299, -0.03707982151738942, 0.04764074295356921, 0.019156066680623734, 0.022875909788443224, -0.03064906961003047, 0.04781991260049255, 0.004740021903537159, -0.010327679988801594, -0.018226732905797145, -0.026565553605581736, -0.018441660468850294, -0.015729889226439094, -0.023286809855935453, -0.008738386153272671, -0.019746817471616107, -0.025730458815450837, -0.013162111212778417, -0.0265137643578696, -0.010358968847371607, -0.015755942423020534, -0.018429283190176636, 0.03547357726867489, 0.02784686640818576, -0.008166403874879987, -0.0005334011151445653, -0.015808302332454886, 0.02892107207269227, -0.011873866496714154, -0.010247905845404923, -0.013273294225913246, 0.003580359785614698, 0.009514211838553997, -0.06886992383446908, -0.022068447470661307, -0.04276746536028047, -0.005037552090796445, -0.00976949764076708, 0.02808968180033598, -0.007731180746822885, 0.019291428377616323, 0.013600201800855386, 0.021108000998043087, 0.009220485906404416, 0.02555921245594115, -0.01048381009213551, -0.003712451688638393, -0.0006146778240015103, -0.03733340629754831, -0.02237361021768451, -0.029352010640204654, -0.020787873814869132, -0.049592602696591055, 0.0022117562572790276, 0.006576304032129958, 0.009659634317257781, 0.02738570041626904, 0.017744282230773258, 0.00037994374323728605, -0.022193858643348125, -0.007524889195295512, 0.04718431967449358, 0.007454361767639908, 0.027947694478492265, -0.021420536693174657, 0.0025344054628088568, -0.0025789942355593123, 0.020082156985328895, -0.002416309322846474, -0.0022788984389766286, 0.009556892064279591, 0.006418965844077116, 0.008464282281228972, -0.006119118158456495, 0.0347471067159911, -0.00018239173361704757, -0.024029048988219052, 0.02027331790255203, -0.014853711616865203, -0.02884135170218027, 0.04926933434938519, -0.0012719074757312138, -0.0066763519763904594, 0.016255356371771997, -0.013726855319009244, 0.017560600900589602, 0.025740309160054167, -0.04311132294760737, -0.055015885379514025, -0.014411611114907415, -0.03649165987997058, 0.013063169190071704, 0.004566553090536584, -0.01017795613644411, 0.018355655311742325, -0.016860989641841764, 0.010998691429498232, 0.02204027511507895, -0.025597589256682565, 0.027521845673293403, 0.0042755347732178805, 0.011155563961868908, 0.01903691813095179, 0.00014213292377309865, -0.015515810074442396, 0.007045532581034709, -0.05903872622603072, -0.036664223053233067, 0.013331640682267549, 0.03964017321028695, -0.11606966662074324, 0.024857850854317583, -0.016885029805586104, -0.027211299525647267, 0.019285494408664193, -0.08376236311046861, 0.00749815388220116, -0.008324972479918825, 0.02382957496637827, -0.01478238814527612, 0.016878140793624766, -0.04995155480945794, 0.0296259397458173, 0.05147436805943447, -0.014942098579986685, 0.05116715931339511, 0.0019342043624231036, 0.028132655132177525, -6.117285343536077e-05, -0.013783465830027595, 0.046979350451251706, 0.04642254800850116, 0.021244267509357033, 0.03302577908571382, -0.00860943083992253, -0.05009613549958159, -0.014153392343237965, 0.00775609725693236, 0.03511107800342438, 0.010630834698256689, 0.002502711125785568], [0.0066454769649852904, 0.006865959994294582, 0.04741673529785781, 0.005220443941404586, -0.0063016870349107456, 0.08484330049088841, 0.02501557249418971, -0.019507094945622302, -0.03133034778362841, -0.011341794098547627, 0.02959406468301772, -0.06204984661543455, -0.026911663348650344, 0.052859544926397294, -0.05166436065220455, -0.02417838390434408, -0.0495353190497809, 0.02474276521541697, -0.010408963134581593, 0.030969586213638236, 0.03226048430160572, -0.030005870554245518, -0.008656838123994013, 0.019151264362892207, 0.03353894127786834, 0.04556663746040361, 0.022765208933366185, -0.003705826718323875, -0.05457500161042419, 0.0013792408814018568, 0.01902349653054188, 0.03766117706940756, -0.0210346841115814, -0.033286362195939376, 0.09372932937444209, -0.03271444090135622, 0.041538359942539266, -0.0007900800133166669, -0.013002333853320109, 0.0011355895942983896, 0.0100076733962756, -0.00038809403296572473, 0.0134422779160647, -0.03679728952114594, 0.016255984162099786, 0.01946391574505182, 0.02473225026071664, -0.08082510846074614, -0.09210163438373313, -0.005276955411184494, 0.011803804363628125, -0.05255772389274044, 0.01876793633954285, -0.10318162906908286, -0.008519815019433082, 0.042236315764831896, 0.019005064071274464, -0.050997198562489736, -0.011678567893441426, -0.04271212302014968, -0.008986648300968406, 0.04013758673403431, 0.09738608663643387, -0.019987612920130023, 0.020220168347974434, -0.029766580764613963, 0.033426967024912865, 0.045072886235167815, 0.05213156054874339, -0.04032653454197617, 0.05838076822292745, 0.0221687718802358, 0.026590845927167445, 0.005065806547118338, 0.06292401073925753, 0.03346893809647883, -0.01738442335415365, -0.05516595331519376, -0.016407508603730386, -0.0067844608242203066, -0.06345185222943166, 0.011257809178566846, -0.009363901926091727, 0.04062247225822162, -0.007765191163025106, 0.060619741540751115, -0.006191083392603238, -0.024537119191101672, 0.03442025180369288, -0.008920773319974805, 0.04066147791272269, -0.05624415698448996, 0.012368281726947688, -0.002977067156498661, -0.06522209748896711, 0.002123872156214364, 0.008068987121926788, 0.0017759604593336655, 0.011789703951411197, 0.00182894220000333, 0.04575683181150046, -0.017915186209664976, 0.02721801167635096, 0.021963118605170653, 0.035916422464316755, 0.024089608051490536, 0.019626700035228994, 0.028166650817210283, 0.0449380296573131, 0.017231483485273636, -0.010489112492680025, 0.013207236237797858, -0.06055970013671947, -0.006246926593314128, -0.03405028488501925, -0.02306595528807184, -0.0019682767806638328, -0.021585999784193968, -0.0025228812589307968, 0.01747837190766985, 0.0066961742284247045, -0.010453313881075831, 0.044590419303852775, -0.010895248296258979, 0.020812053769398427, -0.014367224495291193, 0.007740213758512745, -0.007766194109383118, 0.002634031744077934, 0.005535368399896656, 0.012302101227973658, 0.007684428845407844, -0.00037435064130820307, 0.022236296305242965, 0.0019672327052116596, -0.00504192670147541, -0.020454087485175868, 0.05434965416621784, 0.05978602514725485, 0.0012745242042676412, 0.019016846581394332, 0.014599463730640234, -0.08295065472248989, 0.013184037186287254, 0.0032443415485969365, 0.03928927271352762, 0.018417139327668745, 0.008798546229885986, 0.023394713127596882, 0.0021295561011057435, 0.02205927734414582, 0.020740070456157094, 0.011295198333216676, 0.02576307466175721, -0.0030915614430619834, 0.007476066815133104, -6.58302761360645e-05, -0.022120871474363864, -0.018192759981544543, -0.0029647436111173335, -0.009609747582566169, -0.04642794806928142, 0.009057536328121592, -0.02273652923186014, 0.014266083851454676, 0.01145952685284338, 0.054839810480680054, -0.025219212829326824, 0.08304475589584386, -0.008696698152333482, 0.035289566461391544, 0.020546746790997755, 0.05289758992700554, -0.01171666661000934, 0.03643870047816566, 0.015752067241754642, 0.02788887372129268, 0.03624191454845915, 0.01702266233951533, 0.03235049739054518, 0.00542613959044, 0.02341517407253736, -0.0022038894698834907, 0.009861975592689226, 0.0086545233136178, -0.0009250334615506658, 0.0020574452639822525, -0.0002892113328921549, -0.021066526355272498, 0.021650047343298996, -0.014357947551547318, 0.017886075338051192, -0.03642467609188637, 0.059079905550717786, -0.008089470674463346, 0.010259433657806306, 0.012429263349838246, -0.009109436522167811, 0.01112932053589264, -0.04052504597413132, 0.0556567977868887, 0.02552275781291133, -0.018084964645864777, -0.00989347940317406, 0.0036827682752881724, -0.006010304440190533, -0.0008689635360690247, -0.011999162588234212, 0.0024429487581146274, -0.005340562229446175, 0.008870985042961766, 0.004208470036494253, 0.00031162131689997327, 0.00025155215169687744, -0.0037123065773400185, -0.009707918260722807, 0.020514012973561785, -0.013012249444010781, -0.01499784640977766, -0.006469540616310938, 0.018631571710367927, -0.015889554861480183, -0.010133784527475072, -0.035318145473297397, 0.10398191648221673, -0.0067027276516982365, 0.013538621750642764, -0.04340893016827381, 0.07037256581603235, -0.0078851856859735, 0.027886452624017972, -0.015113677598226287, -0.014714584182638048, -0.006326374903211004, -0.014439356683147778, 0.0036653973644848676, 0.0073423903331213715, -0.0018117752864321476, -0.006156106760435187, -0.004004950826279366, 0.0015842080457780469, -0.0004640319029941746, 0.010165246842844537, 0.010976340413233327, 0.004806504914425593, 0.014913100793983072, 0.006847022693867534, -0.004870779669487354, -0.002789159884271932, -0.001767555574035666, -0.0036127238623434926, -0.011205072092607361, 0.04010009520699945, 0.011258236841214188, 0.012651641613637066, -0.04267609251863939, -0.020904599711687354, -0.009310495675996476, 0.005558249092047564, 0.001651100412972899, -0.03527209637503909, -0.016193980994335555, -0.006583492565577649, -0.01682234427191444, 0.0008130321769376069, -0.005376485247066955, 0.0013335697654812348, 0.00016547412591575952, -0.005455671223846497, 0.011882052589660403, 0.0062189000895307555, 0.010645723175481691, 0.0037022226698595535, -0.007318085537094547, 0.018406061070443885, -0.0029228250134762865, -0.0012162849547393086, 0.012027025943600833, 0.06329769013512442, 0.02298886041158967, 0.004112807532354468, -0.056034099925151196, 0.011606956093415674, 0.048645137958930496, 0.039672206654913326, -0.017115346472875135, -0.020003633896175942, -0.008750833955832867, 0.008232665198843326, -0.028214985907593672, -0.023983726215146703, -0.0272466227153843, -0.018852466485209347, -0.0025421192238580816, 0.00826005410566419, 0.024045093343874842, 0.02692846090262825, -0.0035835201686322373, 0.006697166646526839, 0.001021235722102041, 0.012182120418058193, 0.008108696534859157, -0.0033087879054773455, -0.010765114990073031, 0.02786343577807141, 0.01238909614446767, -0.0235281801522181, 0.03223149064500936, -0.03669109276857206, 0.007159335413384222, 0.023232827396962013, -0.02503115964895546, -0.024970818855646084, 0.020482348967896354, -0.0054454652047490806, -0.02679372863114993, -0.033944052958823114, -0.02180376178285346, -0.022164520792176626, -0.025465169611892262, -0.020644807821165956, 0.010203524842684376, 0.02209906812175138, 0.031377223996702744, 0.01575546261645471, 0.016535119226790063, -0.0003488124997705347, -0.002769384092937112, 0.00833866761045074, -0.01903571416014228, 0.00704536313668262, 0.001548502654844946, 0.042046416195594384, -0.012559224558230213, 0.04393043840284152, -0.023615785166695876, -0.0035044323605151685, -0.0037051861336818005, -0.027888869777668225, -0.018317281863360086, -0.006533026354544647, -0.032533180817961874, 0.002026735316656327, -0.025069962759265693, 0.008115343520086145, -0.01116658722561335, -0.0009505824750404749, -0.005237209747808543, 0.00853095400941962, -0.001342493162281643, 0.04481491987876061, 0.0181622342856203, 0.016016723045222173, -0.0021797108549977645, 0.007556835260085862, -0.012242127572698337, -0.0018059210246903186, -0.023861502798053363, -0.019812657072246095, -0.0001524959996610175, -0.04713055959817487, 0.013298279408295024, -0.005870907895186677, -0.01852935969353343, 0.010634684533993872, 0.04059789728738378, -0.0728786743845807, 0.06635533987052138, -0.02445386862319467, -0.004855266496507324, -0.018324054803483817, -0.008549525993166418, -0.006004782500198529, -0.0030422264785529398, -0.009053361703353803, 0.00919122557554811, 0.04010264506871071, 0.021879365263351044, -0.030061808866558664, -0.008600721511365284, 0.02828754274069681, 0.0078105813691228595, -0.0038138101341550486, 0.003082135156882195, -0.007132743534927951, 0.014166456532062121, -0.011581664056933243, 0.007678244190245164, 0.014724081315157508, 0.036371058340866895, -0.02039261078346387, 0.018770438450807954, -0.0017561735442005104, 0.024474793501406213, 0.06297444203931081, -0.060807623594028075, 0.004220261194397472, 0.009897612391360701, 0.03216389596064736, 0.010215712597579592, 0.0047567180036858555, 0.005666291324931503, 0.0017226275613566636, -0.01903064816395789, 0.0242246183957794, -0.03433870865778869, 0.026074305377086493, -0.027565053764262177, 0.033081594078295674, 0.019059072064258182, 0.02629214618122018, 0.0085894566786506, -0.00605013797079998, -0.0077649221168435935, 0.005266862981114653, -0.02070732060663527, 0.03672963858167872, -0.02144084654823766, 0.061487249338839714, -0.02015345273950843, 0.011907274421122363, 0.02576635343853455, 0.029001799577115933, -0.0046672542423756725, 0.010982982051274726, 0.025969535185949928, -0.028622064238559602, 0.0005823926096889724, -0.015111930767322097, -0.009614448868125793, -0.011983275826247294, -0.002803714209192651, 0.016057052019459943, -0.022505239938482535, 0.005069563870280084, 0.0021123013760530893, 0.01604939658621648, 0.010633806418522955, -0.0018844571284556224, 0.009034330172105916, 0.022580300326930876, 0.005257289589683599, -0.010597382308488019, 0.03271207696668048, 0.011078634826691929, 0.0009872203909167005, 0.01611354947093761, 0.02786274668231846, 0.022907211871190603, -0.003883738978930008, -0.00975395824685338, 0.0631109648434117, -0.004769078265405663, 0.006996655263087036, 0.0076654671436540405, -0.006743135268989193, 0.01604825875756519, -0.004134058443930795, -0.017288064131571662, -0.01372136288689763, -0.003970058110633633, 0.002280354165295843, -0.013176619468060964, -0.005455851333081831, -0.008203439763700016, 0.004189834633340713, 0.03508435874765609, 0.005665160857248881, -0.004552454263478363, 0.01961479711549466, 0.01995264116639702, 0.004872402865731456, -0.005115362310056156, -0.0423864506470829, -0.004147429910488541, 0.013151283795796782, 0.04193308047205358, -0.004587823197998375, 0.016307114360608763, 0.10303726568000017, -0.01088626417935097, -0.026465860628439176, -0.022045373681826963, -0.007089910281424149, -0.008697781132748595, -0.006423515501819985, -0.014274972282058108, -0.020771084463723898, -0.006448311642554286, -0.015750030046696888, -0.007461225983877558, -0.015911877106184028, 0.0020418561694341597, 0.009861491043546023, 0.0015038056918561173, 0.032143744505498034, 0.019709673743706368, -0.003005879759668719, 0.022331172841858045, -0.037889427157418464, 0.045655618490545946, -0.02038277587951306, 0.005000315960173414, 0.021918735144003918, -0.031115315872742945, 0.048400825600771, 0.03771194698284721, 0.05550301832139351, 0.006707146264443332, -0.002170983709998161, 0.012183277530056148, -0.0014633246717200568, -0.024973667452760143, -0.0021847759745728416, -0.029271747847246992, -0.012066332408912733, -0.03186524502738044, -0.005720117257689166, -0.016047111587919334, -0.009563497302956143, 0.008813381086201822, 0.012602332666669477, 0.0028947602810742187, 0.011692048303616347, -0.004005413130542795, 0.02468917046495115, 0.013155673768915133, 0.03868997275664713, -0.07917763721676532, -0.04234914632512217, 0.04710706654554758, 0.024419027964805943, 0.06195713716585362, -0.03736152972901035, 0.0639203797419443, 0.08303862090393271, 0.04532584443628857, 0.0015277894548996044, -0.04106191567699998, -0.0006994977521825176, 0.0032129279775697686, -0.027086712485827086, -0.0064868167863572825, -0.016218157195224993, -0.01590181287917886, -0.030465567900566478, -0.007659582398470416, 0.006822386160353136, 0.0019881219030384962, 0.012045980993247595, 0.021741550333927863, 0.008347340401497188, -0.0036500784402221163, -0.00893556009457907, -0.007515237476355227, -0.0035643104171545143, -0.0012507765723586862, -0.04364183477666278, -0.025340975947071936, 0.022899076061470344, -0.025494258341344438, -0.031305863018474454, -0.006491771363686416, 0.061092791273285145, 0.022354473555595594, -0.009484499972962626, 0.04695051088608831, -0.013142563200698405, -0.015414236971007982, 0.01436145427352124, -0.008661441793359355, -0.01308341555245815, 0.004642041550464464, -0.009897470236656618, -0.004141139022031802, -0.008483897751744436, 0.004559872486471724, 0.0004196641723765055, 0.006515692866481499, -0.0021263906279224685, 0.01777687387259712, 0.026241246067158355, -0.025297441302186734, -0.02613962510085957, -0.010941206930162286, -0.016717622090793086, 0.016348554077737363, 0.035466539238242785, -0.006111947319843916, 0.019706709882967962, 0.004812929433479634, 0.08519298639239675, 0.0016442826849265518, 0.027744071093493885, 0.008175931263587132, -0.00974009391851803, 0.026378782747645674, -0.024025300320053827, -0.0067707831112411914, -0.0049812495015247775, -0.012796691551741455, 0.008232756379332368, -0.008445253960349995, 0.005493075918675593, 0.004582869817544119, -0.0008965540442510111, 0.00902544405748483, 0.004025002504545365, -0.0032959905357793765, -0.052683212064924365, 0.006970739769615715, -0.059875107129213664, -0.007949602049008192, 0.0011167681467613827, -0.02697351252242185, 0.01923018874658422, -0.011096588997717715, -0.024349227102503205, 0.034397613071406576, 0.05419678833147426, 0.05345015431322091, -0.013328699961552776, -0.008880288858518619, 0.0033082362788043915, -0.004837556984171219, 0.007742217266079118, 0.015154160785329324, 0.00011460328032262389, 0.007069165354751106, -0.002753891501651694, 0.004879341796825448, 0.005230752659062562, 0.013346973149762041, 0.012353718785780772, -0.006110271367861647, -0.013162416211366311, 0.013687982836183485, 0.022192251806793167, -0.02280582888783019, -0.015529594721891995, -0.0021903167439339334, 0.02001093461563549, -0.02176544311133023, 0.027605023779242083, 0.0004863650485511034, -0.029036959052236407, 0.007054735458626432, -0.06446467732785907, 0.06810054811249865, 0.0303181358987765, 0.03300957126879386, 0.026319461953952992, 0.005287333285236322, 0.015256286623353413, 0.016753113128879792, 0.007991499549389606, 0.022697361887278535, 0.0012248863200987896, 0.003861323139778078, -0.02155846780245298, -0.014479294441486112, -0.019869704061503023, 0.04982250044041847, 0.010249872862418312, -0.041832367570670145, -0.040155159576451556, -0.006871385209837891, -0.002837640090056185, -0.018867715214678577, 0.015354188991173624, -0.0022443008769450173, -0.004080242754539186, 0.009547874066194291, 0.019812782582885283, 0.03740480671061799, 0.004804344816953295, 0.016918612828828977, 0.0964873954055825, 0.008274875796023698, 0.03839868971660765, 0.030641573679492728, 0.01164757833099593, 0.017004850431140552, 0.012026912893213226, 0.008746588255198483, 0.011909871838238252, -0.01074941036204934, 0.0392406838978447, -0.01826351203657168, 0.010869588103511704, -0.05751017434995936, -0.002189913191613636, -0.015339689020811929, 0.03312681912554283, 0.0245923479005451, 0.012801751503875155, 0.012665315720332705, -0.015144334460368215, 0.0056032042679091286, 0.06837905336323256, 0.021807338302963334, 0.01025540525344205, -0.03006124338757284, -0.009549278101401028, -0.019758617934637897, -0.008317562751334676, 0.016719813571000663, -0.014442703362688783, -0.006093675726892133, -0.00046783443138556955, 0.004579417274095062, 0.024693209268051124, -0.02686920747982223, 0.027494502189751736, 0.015979445321690065, -0.036181488940872815, 0.023302320318438482, -0.006837247548639806, -0.04743767430006407, 0.0169902102061503, 0.007665875804948636, -0.05930714101178581, 0.03332230664998307, 0.005047292870372708, -0.006847211255110358, -0.0001354255038522281, 0.021202722498819812, -0.0045365966684363015, 0.07774656865336421, 0.04397700097929044, 0.0433396602460301, 0.03409078765512634, -0.01881937982147946, 0.018879519314717937, 0.013816399364002687, 0.0390624828974257, -0.014723540897355064, 0.008697828084931076, -0.024683669773813307, -0.01851289246954622, -0.02264163548267445, -0.0007572267164496758, -0.05355873259782706, -0.009230985897438777, -0.022665556967012602, 0.0013440136400716095, 0.008475222516145875, -0.009845258538833543, 0.035404937786471205, -0.027492664269706656, 0.0014678858994115148, -0.01802895741324922, -0.03475905816411189, -0.02023364828400402, 0.002273176366643551, -0.024216275534420958, 0.039699020346196885, 0.022471869820009777, -0.011732724161615513, 0.05361870700045772, 0.000652037273498105, 0.01040429019158079, 0.010275892701938663, -0.02776235707444685, -0.04991635997767784, 0.05922436614493712, -0.017324874599560593, 0.01100701104123896, -0.05185519011609144, -0.007366831915860487, 0.043819367370219214, -0.017416254298659554, 0.01454015251980243, -0.04234438430573841, 0.01396211781056633, -0.04995187503704614, -0.01530825457504936, -0.013777236555664256, -0.01652247640345397, -0.0235078030763665, 0.0014333653030314487, 0.06405281885680338, -0.003626024187828658, 0.033870236107138955], [-0.0519168143209472, 0.03335964968484961, -0.10104743518456569, -0.012697426830516391, 0.08513551311869848, -0.015652991680156044, 0.0013796148295027511, 0.05499906006360669, -0.025076896173324096, 0.025020281516058254, -0.010344007541027522, 0.10125179650925345, -0.018379526397403714, 0.00859361626441885, -0.010565979271519201, 0.00845387630659374, -0.013045747934846532, -0.007761322982824615, -0.07085782672823894, 0.035522315036597536, 0.00797520888284955, 0.07008158055660038, 0.03861117656390817, -0.027774050348025263, -0.03787182955005491, 0.03976611823662568, 0.0003866574268381703, 0.03840266567749938, 0.00498868312325139, 0.03775178984543078, 0.011414894178890697, 0.02118140655463032, 0.029725329749165485, -0.03189191792703144, 0.04552944704600824, 0.02088385778080158, 0.004942485049415391, -0.008168702814251534, -0.020887001583432298, -0.020868362345910774, -0.04987457423935123, -0.024287484892745997, 0.024205647115027228, -0.00010021586259157048, 0.01829137329117395, -0.03628631599311869, -0.011779951304336296, -0.04636815096957805, -0.0171280035855907, 0.005464850883145619, 0.005548616904659469, -0.02274354535630972, -0.08226085016234795, -0.08214370841156528, -0.021179084182214026, 0.027877410018059146, -0.01977246127532569, 0.014633990280457672, -0.021716707148749504, -0.03368574103295258, -0.002243121155680474, -0.009279204156286431, 0.02008740288013881, -0.00896344314823094, -0.04500827549285234, -0.07720827245234962, -0.076766244337321, -0.04907911145404587, -0.0920358977558152, -0.04802521131786643, -0.06535544806859953, -0.06882746985905644, -0.029086844816859216, -0.05084028460787853, -0.018929967861452058, -0.02654568432532923, 0.004517657258448127, -0.05310277066429971, 0.02905578471188458, 0.020236671622967724, -0.06525693517119571, 0.033211246337747566, -0.00439210952071997, -0.001166100149498458, -0.0237766599445392, -0.06289650786994867, 0.042160210875266134, 0.01431264114565258, -0.00640345815527001, -0.039641218387257704, -0.035951254566288525, -0.023516584162387572, -0.0637737870655471, 0.011726740254515517, -0.037043147696804994, -0.04589173824750884, -0.032248533103907684, -0.053945788291535735, -0.002640379504285098, -0.04586732280733844, -0.03520822735915551, -0.01939350707462492, -0.03996399642065754, -0.022358222738150697, -0.04066869495150423, -0.02093117499696508, -0.00800835912716605, 0.03077240517152513, -0.021626441976185087, 0.02468274866583692, -0.0035094376870303083, 0.04398788085062394, -0.05880873532282594, -0.011058780608366918, -0.02479356748832487, 0.008204343207453965, -0.01425241952818141, -0.050246840126881694, 0.054560930037298914, -0.0053781833552465465, -0.01090319398246478, 0.011201860746538282, -0.03422151540070487, 0.0214189416041001, -0.003770104294756385, -0.008813584756194908, -0.010040837345431496, -0.011573101280474415, -0.007064833481421845, -0.009046052978381245, -0.0091666662659257, -0.021204516294292722, 0.005608318894886359, -0.004518298693818883, -0.04539766962824034, 0.026973384520412855, 0.002369576928454237, -0.08221154101388833, 0.03238272589690885, -0.012097818055606578, -0.017858906643775194, 0.013739372498430337, 0.02039949979429958, -0.008191670855275128, -0.006604476272375534, -0.02512930560084155, 0.01456981305107121, 0.020609790480976477, 0.011354116057284473, 0.0038186050253001627, -0.01746691525968653, -0.01803610748606619, -0.031194866492021016, -0.009671122162984037, 0.0036764352430745865, -0.005010173366986726, 0.020833115822841773, -0.002528497568026781, 0.016548128372061155, -0.009115302341726897, 0.008798400108615465, -0.008630360695999794, -0.0037942845518861993, 0.049425220186886575, -0.05566861972983178, -0.043116673362010104, 0.0279726677455209, -0.08213995415425818, 0.013815313398713593, -0.027175563907562764, 0.011068939174192237, -0.032286272187768854, 0.04547231588005289, 0.003625900635464523, -0.004757163808913981, -0.0002123263699435012, -0.017092009280339077, 0.022406317866400054, -0.004602056595209788, -0.018684271165901885, -0.0017895324661755582, -0.038022701982508594, -0.03018003911861072, -0.009132493806949757, -0.04438418697559321, -0.009172043426729917, -0.02636319374891398, 0.0008669319045029438, 0.00995512328192357, -0.00027606382506298614, 0.023393784056201516, 0.03387413092689754, 0.03844667543303521, -0.012027910932023917, -0.019567173275528583, 0.005366051529468166, -0.05113907674039876, 0.0187780713515947, -0.04802689119879334, 0.06309210411396036, -0.009884010714293966, -0.021080491240317023, -0.0012510919072517212, 0.005107003688090203, 0.0041122277891403785, -0.021945980092725907, 0.01887160624574928, -0.01151930152759088, -0.017775244828021886, -0.014860277570059628, -0.02516358437057425, -0.03311738234787519, -0.0064577270449122925, -0.00585490354340793, -0.0048708632231839345, 0.012121429760936235, -0.007834452344442055, 0.004538630459300982, 0.014596720909260189, -0.0037459884533574193, -0.0725939196090912, -0.03377335519407657, -0.0003764016901577015, -0.03436142239538908, 0.0021447511021499377, 0.014489840729026532, 0.03711918383659137, 0.007880992230880086, -0.026336274383177722, 0.056935531008400424, -0.01649913186379212, 0.013281587942210392, -0.003234250130472184, 0.030496189313699497, -0.0035952992933455472, 0.004033293211064401, -0.006294699463524525, -0.028492670155740932, -0.02745462409483447, -0.018827574454035843, -0.01763243926551646, -0.012546692771977955, 0.008820967276177703, 0.003225427508098018, 0.01088774995997622, 0.009048804152272393, -0.002363522570422673, 0.0018056199594534553, 0.026939203113116945, -0.02346784313671756, -0.07590711859139836, -0.025629581371035735, -0.014811873870755634, 0.01585250836022024, -0.08677841815139431, 0.020055042739684892, 0.014965230347373548, -0.017246398923648702, -0.000594460970782348, -0.005448965484038778, 0.0059649204960076285, -0.013069405926836305, 0.01612473571107674, -0.01593517897629251, -0.01249043048355084, -0.0029174417152119563, -0.03411968084982191, -0.011582639125496999, -0.008017456817561669, 0.013388499860723118, 0.00507006240304976, -0.003178044672993524, 0.0030172238373928693, -0.003184953406293432, -0.0016489351318044463, -0.0034530899604858466, -0.06867229788779809, -0.03278273688591668, -0.05958102656242382, 0.05970741701668139, 0.016296830385076837, 0.031022794296235126, 0.10167559856638585, -0.013536942978594096, 0.004906309381423562, 0.018994010583127077, 0.01528600276276266, 0.01390992731685217, -0.009485470993909702, 0.007236125261570492, -0.01463149688063556, 0.005715291462266953, 0.006524495678209915, -0.006836178886609205, -0.006652700312020863, -0.0022672507954703755, -0.01333171754765366, 0.007887309554996644, -0.002598191996122992, 0.007138822879883314, 0.010900745929503412, 0.01460575309813626, 0.01829442941178547, -0.021460514487694482, -0.0054006889119380935, 0.001730117168524208, 0.0010271737612856057, 0.0066001441449690485, -0.08391998878434635, -0.06268462069505733, -0.02769868025122289, 0.01452161179360926, -0.03890098390620318, -0.010079644422016327, -0.021815964587396687, -0.014139611727373687, -0.0018004238195529203, -0.0006951700934737096, 0.006264417811096107, 0.00998069375050777, 0.026444323686755863, -0.014363019174787679, -0.006206486682898208, -0.002173553550719909, 0.03952840112110645, -0.0009265149955804766, 0.0035043417021975655, -0.004256991117856243, -0.01595953705342747, -0.0014909657825627571, -0.029126829008911653, 0.009595442628452642, -0.04035414549015648, -0.024591094463401162, 0.034522287084383436, 0.06322360713179313, -0.051447556383256175, 0.006155783748571099, -0.03934105309394091, 0.047972612286507475, -0.018642760262723716, -0.020353248402931134, -0.01507788831853026, 0.002310384617647194, -0.007202512448407036, 0.003935924074511146, 0.01673968207042126, 0.009331477248237026, -0.003943157901760973, 0.01730222033027562, -0.02131394579557335, -0.0013462619761064989, 0.00849937066067234, 0.028149280681135962, 0.005838307789675555, 0.009505243328526236, -0.006611188216013312, -0.010358108388231448, -0.012533414205463974, 0.015072391241306021, 0.026257645419889588, -0.05297519455896139, 0.03144683332138468, 0.010608724269072497, -0.014784920237935336, -0.030130206554898845, 0.02542204861875286, -0.03966765309917584, -0.0015359356686584758, 0.0082585984514646, -0.004235790650549467, 0.005026144973250163, 0.016769427972998224, 0.012581037774840629, 0.024532578723592165, 0.011109010860876305, -0.01798568267845937, 0.01788207964078456, -0.035568133808049886, 0.012962178040874546, 0.0037031406978972046, 0.01947301380807049, -0.009660161459160863, -0.009426818721302495, -0.007439414422611766, 0.007849694127040525, 0.006787618011646025, -0.007190963487728594, -0.02581439505499451, 0.01528209510180662, 0.045603179178862814, 0.034589471249009664, -0.005741447379672965, -0.026183571098792734, 0.020571045998660185, -0.018871293799599464, 0.01679186871861079, 0.0064128414149896016, 0.04353026460061686, 0.030235769713145223, 0.016860454117571207, 0.012024795202704448, 0.02082191164222458, -0.011218836961778916, 0.014387497356857633, -0.0004503510642285664, -0.015042517749033448, -0.00816989584173946, 0.016431767692260173, 0.02477352833104153, 0.013833590164495872, 0.018416160325320056, 0.025071992186278532, 0.0003642579164591361, -0.00015208363029520604, 0.012993628637048773, 0.03575586598872634, -0.03845491571627894, -0.0037443308168951654, 0.11012331263996943, 0.010761253472421333, -0.0018892971888698341, -0.009110555338557145, 0.006755593086017366, 0.03117756735434176, 0.059069123218577754, 0.04274444335514789, 0.02514644280985745, 0.03662782759487899, 0.004500828673715823, -0.0015479299961118906, 0.028512424782815547, 0.012371676979861532, -0.0008546437693054349, 0.005280299032159666, 0.009559189138033978, 0.008608160298486076, 0.016933271187479365, 0.0021715304277563113, 0.022457191886081272, 0.007214074599730119, 0.008276912010729205, 0.026833585301957605, -0.013829020561674133, -0.027889172067758556, -0.03694430710941613, 0.029719818117671694, -0.042786058288162045, -0.006212495183311852, 0.03648963797718772, 0.014497630820659711, 0.02625565973492586, -0.004187641945297382, 0.0032108164357877913, 0.0031286569297990134, -0.0003195745859491197, 0.012555864953395808, 0.004652265913089237, 0.0008196281701323134, 0.005690478361044233, 0.02407661758038348, 0.006879295646878148, 0.009639119217977247, 0.016812892480112956, 0.03512295415526489, 0.022308197923081453, 0.0347015612047226, 0.007088240504781265, 0.007041609566963097, -0.01961417219970772, 0.0040877322070706455, 0.030650224965665458, -0.0331434551942555, -0.029715602898947934, 0.006741035518828181, -0.03160351767370215, 0.004643669622751447, -0.0048807687430486085, -0.00823331637889726, -0.06369915698630042, 0.017814322684473465, -0.01692574203952595, 0.0230145555946268, 0.00945191040057677, 0.005942940770839031, 0.0038630182440944462, -0.004748452024830941, 0.019593543735660454, 0.001885333696400359, 0.018355512213380328, 0.024734510351303442, 0.020084637796603313, 0.0041495873195439145, -0.0045281669414391655, -0.002034076015953961, -0.01885948567841612, -0.021018107428445672, 0.03205887944661917, -0.045497744440307755, 0.003062126274620388, 0.0016846880882952036, 0.01177377265786513, 0.037043205539717794, -0.017743842500140345, -0.009953792629997116, 0.020308725643560295, -0.009104897670213505, 6.66212252406107e-05, -0.0593080483490769, 0.005161405546574802, -0.02254201171603493, 0.004339382461636765, 0.0009403829483113934, 0.0032188212327753708, -0.01519498159126794, -0.035573406126567314, 0.023846893601038675, -0.008621219044835452, 0.008537594663526047, -0.013806117252134304, -0.006754706096205612, -0.016819143052452634, -0.020229188443241723, -0.003026340602525107, -0.01609789582175513, -0.02256444546293432, -0.014576811822342614, -0.022512337440214514, 7.055420294845062e-05, 0.01325339560164216, 0.08201512692167995, -0.027615618804468615, 0.021264725685996924, -0.0008035344784542544, -0.013958662978120812, 0.03141309372451958, 7.510685666204812e-05, -0.020187113203465838, -0.0044607368605792, -0.02094832350480682, -0.006864814690319418, -0.023060068700316953, -0.017428429624952037, -0.04306624465732426, -0.028789457280879966, 0.02324253595656739, 0.00021252964257944182, 0.016671886619698782, -0.005349699767928485, 0.006636685659843063, 0.0008305115118168208, -0.0017841203909445815, 0.012260451189716044, 0.008278989161057635, 0.003726878340108549, 0.03456070775610555, 0.022653886495033235, 0.01804123982243598, 0.017079278202724035, -0.007237788152313895, 0.0015198017300173945, -0.0700400942358006, 0.007833558542338095, -0.015902440381014717, -0.01939963108819622, 0.010693366572491616, -0.003536895535838736, 0.011556024659269819, -0.016048848791282253, -0.0055943552553140196, -0.019210294137428932, -0.0028370385692722947, -0.02254924682125985, -0.0035564185723633507, 0.003854519561086724, -0.0005791903405153668, 0.016577901448661406, 0.015783584098710085, -0.003716113073193747, 0.00033460974632812325, -0.0046065810766788015, -0.005648953403254775, -0.01995332836934741, -0.03242251228392546, 0.003945269901185578, -0.0003505742436224119, 0.01332993254076698, -0.06721635169640339, -0.03283075523554078, 0.02285252369822446, -0.017537155312002665, 0.03294762494157828, 0.0010948480278402564, -0.008158640189338076, -0.020278641076296816, -0.009784518785718604, -0.017792945474992165, -0.0013502566317774084, -0.008382339333544543, 0.005555750802427809, 0.002530360049737304, -0.011410091561529926, 0.005519534940834468, -0.002055648984253656, 0.0031879344616226337, -0.0001855659653731481, 0.014516775429957688, -0.012737665760793857, 0.02126912918186761, 0.0007479532550474762, 0.030974860815006586, -0.0042551253572417225, 0.05522069069594841, -0.031596833453084325, -0.030295744757436124, 0.041733055507465276, -0.06263541699754901, -0.03176828662017244, -0.013063301796018898, -0.05334365980077113, -0.001930331598081943, -0.0015759298439694009, 0.021171305501148277, -0.015774332210401868, 0.012680220145033174, -0.013758929102389806, -0.0008074716006829879, -0.02081265851664369, 0.0002042320105651727, 0.0026938874433420656, -0.008120716872710368, 0.011408933854284726, -0.0016284634905309673, -0.0033771908044491874, 0.004046978572885296, 0.0005533661773591857, -0.04850294245486999, -0.004853319956387669, -0.03049187165945099, -0.03293294718843413, 0.047389174855293884, 0.06401779072094277, -0.024723167355544518, -0.006298699519661101, -0.01283128710034622, -0.08979972472655462, -0.032438198415892426, -0.0007832829621085061, 0.01961564433535549, -0.00015271804579640802, -0.05921064165718872, 0.0023908238028656783, -0.011939059506419039, -0.024388450199329805, -0.0025209214622522193, -0.001934871356772511, -0.01018210859816607, -0.015497843828615618, -0.012722896069595696, 0.00976668066358866, -0.0041002661328046345, 0.006498886918028031, 0.015061777379574284, 0.011602586263118022, 0.050228258166168153, 0.002235596156834344, -0.017590322389265833, -0.004661838442234027, -0.014058193111478145, 0.012000491848085399, 0.047200465747687624, 0.00387468127085178, 0.04138639700957226, 0.006439848496641719, -0.10052889878140196, -0.03018656600424213, 0.01802974847242672, -0.021988357190862923, 0.005263349906649853, -0.00803762992528545, -0.008275719525685565, 0.008376757362145531, -0.007109122383734477, 0.004582497882123939, -0.013833192780477418, -0.00081327884684142, -0.006993009030930103, -0.011978081798221721, 0.01685748335814009, 0.0050001103266983805, 0.026041211579436802, 0.013286483346875568, -0.009745066535443919, 0.023111693230568844, -0.041261029268487605, 0.008029875079680142, 0.04601375321396947, -0.06771095184100431, 0.0013725228538204732, 0.033100023050249804, 0.006678688768669068, -0.007523014276434314, -0.035168327344934004, 0.00890302434171288, 0.0018406555755609262, 0.0050646148564693, -0.002177718149717242, 0.0025037511973713704, -0.020435390080528856, -0.027088782087988338, -0.045040075013251656, -0.042437911647109576, -0.06398409894668826, -0.055032650691376146, -0.03424377451223179, -0.059838389522866846, -0.08989229057420202, -0.11575137737705012, -0.1302887785077524, -0.09514924390266964, -0.09636682021555511, -0.07527727228125795, -0.007777194506566711, 0.014317744737272105, -0.12413967477250455, 0.03478667455782933, -0.02509389509355838, 0.0024383324088642117, -0.0193377464079723, -0.025873984969972022, -0.05211399744256426, 0.04531108993133581, 0.01550145141463115, 0.029089087086108134, -0.0651035024419387, -0.016131712475777535, -0.05002546759644392, -0.057497851547689806, -0.06733041278818051, -0.026832329503012793, -0.07121974745713236, -0.03437249563607831, -0.09882258273925247, -0.05563865257494807, -0.05176441938099273, -0.033702793490445054, -0.008097682361909903, -0.06737767458036242, -0.08702632409254271, 0.010343070579002913, -0.010656993280369984, 0.03567522375899781, 0.0429643140741474, -0.03257721739451395, -0.04364763198407756, -0.041614796292395596, -0.02374599404442292, 0.034500855843146036, -0.009510796962948913, 0.03310585040086234, 0.027318461892033186, 0.009017387162995756, 0.04188416575489122, 0.018614951201655665, 0.030115385459817602, 0.007499489048476519, -0.026688795132290555, 0.03216661673876145, -0.02340454585585154, 0.021351835711864567, -0.015650742220206144, 0.008509848802359745, 0.005314348263435218, 0.01525225936590459, 0.01881406056801192, 0.014030004146263157, 0.013245948026606204, 0.05440375981550055, 0.008238153021319108, 0.003990182983534406, -0.02215127963435228, 0.010982909918202017, -0.01270944729667647, -0.04672950209450432], [-0.09240839641956625, 0.04113234293788586, 0.007091385896684113, 0.027745465204190318, -0.013769932581486807, -0.10542186236868364, 0.04106483572991282, 0.01766467580799934, -0.04784797166693304, 0.01996454879609808, -0.04876687284935373, -0.005726824891196623, -0.03717218592528826, 0.0025358992240250497, 0.01386263220812869, -0.023255359936503, 0.07731458033873675, 0.010228138877638838, -0.031353918200621465, 0.021371196949861334, 0.032682688761542136, -0.0032630151524816508, 0.018553188050526307, -0.041962174138607505, -0.004260391074427561, -0.0030950947366058684, 0.04728036162558585, 0.038199193351185504, -0.0072425065307609995, 0.009057915037976814, -0.05341900516871176, 0.008183782535283542, -0.019846940090471953, -0.026131680381996036, -0.041675276630139625, -0.03180964816766866, 0.020421732113980545, -0.018078444973520978, 0.0026105344891682457, 0.014849258208104817, 0.024304050279549974, 0.03203084555599967, -0.001503485358654283, 0.01848754495184077, 0.013401123627686173, 0.038847919865613756, -0.029957339858695187, -0.014182208851459616, 0.019051697831086234, 0.03393063084704498, 0.0031412716681131587, -0.001485815235592869, -0.00975333304937724, -0.02574970809597991, 0.029255595665389413, 0.01613368392374679, -0.02896593289267099, 0.014447402206791223, -0.016073585832048744, 0.04050344540036528, -0.010192312476006247, -0.022097539726171567, 0.10197254281534357, -0.05514870504725567, 0.021003311150838606, 0.0039373628520432, 0.054982767118433085, 0.0050475998103462075, -0.04854933348116059, 0.03180327825917215, -0.05928955530823445, 0.015815004638010607, -0.01561234601023839, -0.00827651229690877, -0.023489385245423034, -0.015986904936922383, 0.02759463047875751, -0.029668962464584305, 0.019312581908189356, -0.006680626699277044, -0.06124661333309785, 0.06612264507313781, 0.07748010405542895, -0.010278802438995411, -0.006823546953947582, -0.013328021606145948, 0.03260761894573267, 0.01317933299249835, 0.0007876614211861308, -0.02040059901218113, 0.032084036379028194, -0.03493646366621882, 0.049661811374345825, -0.002799457648715836, 0.006386991098497719, 0.013145188627175255, 0.0009010100588570896, 0.039112377769010276, -0.03730124445521158, 0.001605209786595058, -0.02777305327021365, -0.010854721836801749, -0.024577673028980934, -0.02291357687546055, -0.0443212040857503, -0.04418211412019791, -0.054680076034886324, -0.04446523518489421, 0.022264604352884392, -0.0012221447066636626, -0.05370657423602285, 0.05102760019535788, -0.001207287509578455, -0.048681894273482317, 0.03676878834187033, 0.04947808206061444, -0.020965883112462214, -0.055231975393851974, -0.006936051201720968, 0.0022644636856244257, -0.0059808345499343845, -0.012724798650145879, 0.03364635442526352, -0.021106690463279537, -0.02379236425472596, -0.009863955920384236, 0.007646743992875864, -0.023165449026879267, 0.03244854074399137, -0.020943348867169066, 0.008320381140045253, -0.008406044843518864, -0.010426744072655751, -0.007760252497494707, 0.007160427770305605, 0.06157955198207079, -0.007959579227928384, 0.0003404530256446591, 0.0024335856712514093, -0.06581269985306777, 0.005731272900438862, 0.039446162080087915, 0.003809312491318658, 0.012645162073024241, 0.011539121799908921, 0.011574624601289439, -0.016152899014992443, 0.0051838862596631135, 3.508026615305804e-05, 0.014945209800378029, -0.020225661541901512, 0.04007019433429112, -0.02158966380301179, -0.019731391786335265, -0.012920484690228733, -0.00935453037853503, -0.019089292763490525, 0.0059874591866020165, 0.006341017944565927, -0.005400524031866218, 0.02279612985581007, 0.035136081767009136, 0.06704169267521318, 0.04182682983856397, 0.02634925303917193, 0.03894366829541222, 0.005831893203240545, 0.036050717985692, 0.014567436145605722, 0.01006659627891183, 0.008968155092711165, 0.004564504807958856, -0.05526252192203815, -0.025508917016224916, -0.01758017712684313, 0.006664025844134339, -0.03292217711472555, 0.0016643639810899023, -0.004915504760840157, -0.010094420599302167, 0.0028019305457959902, -6.191164449224508e-05, 0.004923567682622337, -0.011332880633042757, 0.0011118239495283553, -0.007058794439993215, -0.001977813937181319, 0.013131223043266018, 0.023167922779884983, 0.013470944249940305, -0.004293241165189505, 0.07156799579213402, 0.10059546656078878, 0.11063572479925053, 0.011728253941315481, 0.06342660209530321, -0.029022225203740308, 0.010383896445610342, -0.016757548614865694, -0.03959700757903698, 0.018797917751226866, -0.006209155094831643, -0.0012805972876935635, 0.00083568091865453, 0.00239214224510853, -0.011470972653799915, 0.030906322633546805, 0.014238364507372581, -0.0029033262205495044, -0.008636373596248071, 0.011883700589130967, -0.022506688544647692, 0.0011425153121153667, 0.0029555038952224955, 0.011555948017374182, 0.006184671773505898, -0.01435330156400982, 0.0074697417629526475, 0.019444979568677644, -0.0003175481571454777, 0.11595102116401312, 0.095713797652191, 0.035938538168742235, -0.017519785029894756, -0.017179788367235247, -0.018632324547325472, -0.0005644825083775288, 0.014841770010185265, -0.033863518523603545, 0.004479525853735741, -0.0033758258982007814, 0.004669943744642876, 0.018962712692088737, 0.0041002329744042176, -0.018231160871295417, 0.022077495169503296, 0.004544421592878853, -0.017514804493294605, -0.004402777367109071, 0.0060320675435226396, 0.0029461109300973403, -0.0022837007861803526, -0.00978389539129973, -0.004266072301595194, 0.011263049869591446, 0.008483249320163788, -0.0334511266942862, 0.04037528785737526, 0.12464560578570813, 0.13732494098777503, -0.01121720608524616, 0.026139388445649118, 0.0060387590533371414, 0.05317618923543241, -0.041106705204581394, 0.008521432783376815, -0.009371768727172249, -0.001501595697570017, 0.01621878480088421, -0.006238064338653126, 0.0034976916959733088, 0.0013714318455202224, 0.013606414718161328, 0.0033517198022184713, 0.011726245643210974, -0.001551632420500518, -0.012398555855304244, -0.005489989551025209, -0.015044831291370183, 0.004157049648090087, 0.0056441318815218956, -0.005990452976111396, -0.012526872261244475, 0.011031915580281361, 0.00754970629364981, -0.0193977403711956, 0.14829734026743308, 0.18799284244758602, 0.050766115445940035, -0.03541104918045685, 0.003396413951577088, 0.009674234179763664, 0.029535179375539577, -0.005719309665524169, 0.0041622669703417926, 0.004911919582523189, -0.027444240925843036, 0.008535327586897984, 0.0221684427296172, 0.010531487592219956, 0.001397985232101229, 0.03442100259168191, -0.0055942231358419685, 0.01839455095210869, -0.01956333598087574, -0.0091269406568276, -0.01932858656000768, -0.0331868832324236, -0.029860665686748708, -0.016999867562168963, -0.02551834899020814, -0.030872991834210776, -0.029652911336169086, -0.032528224740598945, 0.0676075786227047, 0.15231636506300103, 0.08330238073962122, 0.031097256568640846, 0.010166241051097535, -0.016062182302639352, 0.004727823078092409, -0.03244973470897116, 0.04223437340560034, -0.006721711143142782, 0.043418604594827506, -0.010217359678009273, 0.0034285469691414908, 0.017574117582027846, -0.002861030271599665, 0.017702386619568775, 0.015417251269436374, 0.016270026632065678, -0.0014270478200567236, -0.032331121986245825, -0.005371697174840029, -0.03363734870409726, -0.023465341155145883, -0.0320793902175102, -0.05088820851297064, -0.017364002255275252, -0.05776746143438845, -0.06203858363744996, -0.02697007920915027, 0.08854576445942522, -0.01634977232537407, 0.006151677376458363, -0.030408085765692407, -0.010534463068702477, -0.054951345938340966, -0.039922466166446166, 0.04873291138443616, -0.04193375636252745, 0.03463046177986784, 0.008141624723255693, 0.003776041334343248, 0.005331324798121165, 0.010518913458247237, 0.020393255326766044, 0.012542739989659256, 0.02373919826989658, -0.0023674090333907116, -0.002063425801603136, -0.01154536558209517, -0.003726129869504342, -0.01161686229316092, -0.02390995716994039, 0.003622667015735203, -0.027442015881202188, -0.053591500585160205, -0.062280857761140666, -0.0506125770572622, -0.04367757930706759, -0.030691797729685694, -0.060366956646346684, -0.014694550109836599, 0.01651722912932133, -0.030554458111456646, -0.012263844617676095, 0.00898198159212896, 0.06862563589716655, 0.002803996508623946, 0.0323712809634584, 0.013629906437975015, 0.010649813583648787, 0.016247003146756644, 0.013132696241733861, 0.0177355570773601, -0.0048760416567796986, 0.0011688272207245802, -0.004823244100020145, -0.00899696871462055, -0.013863993062975104, -0.0008944711449883884, 0.011376867500835932, -0.009286961032807638, -0.016846571295685675, 0.030279189648311486, -0.0285539966804763, -0.021084391040628314, 0.023218519914831093, 0.018789238825457084, 0.0233598451400131, 0.025899358729338618, -0.010356826563553615, -0.026513695643295077, 0.07143028927567353, -0.03691469475914795, 0.02108948500624711, -0.0289637831096513, -0.01566541171502783, -0.015348122309468392, -0.0022388803113901757, 0.0021450557720456205, 0.0029069031388545834, 0.013941217395909132, -0.0020408189601511723, -0.015267624494989999, 0.0078113905340458775, 0.0008201777368027136, -0.026771518612693123, 0.002503969527374202, -0.015350913190323032, -0.0011749879783848486, -0.013831399148070437, -0.023555171528300976, -0.0039644513697480585, 0.028517667903594324, -0.004843595150448734, -0.011604882145587914, 0.02624049186033427, 0.026932520697621382, 0.03621685576296902, -0.037120133695370046, -0.04990587332943602, 0.02305989745610499, -0.042112996145087185, -0.0009633905996350353, -0.01353950884502593, -0.0032662970335047238, 0.014921804205785741, -0.01222320917810735, 0.006588883796179175, -0.002210669318640798, -0.0068151066740224295, -0.02228689486342414, 0.0039932324764820355, -0.003802054245484383, -0.017151138904291874, 0.014457187122721513, -0.01677322125943192, -0.00488633241016199, -0.018246025962119137, 0.013015246039683969, -0.00791279625384193, 0.02307420059874783, 0.038769018377497105, -0.028491815129307582, 0.011464545922992628, 0.0011825723153016557, 0.018349479729676873, -0.023386500369826462, 0.02682935892302833, -0.028655495742736646, -0.034836873894037154, -0.031731472862447506, -0.009640509123773108, -0.008250087703591605, -0.01576933612574907, -0.0068477258345031565, -0.024343796043965544, 0.023593344123019097, -0.0023675839845287276, -0.004857007493700056, 0.00471302292904649, -0.020412694485462537, 0.00212147080472952, -0.0105077096581679, 0.01654664080260293, -0.01042738745375612, 0.006631824470780194, -0.014071546638180183, 0.0325318800252293, -0.008484450924157245, -0.0756501286177303, 0.003459100143107201, 0.024247424047262236, -0.07228409958253217, -0.023727355536035145, -0.02246723713408477, 0.021877760647873237, 0.04592724906719196, 0.01338578729569068, 0.026359486628989987, -0.024149720994364816, -0.00387195976205996, 0.0005917786363281774, -0.012382832979952426, -0.001602734403068131, -0.03001712438813008, 0.0032198534312750183, -0.011792914498256757, -0.007068961957546693, 0.014082154420199978, 0.0006641288279570967, 0.02418056317480516, -0.005240775415424211, 0.0003483815392542164, 0.017882219214702923, -0.012642068420298238, -0.008530642197206983, 0.011948635812849287, -0.005001518674369458, -0.004968053752138696, 0.055922924302165646, -0.014023721460002862, 0.01946868544435089, 0.0058335566416353145, -0.029446766817962926, 0.04218001567085033, -0.03896333829210176, 0.020691682090275353, 0.007061372252005382, -0.008748686623810353, -0.010338790149418929, -0.015853988617058525, -0.044702672625478675, 0.00885663405439283, -0.011481697703679194, 0.005664961584768136, -0.0023756298941720014, 0.0034734774280315746, 0.01283416087742147, -0.006360585450144053, 0.0014196670076913687, 0.010257639903282562, -0.005168050109965767, 0.02029726185701588, 0.00356309159407312, -0.004395268850604031, -0.03292566232630366, -0.002945779473428144, 0.007359338206833406, -0.010444213377346074, -0.03367151329349283, 0.05456472643971646, -0.0391204784971371, 0.015583997666397283, 0.011723986861517453, 0.04281074035930539, -0.01581855632407212, 0.01720994788708072, 0.0028371153432031285, -0.004821282298983127, -0.0012356162520820277, -0.0031714015844386463, 0.0003019089681678657, 0.005029361686240306, 0.010574950334868822, 0.005323984332418911, 0.0037341654422851658,