{"cost": "CrossEntropyCost", "biases": [[[0.1452535245067943], [0.23628534658788117], [0.0462541589477067], [0.03248410823289732], [0.194461499174339], [0.18340522935972697], [0.0770082890066069], [0.1443565142227427], [-0.12028622091573873], [0.04438872923465142]]], "weights": [[[-0.03061919106868347, 0.00865757506145625, 0.030787248427353465, -0.013620801345600788, 0.009797108573650208, -0.005847596989917417, -0.035692578369401706, 0.025207817688553683, -0.02723937938801806, -0.02712847024678123, 0.06724161417350429, 0.016162071720507584, -0.0242163365629417, 0.03529894022020181, 0.03557556125551284, 0.004947003435548651, -0.015535599838781833, -0.022731647210862366, 0.041557047026280054, -0.012916544007861307, 0.018604032681028372, 0.02515902585202839, 0.04316372491989747, -0.025325839036907615, -0.010343302534709723, 0.08893299436928764, 0.016662948730458222, 0.029324786073907764, 0.02661136879128124, 0.04985089102873945, 0.076282861824093, -0.04899750771668508, 0.07779595055214635, -0.03630972146546628, -0.03304673898062818, -0.019083404347651142, 0.029006343133372935, -0.021980690814034632, -0.028038572030858876, 0.02160334876568545, -0.08150414064088995, 0.019802575524516447, 0.026255402181973166, 0.05291440918899005, -0.0012165031540467338, 0.016703283371585862, -0.019599339869333387, 0.017135687140974392, 0.05568536403200694, -0.0313320144768973, -0.0017882192092775146, 0.026824860319107944, 0.02083979843789786, -0.005709120983284808, -0.018426316924789247, -0.03579901678846605, -0.03576311196227896, 0.01403617636512561, 0.025488167310803406, -0.01554274331532619, -0.054837551568906726, 0.05571287709650016, 0.02884583708873462, 0.025597804783236075, -0.050933083461052665, 0.03218719851646816, -0.0007399506123330731, 0.011383744005779486, -0.013419755609227233, 0.0052392600362934335, -0.018768333218923686, -0.05000385594803591, 0.02324254870243122, -0.04860624134061919, 0.014381659897463098, -0.04926252650348576, -0.021413706144650043, 0.05277342014310981, -0.035603009451885714, 0.02463037040145928, -0.021935473549074103, 0.02687667824565056, 0.023722434115742364, -0.03876431176457842, 0.02380887239416415, 0.00456474705149671, 0.0026697294988603485, -0.02395861679310121, -0.04355570788381497, -0.00580871195745671, 0.06290861191808915, -0.004613665854428219, -0.033215279148058094, -0.011889922713016454, -0.00809133497360946, 0.008859807394227159, 0.013806409542647616, -0.020839749361506166, -0.0024827372916074114, 0.005817161408176802, -0.032253453338993585, -0.034973769609393086, -0.013232885195361083, -0.03552192047301648, -0.06145612960531192, 0.011005094151213412, -0.03790534089509898, -0.03430916873315747, -0.045238647479962694, -0.007742496251612062, 0.05318617721245641, -0.024323931925370027, 0.03737398385826915, 0.02454157849662204, 0.04540089689027212, -0.05988531209409792, -0.03556964454659111, -0.018934762690118838, -0.018501852091650717, -0.05910228730842292, 0.03271236559381551, 0.001302349638264104, -0.051719282394239154, 0.007759401661199898, -0.013369686688652292, 0.020326587518291358, -0.01536047783147037, 0.010674625494265157, -0.00400787285128048, 0.004878875296262546, 0.0004274274442378303, -0.005540479022188078, 0.0060487495051764015, -0.0050316472748375635, -0.03336629233764729, -0.0011244237452276338, 0.047024823350220804, -0.023831009001267386, -0.06861055174527589, 0.0047037577186469495, 0.005804809269866843, 0.07595691290694448, 0.000572922056767943, 0.023461719630772968, 0.02522899157427143, 0.0018876231282954701, 0.03801261574600387, 0.0045226314031816955, -0.033654002369302286, -0.019775485080745347, 0.018099487029144237, -0.024519784154191558, 0.002869283338076578, 0.016069006894235058, -0.005611559117848556, 0.004095941722808766, 0.015669106486783508, -0.002137844442141762, -0.01752311832189595, 0.02223577464550059, -0.007609558965635272, -0.0277209351660777, -0.008325552985127814, -0.02810335561825813, -0.04707443595907811, 0.04205877072473772, -0.003671617798059292, -0.05893497593417064, 0.024570003995399044, -0.0347004110458421, 0.007694153747792492, 0.006941808197083739, -0.044310936933569064, -0.022282772225190126, 0.01942010449985891, -0.028414798923253836, 0.01092243791927417, -0.005312693681090755, -0.037443120264992115, 0.024782818696059555, -0.011424949895211917, 0.0014539602092194029, 0.020498941230095078, 0.0004112790009691098, -0.003720612737807415, 0.007519150426044449, 0.015317973141015918, -0.011333938979095053, 0.002688291873359318, 0.010883258990021873, 0.016896870750215006, -0.052317102090762124, -0.022286442684601632, -0.05986967408344098, 0.04004775823973277, 0.053496351143195786, 0.016350665884169082, -0.02216730956635675, -0.06501663109618394, -0.005984978570103187, 0.012563834032532568, 0.013780046688472393, -0.013781764016449868, 0.02633847130350814, -0.011109716666097785, 0.015041588464227942, 0.0035395914109897938, -0.01465368440923017, 0.022044179878275626, 0.004468579824848965, 0.021387071117226757, 0.004004630904496213, 0.009019457371285008, 0.02078345999892816, 0.004744049270018222, 0.012160326089705265, -0.013616081789905038, -0.011180330043675484, 0.009248176880219363, -0.007915564387133424, -0.033375592147501215, -0.05683812967383085, -0.05804943707455314, -0.050250996842586645, -0.03058073013042757, 0.00849447968382341, 0.04894671158243057, -0.05115442108402315, -0.0004243885911299128, 0.0004849622472322189, 0.0035761207946847177, -0.006327612808093007, -0.006458762119845651, -0.0018417256850915512, -0.003628797922513399, 0.01120639760144826, -0.003731698356952446, -0.0004813252991807403, 0.011356189350745467, 0.020054395735602134, 0.0255798403625282, -0.009211165914752769, 0.024021890857793524, -0.005100539933696438, 0.024508073602733705, -0.010527034178564895, 0.006148830533817903, -0.006872366377960265, -0.06435757012869009, -0.024285219345161483, -0.019231278452440055, 0.0598400636187687, 0.03135382030524836, 0.027397426056473186, -0.02554935244262705, -0.006614972205692096, 0.0003590670796717594, -0.02688477472374377, 0.01728139840124925, -0.010508802820967661, 0.028019948596082835, 0.0038376298076670816, 0.0025291501749218678, -0.025034044693340942, 0.017746529508120956, 0.01187069189720765, 6.844951983874942e-05, 0.016249297129568758, 0.002553777879129815, 0.02511457755363394, -0.016077195826590056, 0.03193305073261349, -0.007790973502914906, 0.0031968554209035574, -0.015163763653589603, 0.007889457068764353, -0.0003876748064263951, -0.09679354071631817, -0.007199961821305536, -0.029805528787276322, 0.02889125423480946, -0.032230086500091425, -0.03132208471486017, -0.01190557580497415, -0.005543303006282474, 0.04482821211243288, -0.013956345481375374, 0.00233204854111986, -0.034847512390027896, 0.0061317450191288045, 0.0021022044986004906, 0.014227670147534148, -0.009696651630152141, 0.0216288973061059, 0.007665540023533175, 0.004455881567460196, 0.006539900754260978, 0.00764847625679954, 0.034686547583515366, -0.014579199479598699, 0.06014937615039543, 0.0003868815807656996, 0.04041554149400274, 0.028655666178848453, -0.06838138196179126, -0.03528450779415101, -0.04979692744558645, -0.02987949333438422, 0.019111194202781102, 0.01056376919451262, 0.07476760945355224, -0.0008028549328570637, -0.027547551705899325, -0.06381486591206187, 0.008166573187348966, 0.014414924839431421, 0.029199043205221663, 0.0033142379953349267, 0.007632017363113702, 0.0007167777419182134, -0.0028231969717543047, -0.01671401915584927, -0.010196263320188722, -0.006207738793782483, -0.007495126836205376, -0.008058627255875818, 0.0032707664030483283, 0.01864706522868397, 0.0028227132285292304, 0.023311257734724523, 0.01409263462208479, 0.008252376391164057, 0.04859277030657036, -0.019008302125643216, -0.035296323866437475, -0.018565636092018747, 0.10924291695609933, -0.021322443760257218, -0.0026948939056279076, -0.027173950462646996, -0.019129381570560045, 0.029296553088253043, -0.018264635856950172, -0.00979599893754558, -0.0110185377782202, -0.00382831721116768, 0.007541716807610844, 0.0014353025553158337, -0.0014641967342051716, -0.0003454859248509305, -0.04968126381284668, -0.010413119119407687, -0.02262764327349103, -0.003676577562361021, -0.02431363368349639, 0.0044333579106101036, -0.0011697369770742642, 0.024878951510109812, 0.01440759911147843, 0.10173346945822673, -0.017946758876873248, -0.05676225612463465, 0.0712508351581066, -0.03312511576596131, 0.009825814842318885, 0.02361976792237816, 0.020776901747932803, 0.0517702135690594, -0.04133095832605452, -0.004992371042884756, 0.020373249327495416, -0.00272622607648246, 0.0013657945232444179, 0.025942901698573984, -0.006323076422592474, 0.0022500453262507217, -0.014832833844150723, -0.01301966721518998, -0.026372903801205813, -0.020650672951668038, -0.008865360118330579, -0.0334108522678506, -0.030768325306157893, -0.027157981673258003, -0.008776784880322963, 0.002380684790416725, 0.01745299503311249, 0.03624306661273453, -0.0010445290052235655, -0.047868974848916786, 0.025515382843552665, 0.014511567106811923, 0.011782496361630613, 0.01933061209604794, -0.03821849283406698, -0.012525787699808881, -0.024718775691004603, 9.618207824964167e-05, -0.011066659213036815, 0.05476892252866339, -0.006133981385974728, -0.011562330787041778, 0.04025020736844562, -0.007583284104731965, -0.02489761282663648, -0.007114361383668223, -0.017136333616173335, -0.0009552124293927952, -0.01389625458958309, -0.019155715377525816, 6.424036724001164e-06, -0.006544265797787514, -0.007633857590446855, 0.054209874255680836, 0.025782550978131303, -0.0023810043857628803, 0.057018755904852524, 0.07826783877250391, -0.04177574091032977, -0.026228994573257083, 0.08746972490644427, 0.005890828168482834, 0.004977069529118966, -0.03148562337891162, -0.04974410978474937, 0.05280339503267062, 0.007837573044660802, -0.042166805919117784, 0.04056901321925575, 0.03035435289317442, 0.0013435314644490895, 0.002246157582330099, -0.011890185050739788, -0.015923475773521864, -0.03269070981532404, -0.0026316267448414747, -0.030612770386581764, -0.019212328947840415, -0.03976969195911114, -0.009553301881822084, 0.016913567243053988, -0.013638046949122216, -0.010888311148368949, 0.006539676098422427, -0.03778275293700097, -0.019582715173762217, 0.0016424989746529994, -0.026355591117588374, 0.0046496320638628845, -0.018320383379939936, -0.016344765663877648, -0.05091123829098806, 0.028214587161825993, -0.03375031073671728, 0.011275687177752182, 0.029639043936986617, -0.005677545720917147, 0.004349890714922852, 0.016628597071048093, -0.011239870930730991, -0.029303498168731238, -0.012420398174223357, -0.009077556195038392, -0.022573601771338218, -0.015910475093604035, -0.011512208940355071, 0.014582946926915714, 0.009766455388768554, 0.022451678125192415, 0.009175156945654496, -0.0067528592752517875, 0.016355927831379034, -0.039346423044276005, -0.03370589204097953, -0.0005021357619299989, -0.0025306601348864654, -0.017731342229357593, 0.006863477656256196, 0.00799698061589262, -0.013358932452332889, 0.02802001231980679, 0.05321589447057728, 0.0070441229628497555, 0.014588802801980206, 0.0020155664036779026, 0.006758641309285788, 0.007436994650071734, 0.0024717887770277025, -0.014591159492402327, -0.025384822547648234, -0.03359044255739915, -0.01422419270289189, -0.013977332770410794, -0.01101133616598717, -0.003810552905339829, 0.007034337962513576, -0.034356486430572694, 0.013285790385036807, -0.023885323969558885, 0.028172470839790933, -0.0072370283200284425, 0.0477410412809089, 0.02028522802105609, -0.007532165394297537, 0.04522568687878492, -0.0020291804919934297, 0.0044889490328060945, -0.05892576615904545, 0.0014240399890651167, -0.02897935344386958, 0.0016295051074019544, 0.008557669418077453, 0.020556235417115484, 0.006787461811049759, -0.0020081185928045495, -0.01805578815720463, 0.00895353763020904, -0.01410069617496452, -0.002299266521341949, -0.015081701804532988, 0.010954127126413237, 0.0038300889049527843, -0.01063837115629348, 0.01578658431107072, -0.010453879097273432, -0.00017194519233748752, -0.006350799220006993, 0.008047287157027547, -0.004746459305423088, -0.026541884668616837, -0.011731797175720536, 0.040633743781082456, -0.07053742751959867, -0.0024845986646027576, -0.002268848350885181, -0.03426577387306996, -0.02746872562969804, 0.022571650275418725, 0.018831428574251633, 0.009597761026151617, 0.002003334666180496, 0.00010446939653846257, 0.007529186325147633, 0.021148772251611655, -0.009517935450844112, 0.00875675369666793, -0.010373785484945866, -0.0007592354904828036, -0.013936437819446455, -0.0031581776917258522, 0.00402243795735141, -0.022055331098131622, 0.010384342786869259, -0.010090007773492794, 0.015151610503259052, -0.03631633866870571, 0.0068299266706311965, -0.03513105707386621, 0.05020185031742079, 0.044198715628350836, -0.009284472730913073, -0.007526749046172664, -0.005126220119469098, 0.032979660223250794, -0.035270833938929436, 7.261235642580219e-05, -0.016148399578304898, -0.020103367303796475, 0.030732442245949346, 0.0015986496694917422, 0.009496083370283369, -0.010322879001265012, 0.020007165927517685, 0.00536586225737561, 0.011397711827241763, 0.0008325934049884257, -0.008027362714619566, -0.0007548460419993967, -0.0040479767380269425, -0.0008191879962588316, -0.009952211031474777, 0.0303633646635875, -0.047643887534461124, 0.007555136498027282, 0.015000951409501308, 0.04292256730065625, -0.01675307528361367, -0.0168382450183825, 0.025534444033930747, 0.012499000566957599, 0.0017486803459373567, 0.021479759011450782, -0.010897948849128232, 0.0021234258969858, 0.004468237321725449, 0.017275551315157366, -0.024383462505612914, 0.014789495020972432, 0.001821792645593492, 0.021869457059612577, -0.009061777921547259, -0.007904875309228423, -0.008443849989760343, 0.01979866460749813, -0.003613478252844166, -0.006630072784994383, 0.005623246414377672, -0.010043422505928814, -0.004613445154562017, -0.011059138177155314, 0.006151171502014965, 0.01454779597313286, -0.0107679354075823, 0.004930825876014308, -0.03368486837693361, -0.03581987486806163, 0.03817430720883577, 0.05436705936816655, -0.006782026988873144, -0.0365640300741062, -0.015643267397301854, 0.015981609355009366, 0.0017269988047515987, -0.014244932333393912, 0.012285237479673822, 0.006669409874311511, 0.01111691935824424, -0.0007484962635397778, 0.01930575409024259, 0.024749352935220185, 0.005451432857800945, -0.0018384483650562304, -0.007680384848463045, -0.004536191581453426, -0.015101243453540024, 0.014013357257343477, -0.007753105764362443, 0.010763995839419586, -0.053618087137323495, 0.05023967529495463, 0.0027710833484928263, 0.042772639364287365, -0.0065847461883073236, -0.02430125720515497, -0.04794547168640185, -0.02231890043829213, 0.005348108994325094, 0.10723253567998753, -0.047190538163190104, -0.0306150838566799, -0.007983246069529283, 0.018426956678490865, 0.004096144425900878, -0.005213184753135663, 0.00991249982197164, 0.008416502640579412, 0.009233509951270548, 2.924245186579303e-06, 0.019186340933794118, 0.014326740534417915, 0.0233361133897509, 0.00753438834888427, -0.008180683078241612, -0.05519038453921052, 0.042723445520654796, -0.04674695615166657, 0.005471149052402549, -0.024012071300225986, -0.03392177249634453, -0.04631819591847776, -0.04985644318322485, -0.0326722610003908, -0.033339661659124976, -0.03349157009207722, -0.027707064533296254, -0.004828834775514794, 0.012183245792322035, -0.05093891674836144, 0.02425546341903123, -0.017073212422286814, -0.016637342852619665, -0.014741390902186843, 0.002300950158057217, -0.02596135849687267, -0.0028575305580956266, -0.012886246391992233, -0.014335038618926068, -0.022006203233472795, 0.013112021609864032, -0.006584872388341165, 0.029086437916823804, 0.03796982527796154, -0.02306508746480795, 0.014485293062957741, 0.024412416637598196, 0.02069627779851533, 0.04868450546582856, -8.130553916379246e-05, 0.033328325061373336, -0.030386024926826526, -0.0015457602149328137, 0.01101543703317366, -0.005694310678417938, 0.015127175217309313, -0.0031106852282143087, -0.03287002971097308, -0.0060557274647651815, -0.042550086688815034, -0.002373542289477629, -0.044542700812589896, -0.02922723993501162, -0.023176782655839168, -0.015000986410417541, -0.03822758227581145, -0.0011521151212483475, -0.004963789497679046, -0.035960807620383374, -0.009455441605690552, -0.031513708671370794, 0.011043248932409103, -0.026754171684460783, -0.0005634008120369418, -0.024017437046477366, 0.0034090125170674504, 0.046958497298804094, 0.024108137183604682, 0.02094205918969449, 0.03545913407156911, 0.036685215023677796, -0.02479207915011644, -0.03204410171062457, -0.03354015330314743, 0.049273278471914726, -0.019163988790210976, -0.014909324675351564, -0.06067376681504409, 0.004094581016320102, -0.03650011333712967, -0.008755735909564228, -0.04047147932802095, -0.019651250946683588, -0.020180111163320948, -0.036629828442054035, -0.013281301908939848, -0.03149176826131298, 0.03316414372227417, -0.0314056504235968, 0.001917017323462061, 0.01029404462906131, -8.939443584535135e-05, -0.02454377816999483, -0.03296922358791264, -0.03440446895594614, 0.06012730588329346, 0.008158512057076342, -0.006478210405701029, -0.045250822309629644, -0.03254946017363136, 0.020037099531842604, -0.06203759427999846, 0.06875367308561875, -0.012167887648818362, -0.0024827247389979934, -0.03777288272279438, -0.010863347435252241, -0.008644924766382307, -0.015187985187484846, -0.012010535089622916, 0.05651394084241197, -0.026661843830692724, -0.05645939699784139, 0.01989259564345897, -0.0555668445174113, -0.024202342215798506, -0.013294321216196269, -0.001962483501576755, -0.006681065935697538, 0.005486881980943315, -0.0005152514337100905, -0.0014089419785989201, 0.023768463060864355, -0.04360075365487484, -0.04882180709000073, 0.036851243526913914], [-0.007160784789216036, 0.002057222322400273, 0.006886404710759997, 0.08965943836882266, 0.04613471476777077, 0.041928869333912745, 0.07035277815338516, -0.025672912649127674, 0.02064390689212453, 0.016824066941632913, -0.0024610352087230257, -0.042619439070667405, -0.02745620573145069, -0.05758898380902796, -0.058272861328745755, -0.04232302730187968, 0.0445649331864454, 0.07555963743035281, -0.01748841549826271, -0.004803926982701764, -0.0893140367960987, 0.03040589867182617, -0.0456677486897676, 0.04427694247113094, 0.028239604434527023, 0.010941033296489646, 0.044161205191250934, 0.05819428065346457, 0.04420286405271801, 0.022829623814289247, 0.023051737670250302, 0.024549456876244026, 0.039550076223138685, -0.007613361311172084, -0.010622960572541503, 0.01478793379149617, -0.03055733820609731, -0.0001809674703767072, -0.06580276493617504, -0.028779262433190764, 0.018429451328123906, -0.017663825362679738, -0.04484531756446886, -0.006849930176302937, 0.007636518151608703, -0.05372155831086578, 0.03715708741822982, 0.03516658368203808, -0.04239271058569535, 0.04070531764286809, 0.009839538524071814, 0.039591564401030364, -0.00915738965212451, 0.06449299158802459, -0.01606239192941976, -0.015935689700664564, -0.020999642945065792, -0.01687760000263434, 0.035329359846774544, 0.018609790753919955, 0.017142090158316404, -0.01165218004588701, -0.041629781144630236, -0.07833320269298848, 0.03429072555753958, 0.004220887380306769, 0.08172389182087275, -0.042898972169195755, -0.0007677436018070788, -0.03099791261149588, 0.006768965115809185, -0.028518235970074492, 0.019116903433387872, -0.03413416384889477, 0.01087189886617335, 0.007196904279318414, -0.02714512799955756, -0.0056173321885854876, 0.021045861209407938, -0.013241634954930578, 0.0026966583708797178, -0.014606186828582335, 0.009045724972868967, 0.03493936568109378, -0.013258554148118783, 0.0038507109807822686, -0.07466220028545897, 0.015030961443820991, 0.07672530923338601, 0.02405260915497219, 0.05219498108401495, -0.021784270036400887, -0.02313018800467812, -0.010905284384465275, 0.005523346512274109, -0.028334637774801552, -0.015217288639718256, 0.00709615678695629, -0.024718162696676132, 0.007729640994829572, -0.06073587541415154, 0.03870574275730556, -0.08222066236013102, -0.010523195364691665, -0.046442971575246336, -0.05215027547589591, -0.004700536346427809, 0.013557993624579897, -0.009887199470287034, -0.018026129276794166, -0.029456235051410467, 0.0014109234060365418, 0.06557030938630455, 0.022335024630676624, -0.023342443937498982, 0.021602959594118995, 0.0022564666817651512, 0.0015417038967435097, 0.03513645960553396, -0.04169831174223929, 0.03883462224563831, -0.04489350544424944, -0.07803354036804389, 0.036085483114222765, 0.021320753488267764, -0.046406684101756586, 0.03872740942032153, -0.01512322720140561, 0.004994198997031467, -0.0005010129478780205, 0.023886782356232344, 0.000966102138883993, 0.01635737151493762, 0.03255898027065438, -0.05699788941658321, 0.010941456710586208, -0.024646957903367187, 0.008534197038099102, 0.015395980133960445, -0.03973523033908482, 0.006054124359324565, 0.0025127488862460817, 0.018981440194793323, -0.062309019649586406, -0.01912203208318218, -0.03902912577531485, 0.004025077332032841, -0.028517389967838154, -0.013040774809505334, 0.0061486017797405465, -0.0022280177229131062, -0.023690732105603293, -0.015454377638405067, 0.006364466882934077, 0.005900597268526478, -0.009788240091989957, 0.014935533236538553, -0.011457773593775844, 0.01712590639050384, -0.015582125883863958, 0.032402443838228726, 0.0072425261201477025, 0.011589985141245929, 0.028362356777805308, -0.046578299339413355, -0.04327399275558186, 0.021606990414612275, -0.05185308249930941, -0.01604172091237579, 0.04992711175317886, -0.03138303965769727, 0.04692532574733292, 0.024203149480709243, -0.028768172467402372, 0.027776968584896717, -0.032550158735696645, -0.014668910735185321, -0.00445723370604403, -0.048165132465429236, 0.010411534643326099, -0.005319654721971555, -0.019133788571951894, 0.009801541979149965, -0.006613862642970736, -0.014989772424735348, -0.005249928174118671, 0.0012587527889351224, 0.0005566655134542598, 0.01898119100967072, -0.011556299732189251, -0.015322958006743949, -0.013399608334247488, -0.01124088973774599, 0.012839654149009163, -0.025913904968889716, 0.010158659184430277, 0.028176644079990966, 0.07427352116120049, 0.03721457686804935, 0.014870986841190582, 0.0013533004093664778, -0.0037151090103603453, -0.01370455258592408, 0.004128895147543314, -0.010055737722754574, -0.003911272981662748, -0.012505007721818963, -0.012763330702830615, 0.004251822489761833, 0.0033789322689086, 0.007065807979924196, -0.021466929454868968, 0.019038603696342235, -0.005837650964596099, 0.003472514633692065, 0.02502920036986295, -0.008714241506866588, -0.01773326795904845, 0.028780470358038764, -0.01564934624077402, -0.026288097541905118, -0.00033171440466421613, 0.03162013248162782, 0.06098776446663748, 0.023257513942446482, 0.028433877248862618, 0.02938609153752272, -0.027123570944400547, -0.011627924538438103, -0.01713810612259774, 0.009405525701865158, -0.014683644663827556, -0.013973092446133284, 0.0047336326737934305, -0.014469040812027342, -0.01823982949056618, -0.010025794995795671, 0.015266858758282813, -0.002284787182927556, 0.018409069080563743, -0.011325584328055735, 0.025363215998659542, 0.009538517807249078, -0.01799042699787633, 0.001649617735727399, 0.02128410228349462, -0.011026194025215822, -0.022019876109244066, -0.0221177863157415, -0.044929920836996595, -0.03310084723839515, -0.013908620562423365, 0.03957711360768706, 0.028038057725923937, 0.03292173881021837, -0.004097642900740129, -0.00019862534372124528, 0.026202003851483583, -0.008794909874899462, 0.010970717260444688, -0.01744735532541427, 0.0062490582064192585, -0.00437074806360588, -0.02126640861162741, -0.017163432755483064, 0.004372385495539824, 0.02375619953705849, -0.004981076675233253, 0.016991220544003136, -0.0057090683520011724, -0.0015563159107451583, -0.002058576739303392, 0.0017850514709296674, -0.02677600231388817, -0.00662636177393205, 0.01829137154426969, 0.018165218307395533, -0.05575292641652569, -0.006840072587645539, -0.05743585339925064, 0.006905368384277848, -0.022007838950852242, 0.025211956419968398, -0.03776434925828026, 0.0008589617473523795, -0.02390690671768344, -0.03175045222420059, 0.033809404459110154, -0.009550880868656344, -0.014666087382909403, 0.008081654042788936, -0.01053162258241853, -0.013622774638476484, -0.0023700303170570516, 0.03346854753107239, 0.028399468251285843, -0.013992216593965212, 0.0033943375472769988, -0.0075815925274576, -0.006978753716516077, -0.01842683581709766, 0.0021441267546459548, 0.01684954529318781, -0.04801267257895048, -0.01964880319695233, -0.031651703692943255, -0.033203696765271976, -0.057967636405624655, 0.04609174085791642, 0.01320667506648308, -0.03171001915409453, 0.07903782501853675, -0.0397209078991794, 0.015262453600275254, -0.0016591994944361505, -0.0258471050441531, 0.01568021307311941, -0.01722667647219747, -0.015133656042712057, -0.020914920494982305, -0.03634801946042019, -0.010878108739364857, 0.05568748143484664, 0.030749927455390288, -0.0199838437863995, -0.013305107133270879, -0.008317925847229662, 0.01421334577549252, 0.019195973815728525, 0.013371462280900696, -0.014516872512156324, 0.027508009332984706, 0.014437693525309945, -0.0015226333308602307, 0.05743418460750936, 0.057809941178204316, -0.05229877011249909, -0.028296817079756405, -0.002023302357464719, -0.09565021404792408, 0.03851057916392984, -0.011161945247464763, 0.04022303149720582, -0.008973600839754037, 0.0012811467211360286, 0.01633618037284138, 0.004764472935720074, 0.010660202447439612, -0.03699669438748366, -0.053464000186766655, 0.13284538364592097, -0.005454271331390225, -0.037943098914470945, 0.005814314260120788, 0.006539475412467091, -0.019822334426103247, -0.017512377088841406, -0.009479667860597037, 0.027409424998944946, 0.015377078982311004, -0.05450067118576006, 0.024624103655439322, -0.022241306816173166, 0.04846860240008091, -0.04027570624431915, 0.0181283683259785, 0.010988379900348066, -0.04132086235098229, 0.011373858210906695, -0.041500051220007536, -0.018412113434700502, 0.020285051703442532, -0.009323865200330095, -0.024588792968029717, -0.020384309297858307, -0.010748694880608424, -0.06544717711881562, 0.0036909299477495567, 0.09093616596637114, 0.005321942340396726, -0.026562708343138106, -0.039850024293367585, 0.007172289234019414, 0.018235469856802102, 0.03230863156172317, 0.005439562563068663, -0.01962922752985746, -0.007873059382696251, 0.004620182665924071, 0.015674338222805242, -0.003270457311733663, -0.02735240983193976, -0.08498156399392116, 0.037528702689008764, -0.03844055971203259, -0.006604062113252268, -0.008537871923886272, -0.014347801834693247, 0.0041395543565631975, -0.02092071471346398, 0.02304715182171751, 0.00026324144189894565, 0.02470665226676591, -0.035365453525848335, -0.06796274540634464, 0.0776011009817163, 0.022098432055790443, 0.021016866384472057, -0.05257803727160432, 0.006127156551563484, 0.010671107704215727, -0.007168521167903851, -0.03428321007085376, 0.015785472756908767, 0.0331407978526253, 0.003987195684726232, 0.02897869538013856, 0.008971632822666472, 0.030789781650146623, -0.017132290373862845, 0.032809129301468364, 0.005875658523365064, -0.02450856010968239, 0.02592472658036929, 0.050891379148926594, 0.029177913126226866, 0.008315863545429854, 0.0021386801663367686, -0.013844348242569854, -0.011455895264199208, -0.00889266341069824, -0.015272878732205454, -0.04198832716325102, 0.0467900763437617, 0.039535135999345494, 0.004769222081890061, -0.03489743445937788, -0.009624672177424413, -0.004909063885991249, 0.0036614419012796265, 0.03453787280069722, -0.03262480626940538, -0.02054697067034225, -0.039078080212661646, -0.028791293515724455, 0.004178943999264837, -0.026570449501407963, 0.029514898503322364, -0.02958622067045956, -0.05110629314926682, -0.035093476311279084, -0.026638589212631507, -0.038897724464459826, -0.030770126173573786, -0.0021089523049622077, 0.007762459619393825, -0.00256276273371165, 0.009062100212430885, -0.012333642644967415, -0.017708744573085498, -0.02427283654876922, 0.030593018832285858, 0.046110902888971524, -0.004596943203776637, -0.04353742650671138, 0.017843665601997447, 4.582669584139209e-05, -0.0016384078245609622, -0.020539250840726008, 0.010231343525822799, 0.017724641469682497, 0.05684864459633908, 0.014731087835132032, -0.050633635409799024, -0.022074143516641602, -0.015723566033790194, -0.007453102349871532, 0.061676331466577645, 0.015033897148969824, -0.03173510839134003, -0.028674843794944824, 0.01923886609506029, 0.002135521439648035, -0.022786598773162407, 0.015496603432146549, -0.028566357378483107, 0.009838957014181455, -0.008091750057189729, -0.007161094995497724, 0.02508642234992479, 0.03326009348055373, -0.024996765336706202, 0.011711184879669767, -0.02348100870504381, -0.007679173650164565, -0.01759838315126764, 0.010679187233816065, 0.021503373029599097, -0.014002225005681677, -0.02213867011907701, -0.03907058820941451, -0.026857819684992672, 0.03780122904236099, 0.048776770576743705, 0.08829039611309995, 0.04986938893344935, 0.037843045508532895, 0.00941626813789553, 0.031271273767405676, -0.03762158049913334, 0.003221775455650371, 0.0027670189427075847, -0.0029600237925550207, -0.003077553930493398, -0.01337926515717815, 0.0027843149537909815, 0.017349677976707226, 0.021361789714579544, 0.004010776436368345, 0.00834848807416434, -0.01560381900548779, -0.011159185430185967, -0.00599530995260976, 0.018125390336140534, -0.008782925875686876, -0.034646756566567266, 0.023095709178754767, -0.032762696548138744, 0.014492792823506549, -0.02731714619605672, 0.03511720356743391, 0.008894047948897362, 0.0565744326521052, 0.023798186214131867, -0.008038454263453497, 0.014140379668130372, -0.053131514452335285, 0.02213386289943198, -0.01957426261413618, -0.020319524797730578, -0.013865076695236853, 0.0023991038299068603, -0.01686599435612391, 0.0009333439474367767, 0.010189863571068337, 0.02433043535709162, -0.002007059861457636, -0.007011475615135255, -0.0051091801792343995, -0.007379608167489164, -0.015018946058249888, -0.020335950194198652, 0.01296130494275379, 0.030302588944095248, -0.015091293201162495, 0.03306820097570235, -0.03264931732806354, -0.007481343298882923, -0.0329275159451824, -0.005465781051095109, 0.022249917483517293, -0.0582769492895235, -0.006265055751154471, -0.021834048301909804, -0.014908964881571807, -0.02223908691231318, -0.014636451200726543, 0.004943690589590582, -0.006643689612777692, -0.013804037452177922, 0.013854626674635499, 0.01075083496848447, -0.01369472996932055, 0.010999562999189411, 0.01437644567080283, -0.013210695281435102, 0.0011338365326742082, -0.010103318743860055, 0.016948592573947787, 0.0011932801735616172, -0.021231877723806934, -0.018390739726486405, -0.007415914587904191, 0.010067710773494486, -0.03526040937626724, -0.04526380768033138, 0.07596604258534392, 0.007453502521757307, -0.008640141800783596, -0.016035335614696663, -0.021747976775589626, 0.045787853043669835, -0.039456910087145546, 0.005259195251741477, -0.014452135116307493, -0.008978207892361657, -0.007471404389432514, 0.01462293297625711, 0.010920101539192083, -0.003767291801701152, -0.005069327297770335, 0.008972245999731591, 0.010080019099605955, 0.011908293963780348, -0.010137417803900216, -0.0024516463754815088, -0.032777749190193044, -0.00016140848057880032, 0.008420364065926618, 0.017644266469085013, -0.01532859821743029, 0.012802578946922522, -0.03487509213856108, 0.0713606647390481, 0.051327877800801135, 0.0052076551011513315, 0.04047982035442194, 0.008872687797890383, -0.018897412411857103, -0.016741099598142968, -0.02885719014249721, 0.0446388041725366, -0.028743383861394852, 0.005807935985273119, 0.007021274348488128, -0.004065098337613532, -0.01559810839794351, -0.0083518662094179, -0.0176598399262475, -0.023271181928233554, 0.024026598202748727, -0.006994233128581107, 0.009294554678747818, -0.002394541754894274, -0.007477299884543951, 0.00018674770610780235, -0.016456147401394363, -0.027027517513329713, 0.037420176032403066, 0.0024433304942386123, -0.03842233867904382, 0.006560364488723212, 0.03375251207114993, -0.10199188074308835, -0.032139969098238665, 0.027768295594939475, -0.050598574092719575, -0.04813459027745666, 0.018532045630224685, -0.061623966635252346, 0.03544080635470779, -0.008286348004970015, 0.01226643878093454, -0.0009642810852742797, 0.024844685998534108, -0.0024789216147357036, -0.0012667596315120142, -0.008241147423680671, -0.010530420916266122, 0.04518082318904417, 0.0072151437789418895, 0.04165328341603404, -0.017648531526038482, 0.019496455915588375, -0.005805328671612226, -0.0068310507580079715, -0.009365725398664718, -0.028827486526633844, -0.04716154426392162, -0.013341852357397101, -0.044595103180813625, -0.028647808756495773, -0.05569840039480395, -0.03303909748165113, 0.013369339890079638, -0.0070751559157484125, -0.005878883848546906, 0.011180941494224876, -0.010388734211087595, -0.013661709083844375, 0.001950864634139474, -0.021282697419133943, -0.009261972208585049, -0.027589118533980148, -0.005314543160428332, -0.006118383726648103, -0.016985597696097702, -0.01255902814403477, -0.014119293033306295, 0.004710374735214384, 0.002473856118339643, -0.001148205032253677, 0.006742688051806883, 0.012054286408764167, 0.012411881745099095, 0.0206425400852609, 0.037476404236402604, -0.03442416895467524, -0.011011902083280276, 0.002969156524384127, -0.04067107605482901, 0.0008037472335209445, 0.06480946237410239, -0.018017750599087848, 0.002006381674312611, 0.0007784685973319612, -0.025547859191745893, -0.07483573930295435, -0.045038669466238856, -0.0034660391536039097, -0.05782418073589435, 0.014000345044841468, -0.015503079736960242, -0.022731187989859587, -0.017358176346968714, -0.019627020437579013, -0.011456430319299073, -0.020236666606986566, 0.0014672178345710909, -0.014531973772907294, -0.04144320353760242, -0.018590518616887194, -0.022887305664715977, -0.01448391084295042, -0.03571527080834114, 0.005946324856016964, -0.02785947663748688, -0.019115853219958828, -0.08232247181041097, -0.03100395782784449, 0.04191017439599384, 0.008125428401870407, 0.008066294006812282, 0.042184028968706475, -0.005258881643775872, -0.06927002836731404, 0.005481559022769113, -0.026422332011779594, 0.03272610319311866, -0.04270061905216063, 0.034267913862590246, -0.03949891550899762, 0.043635515385179624, -0.012347116892196152, -0.05502010034376396, 0.023417755038918176, 0.0009003362520410416, 0.0030337277294477057, -0.034763241424192876, -0.002149829007768351, 0.03325566685666855, 0.01819185673042654, 0.00031560965524659505, -0.0032944166112521883, 0.03215077691458051, -0.014518890904772765, 0.02997144180487898, -0.009237637295256385, 0.024046841772777865, 0.02235921148429133, -0.0011541541578957537, 0.005497354441767485, -0.028005718696746965, -0.03232450106255858, -0.043727371466928684, -0.023710136056552502, -0.020919813607912948, -0.0010787421384683027, -0.023242654288288592, -0.02687004201024049, -0.005796897653479743, -0.041983618780215524, 0.03892358102497089, 0.013960940534607237, 0.017468877258783776, -0.04305356757926676, 0.0640299629499919, -0.03534992467415585, -0.03731493751524581, -0.0132752548907427, -0.0240274254184372, -0.004655828106042935, -0.096380082007159, 0.013045938956648595], [0.04305693934202242, 0.019905125499196694, -0.004588518628671124, 0.02433930886812329, 0.0013266029864887645, 0.03622048999698621, -0.037067307589369214, -0.013421379910987744, -0.01927431920662043, -0.05643046885403999, 0.06981733276417222, 0.028863946348992767, 0.018666244626621305, 0.030469974476102092, -0.02324685579037529, 0.016845822721885315, -0.025984669215858198, 0.023864031018934515, -0.06693586144802825, -0.012506375271517736, 0.07814982698462161, -0.0014141798204842866, 0.013991510071689667, -0.058694959292075084, 0.0003068220440899159, 0.07829597450538246, 0.012121542452529346, -0.013735874873086086, -0.03759170351240984, -0.04206831946916267, -0.009211083300469611, -0.007355033936698906, 0.07653973864513672, -0.06565990731481053, -0.07009560084116842, 0.021664913763223236, -0.015433793260644294, 0.012251644046405222, 0.0010476148792181242, -0.039806812810920154, 0.015175325897345104, 0.0022493633850467435, -0.03824290404250655, 0.011564574743877893, 0.03218431642973593, -0.014980239524873562, 0.030532647547135867, -0.031456873256001765, 0.019103548139527658, 0.04543017404960921, 0.0356915932572326, 0.047995092464122195, -0.04589055082205169, 0.005030219112241558, 0.046422852040404104, 0.004590225218443344, 0.01030989246110906, -0.049871802443838396, 0.013983607312854945, 0.005019268030618036, 0.032128872316148055, 0.057015970963350385, 0.05277767342788783, 0.02228846132500573, 0.042859928981901274, -0.052414897739364, 0.004634437112554075, -0.0016790711593076416, -0.08734594327463314, -0.023095271419833027, -0.0878478163867116, 0.013151563020051807, -0.06199084190004548, -0.0724387736309035, -0.045877826607891324, -0.06831451741000238, -0.026306832719205284, -0.0004261224031282632, 0.0053647788327615305, 0.018165421948558105, 0.030622679216542537, 0.042025175045270514, 0.043140571126499, 0.029249207947141097, -0.030966375713913998, 0.004078708622606664, -0.043633172529549596, -0.024828201064616227, -8.014421288996019e-05, -0.010040589770957212, 0.01096412644581285, 0.009901842229376935, -0.03641648335688874, 0.05697051289322438, -0.0008293521740278697, 0.01899069552681413, 0.027076038516402206, -0.010644364766071623, 0.012045833080611199, -0.0174588260792216, 0.0011346582622406667, 0.014427881138614082, -0.03619771627527155, -0.0008902658520939168, -0.016726482329111444, -0.02584347094875448, -0.004606905296506171, -0.0044248275141068015, -0.04249529926853219, 0.006926000281088113, 0.010626672612702115, 0.001151726286081033, -0.04073702039456354, -0.018529017555853393, 0.017056636285085202, 0.005413279837829969, -0.036172935515127576, 0.020742207701074884, 0.0014698588131859265, -0.0028231143197231783, -0.024040970229750956, 0.03495811482872893, 0.003971986131721295, 0.012591316482609758, 0.03461186707277784, 0.024043871966938357, 0.017917968152607832, 0.008016780169082293, 0.021296967960989566, 0.014892234898578648, -0.008785014277431592, -0.00017328731935434892, -0.0049937327620478275, -0.05480566406898397, -0.009085112875664113, -0.03918029439906268, 0.029585387868464937, -0.0018715401053631246, -0.018476080145051196, -0.04594707630652099, 0.06277321443472425, -0.025304347271465306, -0.058273212762140654, -0.0631320370459472, 0.005832681640700539, 0.016719953506063905, -0.01452278272477057, 0.02213843276458657, -0.0019744544571659007, 0.029345341824316373, 0.00871384853701458, 0.012281355047550962, 0.019966650010291243, 0.004527303588706718, 0.016032633637572413, 0.005662482563778948, 0.007943694577630986, 0.006859735869144592, 0.006981439683670819, 0.0024857393480969764, -0.011130715821203197, 0.020241591252593335, 0.018916988202633912, -0.024521143950475277, 0.027533236931348046, -0.03061224281082185, -0.002439836109202305, -0.05106686446070999, -0.028546397896764483, -0.016869953207307695, 0.04959398899970246, 0.02520971129568296, 0.027306075279461973, -0.04603191345160439, 0.020313780944698115, 0.01518844614278069, -0.02421075285099813, 0.014343996082560468, 0.009523971582923977, 0.01413711931704957, -0.008352349461239616, 0.016084005637885417, -0.006000036098536537, 0.01622663665684415, -0.0031798987491900503, 0.015048323384436126, -0.010404560423126652, 0.00020764528473490054, 0.0054989138386969064, -0.006163756744497737, -0.019559739634558707, 0.009179246373558714, -0.04905500636015289, -0.0023461702775651274, 0.05349849691174417, 0.012882153068699042, -0.06000803428386446, 0.0453736026705117, -0.10960366192649644, 0.015432679492592326, 0.025561580048223412, -0.029024869096378508, 0.028169599116680707, -0.01070916411912472, 0.008287404221657796, -0.01804518110355478, -0.0014949464467592425, 0.006104723330072002, 0.001099928268890443, 0.011611963836647879, -0.0047407769362635315, -0.004483871319062906, 0.00629088116868658, -0.010604719049818889, 0.011908469041097285, 0.004274102626771388, -0.014013356653272805, 0.00327177116634362, 0.03408179722044918, -0.014473101691617446, 0.01556109347236886, 0.024692387758568978, 0.022468231234846342, -0.015323858335870867, -0.0512270352693432, -0.03449041757611671, 0.008793553329574133, 0.02729863952794188, -0.04057441381373689, 0.015753629458277244, -0.048878901476187286, 0.017798085627431903, -0.004477256569063153, 0.003516904372680276, -0.013867460876825673, 0.007467814988417368, -0.022130870619859126, -0.004124971933395602, 0.018222699062065074, 0.0008242436830542068, -0.015623177463321815, 0.007280365219048254, -0.014566115939783493, -0.007213930259587377, 0.00944890741095491, 0.012034169338540178, -0.009050304522772524, -0.021671257258958167, 0.005877434595842863, -0.044032123229933474, 0.02316991253944587, -0.03351261675057147, 0.012363615485102956, 0.038012516226841445, -0.0023177748140709373, 0.002299390874884511, 0.004065997365760318, 0.009781527505522879, 0.035071452901442146, -0.022197791060139607, -0.014090151932779729, -0.006558694120283788, -0.009453895875422566, -0.009094636230525808, 0.010660471752101332, -0.0013857834833336368, -0.0013437685159754422, 0.005565104096038908, 0.01425786925960842, -0.007028488662738001, 0.015828131837407545, 0.006329607197851861, -0.012552701596128, -0.021803974069238917, 0.006721438897408786, -0.013297070341384516, -0.0044677505409605345, -0.022158420862941768, 0.038733317615015674, 0.0034649905489235345, 0.025252192458699068, 0.012489223240455535, 0.0285516979481898, -0.03844669058161163, 0.01601653580528413, 0.005722186138528672, -0.041223722824690466, -0.018109986895222852, -0.001654298525646114, -0.014153347859060512, 0.005784303776166166, -0.00220196012022321, -0.016458218610476416, -0.02408158000019208, 0.030240513563846723, -0.030222298818468992, 0.02308460882165136, -0.00780704095381637, 0.012656544913751497, -0.0144128301496518, -0.006520887856283298, 0.018496528723230585, 0.00035629478129626266, 0.019516000060957092, -0.005641880883855494, -0.019546037945956263, -0.005243168536176014, 0.05226961062474618, -0.0011211713372525594, 0.008688442113298637, 0.007219336639269675, 0.030722657420892686, -0.033279901189405034, 0.0403708953521728, 0.02290817277439252, 0.002592435814946827, -0.012866683183311418, -0.0013207791366555784, -0.020583157435347707, -0.020507830058077492, -0.013573363475972705, -0.021064584745151018, -0.038998794863252285, 0.013308270276366257, -0.004758372824086052, 0.008931224310617712, -0.014139929948184454, 0.02870456192256426, -0.014203200466416098, 0.005223597683681935, -0.012461964202163913, -0.0015535237883166893, 0.02488777599679402, -0.00819330563377574, 0.006532208378292702, -0.04052887246935178, 0.0027980673042412797, 0.01332722206229317, 0.0006395258878465373, 0.024848787508473316, 0.02400551055124262, 0.00023129978265927322, -0.06065601804232632, -0.0012883320845399387, 0.007725458037382381, -0.029191601415064137, -0.007144336767637899, -0.025388420231474775, -0.023063849084754864, -0.038750849251800924, -0.04148168477150917, -0.004084001626995173, -0.005880660269286722, 0.0026554462821594725, -0.005324439661944579, -0.005521738852959341, 0.006986452518692356, -0.0009468460379319453, -0.02150427058164035, -0.01835201182028076, -0.01697427289019549, -0.015738476678337943, 0.01821675485133606, 0.013880862718355766, 0.049556103851425004, 0.014149482088656042, -0.0011939520691985886, 0.006114775577280158, -0.008559622770946577, -0.03977214221075904, 0.014697980196845895, -0.045795312288433365, -0.0323772844425696, -0.002119387404768652, -0.019470230029478005, -0.01834382970901038, -0.01722707881068256, 0.011859978854595336, -0.015039015204610732, 0.0063415576393408765, -0.012805880096356807, -0.009963066262161192, 0.014746346206484639, -0.009873983943611872, 0.004115490092026528, -0.015449728522242934, -0.026054290262881995, -0.009560405587505247, -0.0039180413186293275, 0.009088134302169192, -0.011663101089703993, -0.048354246214646505, -0.028972506076387256, 0.021187806323986372, -0.04998047511783197, -0.025482210175838016, 0.009580902700206286, -0.02923224322702088, -0.037306964468977064, 0.020447971964803344, -0.0035260481135612567, -0.009578164768738595, -0.008353733685142906, 0.024682601570208733, -0.0011469275310915987, 0.0002530759256056587, -0.0012496807231239585, -0.024844066284100585, 0.014973341561978343, 0.010017226959727465, -0.014479964105727862, 0.008944718752057051, -0.0009400252485116238, -0.025987678950295787, -0.003992706670285174, -0.04078613419353895, -0.033731998669188204, 0.029686406841904118, 0.07006947773582042, 0.008423885039219866, 0.03050986259380244, -0.009643161023941447, 0.02230384660102776, 0.04364595618934057, -0.004814606395288383, 0.039800257284762414, 0.006396718231935855, -0.03465140444963747, 0.007482884996368466, -0.00969957340624781, 0.013804434146321784, 0.006451656009999963, -0.0036807922750700696, 0.006260358110608058, -0.004512629414739554, 0.0029449109290140972, -0.014324615842242393, -0.0064823528421654765, 0.011073117062131054, -0.008086327470640963, -0.02303551809128737, -0.013574733874779043, -0.016372095984793517, -0.0377814666938057, 0.01355409263806314, 0.09307503190593627, 0.035055591047989165, -0.013419487709893568, 0.030969315189689605, -0.026020756560213333, 0.08615312921075335, -0.01254265189328976, 0.029336428641896537, -0.03247931171845696, 0.025835578383063384, 0.009554033032570509, -0.007997528721455475, 0.02412659401410292, -0.018227365617644133, 0.013432312243001366, 0.04128433714246338, -0.004342256143975227, 0.0011678311300307902, -0.01620166649804317, 0.03148504794303296, 0.01717764330867185, -0.016820941748958696, 0.01045611390785991, -0.021176952235957846, 0.026187833410770148, -0.012450624018156548, 0.0015073703542745297, 0.01574290154110717, 0.041993018777194545, 0.057847736579893595, 0.002176631924333452, 0.05385172587322549, 0.02554153478845432, -0.02151689628907613, 0.029072375752383306, 0.0022363847195917908, 0.01455499561682085, 0.002268304478104996, 0.006682970276409928, -0.013550576462656897, 0.007611532242398623, 0.006315842789075664, -0.015559612620956354, 0.0034108903026412985, 0.01510847282050144, -0.00837459916665116, 0.050673378923427013, -0.0026187297949184, 0.009232651742386912, 0.006851155930133409, -0.005119038913717409, 0.0026792077878757185, -0.030885581310030216, 0.018329593953944793, -0.017578224052722184, -0.001979650368695007, 0.13806608638402013, 0.014153987199237392, -0.02211581756038018, 0.07592722661132272, -0.04094578315376691, -0.04370833024444063, 0.03776566585485251, 0.01619438432416876, 0.04004179459977175, 0.03195803474521868, -0.001465103077200272, 0.030835932401113583, -0.020039038922735685, 0.01940679599014283, -0.016564378274451185, 0.01787952741166568, 0.0340270091826796, 0.03166057915304656, -0.004474536083976801, 0.021022407536359148, 0.009975740580625664, 0.0018679180713503806, -0.005168911854559502, 0.02058739865651923, 0.034111757999373535, -0.010124976098986953, 0.04324248534713426, 0.10611030839767079, 0.09102240198014361, 0.06432169859319044, -0.026298513065825705, 0.014538309404187346, -0.022892401577452585, 0.008525819036551724, -0.01640253899627775, 0.019609093686393117, 0.027900236980382607, -0.012658479550713898, 0.03580347896420019, -0.0009967570275790619, 0.01607725404994478, 0.01373899083705084, 0.01595458418866408, 0.0011597367100088431, 0.007804585813010979, 0.023880215954571533, 0.01961422416709213, -0.0010196517183294815, -0.012361243620597354, 0.03906028141757176, 0.0007001652186439519, 0.012979166632478915, -0.00874241745457302, 0.03979108346418805, 0.030657767532252182, 0.044611053468706766, 0.05314412880376762, 0.0003585606065534082, 0.04067914470202763, -0.04414818000183997, -0.026343106199069252, -0.0690798301874563, -0.023910311544033933, -0.015610282492947046, -0.01863267860009064, 0.017173018521316273, 0.026286757393764622, 0.013814932033330273, 0.03506376958097073, -0.0065827868946259725, 0.012223103042010804, -0.023788547977535338, 0.0007110401819686642, -0.021660903352871637, -0.0009161058861372255, 0.03345268433595371, 0.010833552713723221, -0.012688857071753363, 0.023877572649707506, 0.007764536896148493, 0.002127706979206204, -0.026274026769945, 0.08970322092235905, 0.08733863475627808, 0.009995799407032838, 0.018419448699051814, 0.025627711693248522, -0.08893070941449713, -0.04699711927329603, -0.055687505593124444, 0.02247574685775114, 0.0540132296324857, 0.031111366510803977, 0.030040915935898603, -0.004980299553579926, 0.006571027501370553, 0.002073121347215578, 0.0086068489363954, -0.006832709367000594, 0.0006237782783457644, -0.02599178708121084, -0.00048431394433483076, -0.013146829300560197, -0.021806826448069038, 0.02542344703345779, 0.023296477900746387, -0.0012778649254507391, 0.049482571074933736, 0.055692123615229204, 0.06154377571454358, 0.03568277296145471, 0.013263242590724688, 0.031807975937817035, 0.009666480269070033, 0.034368720216010264, -0.046591254904968384, 0.056499184922725564, 0.034091837365730925, -0.02964894343226183, 0.015316496071422735, 0.023708479078101606, -0.022801766819557697, 0.027461523710335268, 0.027752649529996704, 0.013638893857018346, -0.002766360928697187, 0.016042466848046086, -0.010848139547752926, 0.001460756285491579, -0.017845004793994527, 0.0009561613161412801, -0.0004685623120447264, -0.021969705667778082, 0.034698063781747106, 0.02544473696197814, -0.019514213314781464, 0.01537648562336074, 0.023026366322594468, 0.07988697194594496, -0.027699195519291536, 0.00751307782320299, -0.0179501980571453, -0.052299234999332665, 0.06312438983897137, -0.0017034228346742815, -0.048090748306021294, 0.034056708910921905, 0.030654552851889387, -0.02535755798585508, 0.017706093124742257, 0.009512439441520209, -0.028357629862733203, -0.012653526278708698, -0.0293348450597221, -0.016556729972559584, -0.013119414167284004, -0.015940547412108538, -0.020801709009311792, -0.018411684575984202, -0.026224821438952186, -0.013624540327551442, -0.03692566390944013, 0.014601370605462337, 0.016276131814300213, 0.04974487878139348, 0.018033731487732397, -0.06818764091341006, -0.008866459927251404, 0.020213533221768016, -0.02562390803101485, -0.03548574576945738, -0.0016330382410633323, 0.04615091481433206, -0.050757150328738045, 0.052589232138837504, -0.008858029316758652, -0.03888078178183431, -0.014222187673140575, -0.021895946499754404, -0.01616291709964447, 0.02948215570477419, -0.009101110230847228, 0.009620141157248085, 0.026956500456511344, 0.0049954048286897194, 0.038914220849523944, -0.018918471426434807, 0.03123166030958039, -0.02257590623852195, -0.01851875000536123, -0.019143601157406424, -0.03345854009257469, -0.02044277714944553, -0.038870068491729366, 0.04387077949532905, -0.019916852406531436, 0.0073130477252433095, 0.008020259664196294, 0.0463144183140282, 0.02761528743662913, 0.028033112815714422, -0.0037272878603055973, -0.028065099344829713, -0.022301857230626367, 0.01837746699797185, -0.008641654468758055, 0.043160963621730705, -0.04692057000725459, 0.004218511059287256, 0.03918780308191081, 0.004705923806171469, -0.03098304240674564, 0.0385592290013709, -0.023777303271854594, 0.0493802994655369, -0.03367268866093188, 0.05531354850375794, -0.012686862479656521, 0.002213436348989559, -0.03386114952815, -0.02008061373824807, -0.03587713803711489, -0.01057353125723085, 0.07471025060028758, 0.003837571251901471, 0.043533526660457636, 0.025931301919620987, 0.07604421401209543, -0.04081663230689433, -0.009900899712001216, -0.023897853578384785, -0.017524782832942384, 0.023702999168604473, -0.005759728023327848, -0.04401532366285137, 0.042501899163371444, -0.01976578971345699, -0.009633236893336764, 0.006563473244501189, 0.01689943786182347, 0.003955713743335974, -0.00982910070645176, 0.00302941058235749, 0.0401242215915272, -0.03242353967961247, 0.019693687840193888, 0.010195854251559134, -0.056448678176903196, 0.04730016111195165, 0.00862239614597008, -0.018054707096417162, 0.0011426129789557059, 0.018909518978003203, -0.055035516073606766, -0.00036079070993971427, 0.05445637910060299, 0.056511201042456216, -0.02950777060383418, 0.036694891149418915, 0.004130255299603089, -0.020303054572138355, 0.011649362053401701, 0.010322073916096875, -0.003846040613736633, 0.021995609373091078, -0.005024906985089299, 0.008375776666768838, 0.011953803268356716, -0.01843267678325465, 0.049770211446650205, -0.013074408222222274, -0.028785770561095027, 0.032693260224965125, 0.022818516496818368, -0.027044507743365698, 0.009597387502147755, 0.025491795584793864, -0.0007797368851730601, -0.052672989785228407, -0.05503840371187643, -0.06458524412077642, -0.005573779683484157, 0.05691182509977488], [-0.008557111461264665, -0.03151070528275245, -0.05088698301096087, 0.03837474080002471, -0.02450314308006445, -0.007629555096702799, -0.02036746929528936, -0.022435294207885256, 0.045531950018382644, -0.011230592855507216, -0.0007965776560924494, 0.04268776489000668, -0.02708481302296916, 0.005117841764413628, 0.05198024979940001, 0.012781651146794894, -0.008296110142720945, 0.030640180572516083, -0.0367798419719967, -0.013148227874575017, 0.030705102716520515, -0.07170120536766504, -0.017319804660740946, 0.007561054681086724, -0.008409537826710821, 0.04387854772891838, 0.018758067674012835, -0.05460021115228919, -0.023647326959055248, -0.015363069668145268, 0.09947252945447867, 0.011608077801116033, 0.051433332712627414, -0.007973071408774577, 0.06677640966151842, 0.03479048938264436, -0.03075884168909494, -0.00011042748926267354, 0.005429360025728116, 0.049022314233083744, 0.06330590346020731, -0.041387556267925736, 0.0029575856037038486, -0.04701006485987903, 0.026366720517749017, -0.03768235542977005, -0.028255500377523335, -0.03739347756475501, -0.023857188490957287, -0.01249556774359438, -0.01729563499963723, -0.033853349792847, -0.022802705234459986, -0.01031279085369005, -0.0027167310386890906, 0.02169494282835796, -0.007666663309125578, -0.01285015946208986, 0.0032513535927475136, 0.010825785296409098, -0.011783091765721317, -0.029607245435595536, -0.03315728624946802, 0.09656405964927034, -0.03932046667320414, -0.022341819597927907, -0.03752387224210693, 0.012394753461670904, -0.01192243658960303, 0.01777586166852959, 0.04265834681643533, 0.02707140205720745, 0.015025479650369085, 0.02045467156534043, 0.0015540462220760794, 0.00817417272987138, 0.01596179921229871, 0.04175268534868762, -0.09117019796847696, 0.0052825723441291975, 0.013233435446737144, 0.036984229017910944, -0.03778234692688072, -0.035807294631651, 0.0701407821475526, -0.0326914557620948, 0.05226791911395347, 0.00012331632700672516, 0.011865550285266983, 0.01289480351608497, -0.016321001912143814, 0.014480263532618519, -0.0007378328495174991, 0.011356734709791975, -0.05431408123153809, 0.04133514297135298, -0.020162011738440185, -0.006108515456610241, 0.018982753615834312, 0.0038709527377800094, 0.025725991057086194, 0.01883581637912425, 0.028394601762994992, 0.02207093214194663, 0.017167680268534605, 0.0364397648811953, 0.04134893583713565, -0.007543607615337077, 0.006778120654961075, 0.0024256253071316984, -0.016571924734364644, 0.02364949564162941, -0.02118445840169655, -0.000616034905007809, -0.0017700816665208103, 0.016163424758485104, 0.021423976234346016, 0.016709051110777463, -0.018165113815318504, -0.01453848971675156, 0.011324734707034979, 0.028399955937900477, -0.006689871253790066, 0.009234304322986516, 0.023226343766244963, -0.01115026057132556, 0.0024849632738577526, -0.004923129734817479, -0.0032869700095714584, 0.016849394612332726, -0.0023397103214758096, 0.003975475269577935, 0.016941158607411026, -0.01568354606400424, 0.026866085414946946, -0.03647808132951768, 0.01847866845678623, -0.0455586645257325, -0.03595919789702337, 0.015183779714090842, -0.014974649866195686, -0.03693656449754635, 0.047102200249607123, -0.006246786915249845, 0.012673331070298057, 0.010215473192805793, 0.010822407615657401, 0.03860829520602079, -0.003444434932125422, 0.028825721467756204, 0.016556913910110174, 0.018942478615671447, 0.01788776599301875, 0.010164301118696204, 0.01488146827579063, -0.0009572898148184232, 0.0027132972526368385, -0.029233312924162657, -0.010503631190914036, 0.003167181601961011, -0.02363749217920869, -0.015283565170493247, -0.01724301654357264, 0.011738076714152135, 0.01288393059445554, 0.0768116885287693, -0.025839274420181413, 0.07924167050867927, 0.0433888953067437, -0.03455734247696237, -0.017571635670508415, -0.011606578052153383, 0.034681518706143215, 0.05576608474677075, 0.010532048878299113, 0.005007213172321734, 0.005719919065664969, 0.03778168508499855, 0.03268468394228136, 0.02539435289417803, 0.01644614816032589, 0.008770371744739243, 0.017339568733578694, -0.016729293040773748, 0.034538874620181154, -0.016482282538547683, 0.014430726868795452, -0.02626444570407326, -0.008064133227365815, 0.007412441730742338, -0.02495793183825299, 0.0073447164657330834, -7.974634270782354e-05, -0.028396501975905316, 0.020369024505266668, 0.03380743224196331, 0.08321512596740421, 0.032132933283193034, 0.030056250627742843, -0.01625503541402992, 0.016207305544908197, -0.01607151195506176, 0.008842838907752152, -0.0016836372342760185, 0.028667217356292095, -0.0208561141358417, -0.006791835860832024, -0.015032501657344459, 0.011232633616138528, -0.007862369554916163, -0.0003803548337151069, 0.02079947441782875, -0.015414597670175329, 0.00717109425427492, -0.01630528557960893, 0.008941511441132704, 0.02881360442832849, -0.025574428291751373, 0.025322194688192544, -0.023556580183438505, -0.028028901089755812, 0.02822294949413107, 0.028029326446625025, -0.01439134420563527, 0.03004341988352948, -0.004589079516728959, 0.06751679144363645, 0.0019793030990689973, 0.011106242467490807, 0.051503087076062555, 0.009976675860996098, -0.013073853862030726, -0.034611624948442714, 0.005274808709218964, -0.0043201951726781936, 0.0023820524902391383, -0.0021746587283569393, -0.0017958705934727074, 0.0010583233034668694, -0.009038050751239556, -0.002387179202241479, 0.004512415584319947, 0.01741861095328214, -0.005155049407526342, -0.012081540679327018, 0.019745303361383512, 0.004579638878258159, -0.010398271730205692, 0.06531411053486158, -0.05421986246092897, -0.022410228179820222, 0.013866347513292954, 0.0007419510832586189, 0.004403695150827705, 0.002649874701794467, -0.017091465239527003, -0.01625380831029785, -0.009214161539041536, -0.012822056042726748, -0.00520420455064876, -0.016562035669702234, -0.026729927832716674, -0.024926612358931413, -0.002062874230041309, 0.0009882056653794328, 0.0013195690022500465, -0.011932160069347952, 0.005347772020004527, 0.0033470516164447613, 0.007990776783012937, -0.00121488221348823, 0.02428821669448652, 0.024906158608886852, -0.009538663083371287, 0.0022483184922036117, -0.02135914261147536, 0.011544334079946941, -0.019006793628461992, 0.07631786420159958, 0.028919964473698285, -0.020440395912519334, -0.05166469682397182, -0.05730318879350104, 0.03316989810161463, 0.0015237378016075569, 0.038177126296195865, -0.038877205761833435, 0.016533547283593013, -0.019280434666343597, 0.0009325890880759382, -0.01721401702403017, -0.042853076778774764, -0.013532311740856832, -0.007087463781063309, 0.023745255917176508, 0.008943099985497518, 0.025645467421691166, -0.009020629375470808, 0.016557475081340235, -0.016585730369283812, 0.000598934794947665, 0.020883918598344483, 0.008460573595413766, 0.011568776267781017, 0.0050936240910129495, 0.051251402894867334, 0.027574666474614318, 0.05898008112057269, -0.027633471500176112, -0.0030479697426769735, 0.042755895403073126, 0.01541351221066919, -0.02198232125518732, -0.01935412382864086, 0.010845733380903352, -0.04375624035385616, -0.023314885882560775, -0.040002160985434784, -0.017021776078450235, -0.024679500153551463, -0.012170007571765902, -0.008614996070260776, 0.036507360986826214, 0.03434052126875351, 0.020173776431227777, 0.017778296793288823, 0.006443066230809396, 0.0041140243796850655, 0.014062774862089043, -0.05370921481698183, 0.0241838602547123, -0.004541917108959226, -0.00783059163355594, -0.01920792733119329, 0.0067115994852000775, 0.03548285126476715, -0.035514770481182914, -0.03399296130196755, 0.01567621654528873, -0.014124433837913104, -0.018003647949774906, -0.010243509459802947, -0.01421694147541867, 0.0037251981950536875, -0.0016745010578440712, -0.004394962272623407, -0.011896737716955045, 0.004425773418975953, -0.0011793464321735176, 0.02743639807174119, -0.0003772552861389055, 0.043290805956839415, -0.0006369028582703101, 0.002964555346487329, -0.012190971063034815, 0.005323839650301826, -0.010466691714646353, 0.023498235119144038, -0.03370269877770232, -0.03324265855673278, 0.031404936003122844, 0.004921111154607081, 0.07351573124049425, 0.054709738913155045, 0.006575020980970521, -0.054480067369819404, 0.08201838850996476, -0.02262046679285343, -0.03666215733623033, 0.012006909360094648, 0.00017048685870190122, -0.03637717878924583, -0.009969319083428855, 0.0023656401289681704, 0.006175541021737442, -0.0024213859984273194, 0.04101924176574226, 0.022634887246549162, -0.012615469938848928, -0.02221723858422096, 0.039043300696945, 0.010361553156093772, 0.008553979752456357, -0.012547565776362188, 0.005914446395020632, -0.035444207421574836, -0.005525203459297322, 0.027816460719801716, 0.010677533041697959, 0.021375762852371624, -0.015366324430934077, -0.032590553614841866, -0.020768028859209278, -0.018686470660052364, -0.022825287128401643, 0.028523290314451628, 0.010014407256684177, -0.024785473839833122, -0.0034215932314371218, 0.03434566887351872, 0.015703334200615194, -0.004588481855623289, -0.013967361546249906, -0.002089031525191387, 0.022353306204265018, -0.029391258561272803, 0.00744912951052464, -0.0077680403937100285, 0.016418335841027653, 0.021077929927340835, 0.023303608266165298, 0.01533410750370903, -0.013488035537800381, 0.03613159666687998, -0.021307619521974377, 0.017232120281703327, 0.0013819433027709763, 0.0020195671867283783, -0.0029213426439533745, 0.00482341919215477, 0.05793816293761327, 0.05076483351269795, 0.044141936050800766, 0.04569615523242874, 0.032983227601445855, 0.024634517232331492, 0.01644730130060291, -0.019948639252690994, -0.01856126838158609, -0.008300766877458201, 0.010849520063264681, -0.019588412610063246, 0.012993591732336971, -0.006569013344214411, -0.007266199605371362, 0.0026535846551897636, 0.019977693408370842, 0.008179762505608906, -0.0014627937865198102, 0.002740373488474308, 0.018274845984740256, -0.0025435574001557155, 0.011415474518385137, -0.013569475463139077, 0.026472272587676534, 0.011409969825331477, 0.018617971963944657, 0.008084678370752826, 0.0020675799166993405, 0.032036546884662696, -0.0327181933162973, 0.02297922009717402, 0.017527484803441268, -0.012085161253338259, -0.01935108520991023, 0.01294753452171948, 0.004307981500976433, 0.0003064041853902478, -0.03789827066670787, 0.003171406735765907, -0.015393157226448146, -0.00010400955882560787, -0.008673503867557017, -0.0061014303366931835, -0.004452593336271513, -2.7181225025775448e-05, 0.03845726501232497, 0.014551869650980107, 0.003882961552695171, 0.012270543921029211, 0.0115457408504676, 0.04129098672636094, -0.04044762477070255, 0.008538115918267017, -0.07081443590275231, 0.0338813724533787, -0.013040237241847353, -0.09000328325580727, 0.02386679398026967, -0.004168584006411048, -0.01774806824376364, 0.017311771034195622, -0.009014878579052376, -0.015600549243533754, -0.0015878345150374953, -0.0033038835898066715, -0.002227810495850093, -0.029359874947586056, -0.004975433290376502, -0.018343105312643083, -0.009160271936622236, -0.02373554914697656, -0.003017700933839807, 0.013852384228719703, -0.002715820343457291, 0.019705427685448956, 0.020977177934987625, 0.0046441837444957225, 0.010449366529295142, 0.0009498090858131334, 0.02618559717549451, -0.023491452656728848, 0.05744065673455681, 0.07396500554103437, -0.04260622985577559, -0.02459423938924913, 0.03649077886872889, 0.04238066667833423, -0.002254330149107396, -0.03398568994050636, -0.01672439493871121, -0.0052262627377575085, -0.01564350763666568, -0.02380110989615279, -0.03298448230138539, -0.016835428057216814, -0.017112016363833606, -0.015877314713086323, -0.019691893864653462, 0.0015345360457755407, 0.014312458278612643, 0.010102750854239916, 0.019419717149395135, 0.012459984009642242, -0.005215255418125153, 0.019800408616802666, 0.014850731403398227, -0.02556140985242872, -0.017719888790588122, -0.07207199148052416, -0.045011272672161026, 0.030550311093484103, -0.03691869706273034, -0.0015057308638082075, 0.017608586352696395, 0.04967690892174567, 0.08002762157465623, -0.00850629915343783, 0.002086347650852672, -0.0012073228573956153, -0.001877916507320831, -0.0030810777156860224, -0.000836744171119976, -0.015813765110100603, -0.03251749514141375, -0.019342171020596807, -0.004455302174754165, -0.0046003755105812, -0.0071998535976682855, 0.022233768462306517, 0.0019022273118445196, 0.014901294743608217, 0.008442508834918833, -0.004843484512872264, 0.023140997514638495, -0.005581769357924658, -0.026849821515007546, -0.014974223858400394, 0.016860410656227884, 0.018023693395132476, -0.04141246511605519, -0.005763837077521335, -0.019316788654447047, 0.10384716148287888, 0.003480816241149316, 0.014040024727681332, 0.023022348911148557, -0.01475636121879671, -0.01736967793780713, -0.007785160943657064, -0.010681499726350456, -0.011761278855869911, 0.011409004973824174, -0.020756471342718356, -0.0039646171176438505, 0.005106691116990387, 0.007109234959844312, -0.0003858263635279222, 0.02042944051963581, -0.004307489699607209, -0.0010941902702263212, 0.011400794690987297, -0.03831580381374694, 0.003612450773398799, -0.0131660509254475, -0.01882960775874611, -0.06523311916977902, 0.048176196234239986, -0.03514142132181359, 0.03874464751738425, 0.050088880723915936, 0.03684124503526028, 0.041205963635480965, 0.0014928531985945277, -0.005898549401851567, -0.00026035823613492875, 0.025918604857524, -0.013199397896202931, -0.0011086218241581742, -0.014932983770039883, 5.532351181950987e-05, 0.003533756422747305, -0.0071725710144707475, 0.000130020383303558, 0.013838774497187034, -0.014912645187079783, 0.01515362631755723, -0.0009023321180791603, -0.007673537601346165, -0.0030355415167746223, -0.03980006069369127, -0.0366932782718599, -0.025079033078529038, 0.0319165001401276, 0.049253854488547195, 0.02434578412730425, -0.07873430537850686, -0.007996267370548569, 0.008323017675359014, 0.02555098038400803, 0.013489835648682561, 0.014691085667619586, 0.0005126357369914131, -0.006884027879410625, 0.001704272944466612, -0.008428011663503675, 0.021976315306698423, -0.0060944470823348935, 0.0005664855063117196, 0.006423394506307518, 0.002600902601033913, -0.0015965760652269074, 0.014650455754280813, 0.025405543415820974, -0.027265105034008363, 0.0371539123873061, -0.0061465846762985155, -0.004403807079557757, -0.0031778580338746084, 0.0013946500413435532, -0.05411757224713461, -0.04066745909812507, 0.008165489565444183, -0.04773224617077824, 0.004005672485687699, 0.014849084135368592, 0.04062291739816851, 0.004694552666692857, 0.05748395868060088, 0.02826889968682341, 0.028117034772685585, 0.040052863725304165, 0.007797684283678536, 0.013725046791649714, 0.018674752060703483, 0.01695749880941985, 0.018877297131724983, 0.00576338637234397, -0.0022305328093259564, -0.004914411930424857, -0.03340715882115537, -0.01128297023183141, 0.024471557126235808, -0.01250699575979131, -0.02315839032348779, -0.03546701474710609, 0.010467886879734642, -0.005158338730866892, -0.005744501965831353, -0.007451849597652473, -0.007044612859788147, 0.010379668533395383, -0.0009664352132054417, 0.01639933952164162, 0.020624348220785797, 0.053642014385822584, 0.026667781988528684, 0.021491929877752898, 0.011497901223798249, 0.035529299185202624, 0.03480638579719164, 0.0026639636804282494, 0.017077508379622634, 0.017155050108504228, -0.0014274796248176943, 0.010027617445455484, 0.011339434745263395, 0.001345222309953949, 0.014185295364954116, 0.01080701154336235, -0.029070420939614434, -0.044699228839382314, 0.02475570300519592, 0.02898014300379323, -0.03571208794727843, 0.001003777668257392, 0.03894376723765173, 0.05413644503292409, -0.00630386687501918, -0.053939131594474526, 0.013649036201666473, 0.015278823704383984, 0.0029318843565637187, -0.0182731942853505, 0.025012522224833602, 0.0503198897048057, 0.03843715318139941, -0.04546107524138195, 0.01851810949806384, -0.0230904120050233, 0.05341312006627021, -0.022474417304075425, 0.012924060829831257, 0.014237701565258252, -0.03671663010858234, 0.017471694609573183, -0.015251455703649422, -0.04289308590252239, 0.02486351762285459, -0.015952278817586228, -0.024722167799230282, -0.002136545656402106, -0.0036370631995638293, -0.08786036204740236, 0.017656115403976193, 0.05652289308708442, 0.02628557289367559, 0.01896429230659136, -0.04331047570724028, -0.10364737742314183, -0.03344251542860194, 0.013450330252627995, 0.0413055562509756, -0.04709655454122188, 0.022173707235656332, 0.0026412082373053684, 0.004383119975260245, 0.0010869665542218047, -0.08418900271709727, 0.01848343805987204, -0.05532085502262218, 0.005936797337221093, -0.00644079385335049, -0.017471597812979016, -0.01336588588466264, -0.024037396793915783, -0.01122822509547898, -0.014230122592132913, 0.0025237761185687184, 0.03256040630909247, -0.02826428220050944, -0.02376971075208512, 0.02829120289145764, 0.01377730056387882, -0.0344393971670644, 0.04191190737563626, -0.04855590472813112, -0.007600377711005337, 0.02224996428427496, -0.054537244428425245, -0.05581527850183969, -0.05253272331495001, -0.010940801311339584, 0.0029101861978012107, -0.03371682821164545, 0.01431679375069644, 0.008631214347141964, 0.01846854403376949, -0.020965370732400557, 0.011269863935702975, -0.05538439451456078, -0.048132532059882153, 0.015448314467908357, -0.060450250947590566, -0.018264968891654774, 0.02022337801803193, -0.001443757606817941, -0.01658243670598104, 0.005246942271174182, -0.021833333580116077, -0.006206083358132707, -0.03972921124831111, 0.013503032505431735, -0.01651993672631665], [-0.03755511647618786, -0.023934611834713067, -0.01489157286516266, 0.044491868576872755, 0.006769468996949524, -0.0430925469265897, 0.0047510557234697855, 0.02143647821478106, 0.06300943400289057, -0.02906055459215922, -0.060856347095336265, 0.005045895377705495, 0.02449380151707729, -0.03077935954369583, -0.016917543703155763, 0.0027458540528992313, -0.03733105119783382, 0.019627500099210108, -0.0072345196356536435, -0.06688875793070513, 0.04601408957577351, -0.015596034449816287, 0.022278849191482934, 0.009574058973321158, -0.05533685309859152, -0.07805844340575796, -0.017495653715550154, 0.01694596144909282, -0.016091850798162666, -0.046639922515277474, -0.03162518162571419, 0.05203591643219976, 0.00019311459668701074, -0.03476699966597689, -0.013454880965265096, 0.0032691196635472285, 0.009012816226870947, -0.05800946096644835, -0.018486258981999414, 0.042450949136836585, 0.04938338295216235, -0.022829172814503394, -0.023882852464142578, 0.011051761988416592, 0.0030062999066089316, -0.012073313299013663, 0.06261794049583307, 0.009144320422955732, 0.010024262074400214, -0.04939036851535148, 0.0023087877617850674, -0.013845046618720195, -0.021218225706628128, -0.013678469641177329, -0.040044594594161514, -0.048510869359775936, -0.014229986086163538, 0.020412965638747987, -0.0786343885400653, 0.017393131700725827, -0.047429982899698665, -0.05965632080076997, -0.022414146959195823, -0.05796628089537046, -0.06726968642409334, -0.027219903880529975, -0.007205344209032299, -0.08494135027442948, -0.04328844305360087, -0.07809087779165369, -0.0725942419151539, -0.00048747128927243707, -0.05702271586562572, -0.046563475714663294, -0.007347545908468078, -0.026967014623270127, -0.02736475902360079, 0.0084850609047029, -0.008772712095606415, 0.012904360655428585, 0.038964725914205564, 0.01923116772508329, 0.06129374576337573, 0.0191481378952622, 0.027614298503805684, 0.044988085615481246, 0.03751834067031641, 0.03122543158885521, -0.04836371630326539, 0.004566552088663046, -0.06678833336967022, -0.003295247165076088, 0.0357787959793788, -0.053357346593154414, -0.04271409893668875, -0.0394239010831701, -0.019807518977252157, -0.03583783727220464, -0.04303747260089629, -0.022173961534744296, -0.046560733968942336, -0.016239634156650508, -0.04616705242841278, -0.004346876039790163, -0.038915083261969456, -0.013089390427482753, -0.02841542406394853, 0.052621465215764995, -0.04878832465015282, -0.03670564858058501, -0.08957814458353522, -0.0905774977060173, 0.0327590905301773, 0.011320903800407267, -0.022016382895006136, -0.004176706588637923, -0.0015437485688240447, 0.007564098398583201, 0.04434210290319903, -0.030936133454092973, -0.010836384494403656, 0.022552561856283904, -0.03423820078309992, -0.00865776482970822, 0.0018272929326224392, 0.00038902101612029214, -0.01827723556988608, -0.010222736959569963, 0.0017333490645114788, -0.020084088223760982, 0.001701693019955375, -0.02675501996323322, 0.0004142095143736566, -0.033300195213813874, 0.003204144828291379, -0.022700547602651472, 0.0007114389542728793, 0.02187061504731835, 0.010585806620106926, 0.026937789791320662, 0.012640840135481016, -0.03340816128009774, 0.0064926679072354184, 0.060538267459748475, -0.018123404250352828, 0.012887476064460055, -0.02340233518404258, 0.019987503481727165, 0.016572410512625715, 0.0017671825898572145, -0.00296707586831008, -0.011632985944278766, -0.028786498459415402, -0.019785298225983572, 0.010456146097904927, -0.004457803708189686, 0.011211235022856947, 0.006853305826251502, 0.0043905897385529144, -0.0031684842010920545, 0.004712456436209409, 0.009435022426099032, 0.016870652873588035, 0.013373471700213073, -0.03197585623313423, -0.0016845125506643782, 0.05208619464020199, -0.03222467079231123, -0.04789803644902887, 0.0041208292907350145, -0.0020963512645958446, -0.001204810262389853, -0.008826300708938835, 0.013111329164620293, 0.002807540874535469, -0.007016349309036387, -0.0011616752284694892, 0.013613693701188635, -0.018055539183781943, -0.008839979087944523, -0.012576016403456815, -0.02333482158001984, -0.02923278656747603, -0.016521398840358005, -0.025417527611998707, -0.025243040261780703, -0.005250602039355193, -0.002395955340569782, 0.006087005063837523, 0.0027786286924764035, -0.001321256885548391, 0.043841416075898254, -0.004764609644677663, 0.012846940111253837, 0.03671938936250751, 0.03185446363042591, 0.053038088209875066, 0.01360023242682235, 0.03770592531866728, -0.009077480036918528, 0.012385107775578575, -7.102346850250476e-05, -0.02499904213942311, 0.031903352273115214, -0.026877167408961428, -0.003500624630255951, 0.030094422914166908, -0.017957464954641185, -0.014135452944398025, -0.01416530240109321, -0.04361588244962165, -0.01215478472256315, -0.0283481936071041, 0.010729398018342341, -0.027768051444270005, 0.01680154919315823, 0.003547040592740996, 0.0024076142883930444, 0.01273018482766107, 0.02253948014127068, -0.04175910402760408, -0.05638872426342004, 0.040376754992985, 0.04301236336451005, -0.013581074289641622, -0.09903964121997048, -0.008377068931454736, 0.020192624113495504, -0.011019226514413186, 0.01933272997500935, 0.015900455567898084, -0.006549432029611093, 0.0061132177065094705, 0.015848030736488796, -0.00794974523353088, 0.009475057680707206, -0.010869702878738672, -0.02438288047747124, -0.021987738181434714, -0.025551055686482207, -0.016280760591552448, -0.015062668350673615, 0.023707085073077235, -0.000652671658845619, -0.0008133162505181006, -0.007760497834093083, 0.024111440791619077, -0.026534654617737328, -0.01387574833005715, -0.023819459143978754, -0.037748605060180636, -0.00684959892306031, -0.035354831574822235, -0.005872850491780362, -0.0828861124260377, -0.0028084575287492678, 0.051761677619642024, -0.01930721694830822, -0.02497646807945091, 0.023243430315022268, 0.007512896550054659, -0.012336785681657447, 0.018695745866883797, -0.013821337699579779, -0.012026555220584621, -0.00398232765231137, -0.044468018180577995, -0.00011080966412199775, -0.013688799480173876, 0.010498459084854408, 0.004357392374779061, -0.0030814567206313196, 0.026246040724671463, 0.015730995439953564, -0.015634715667224082, 0.0014042852853440061, -0.056716888170190424, -0.005699906148070816, 0.007291654796917948, -0.030073479076464623, -0.03873250031253028, 0.02039733910566571, -0.01581888012046616, 0.0034070817905392436, 0.014392284183371544, 0.00288887454239999, 0.005454274799604013, -0.0035203076877200657, -0.005344359955830374, 0.02016405411831081, -0.02483610600839189, -0.0033839757732110954, 0.007571068335975577, -0.0012480198355205817, -0.009423395517499893, -0.014663940600804984, 0.007178668852630353, 0.009389620027556965, -0.012168465407186033, 0.013080406134601812, -0.019541805578629695, -0.0014547015335353271, 0.009546740439267093, -0.022806313491249612, 0.01976575582546183, -0.04169976322036909, -0.07378810122379201, -0.01665742189190949, -0.035568951452090075, 0.00023543564148836052, -0.06352021690711089, 0.03126603857862357, 0.02516272534377215, -0.02588390031361977, 0.005249121134064661, -0.003737018297392493, -0.02006706454290349, -0.011386127082305283, 0.02247516414597547, 0.02794112304592594, 0.0048437650874156605, -0.0007123010455704619, -0.010432455374674653, 0.01041243938773391, 0.007053245625434728, 0.02140150490316499, 0.005696650661206743, 0.005546946039913488, 0.007647046370743858, 0.009686883122744116, 0.020806145017742604, -0.03980487595038361, 0.003023250375459378, -0.021413295080115684, 0.016397561662538383, -0.02416655038171895, -0.03903180690666066, -0.07281139726847723, 0.04435787435419344, -0.04932360751338657, -0.06470131783594514, 0.024139667347709434, -0.027008328521303398, -0.017823941014754267, 0.017596776922985207, 0.007942591455142707, -0.008523557426130311, 0.005953916740745228, 0.0034428990051594984, 0.007998296122562743, -0.025614445282059525, 0.010900938037593245, 0.012236926017526746, 0.014491893830199708, 0.004741950724705275, -0.0150020320343036, -0.010060233880910159, -0.03451944385840961, -0.03562773800017893, 0.006475157426030945, 0.04402493850580179, -0.011990365864184385, 0.012640590755259423, 0.022230903115125517, -0.027574331078519747, -0.019843305126893418, -0.0055392830034118245, -0.03891311162271291, -0.00403574069159072, 0.0063990533385598096, -0.01855763874996803, 0.02239201270469191, -0.005222799149902779, 0.010305357108654718, 0.04702543486731517, -0.002034383558812498, -0.009623161314233237, 0.018249744676271454, -0.031284563938703214, -0.006913380620243769, 0.023382287217151795, 0.016439531808950546, 0.011366824268393702, -0.005279618923340042, 0.00261620492247775, 0.0028336062805257895, 0.032121134127894864, -0.010701145512028162, -0.007997096587796872, -0.00850593347227865, -0.02772265396736848, 0.11956726893855889, 0.03291822338263284, 0.037731344713209165, 0.023540534241785375, 0.020547373030864874, 0.0029020594236814743, -0.014383298870879113, 0.07340764829362494, 0.03153798411815789, 0.028846472524943483, 0.020600942512882015, -0.0006595117580164088, 0.009982774834380462, 0.0009496697881634397, -0.004925960276873041, -0.006833086567762136, -0.013011290080723726, 0.009746278858604662, 0.01487702781038729, -0.007302594655090962, 0.023579516760771625, 0.023600873169022357, 0.014572185407289382, -0.011659953982275909, 0.01891309698185831, -0.04212954775856209, -0.05813605759247802, -0.006292306067633518, -0.008393313066152305, 0.021491146912423154, 0.016965062533705798, -0.013935515478247222, -0.00014411180419714203, 0.04830646176567682, 0.0673935212618275, 0.012128932163149224, 0.007097708120599242, 0.03429043835582277, -0.008387808680731738, 0.017240039459810726, 0.0009021485846426121, 0.03551911759458474, -0.008469492160520281, 0.009229759086417816, 0.01121310114643953, 0.007861033542598539, 0.04340889381273727, 0.006759110898214945, 0.02226251482697828, 0.002545519364986986, -0.008964759410851847, 0.022314404290497806, 0.030219451716221972, 0.01079651390422154, -0.034017742922072644, -0.028371993684817007, -0.023564491174867672, -0.0725241638630317, -0.0019496229779206113, 0.017997349665036518, 0.024549082053358217, -0.028024737993714008, 0.011375939588696484, 0.024193504840638837, 0.022011317139040226, 0.014877779773096856, 0.0062219013746820035, 0.009925133453298438, 0.008752852737088942, 0.03182419489090317, -0.014415091704933082, 0.01868231194197507, 0.02143447293516417, 0.02083012062553886, 0.012134304463588074, 0.030773214439799097, 0.0057576253246945696, 0.023419806670757645, -0.014638113836606233, 0.015299359592721492, 0.00011042923250299083, -0.026245821971178845, 0.019786435431974118, 0.027011068584749085, 0.0038684163370168723, -0.0025468772716280472, -0.0632442418260642, -0.02879047616879669, -0.003592530705231496, -0.023316469951025685, 0.026864745708126858, -0.0036998245178984646, -0.004829728186291063, 0.01396743307004385, -0.0102507390789366, 0.005088919895498463, -0.008887875881241994, 0.028552571644411173, 0.023276402658489365, 0.014332339267746411, 0.025091747586403278, 0.014746211309413521, -0.0016648147162401392, 0.0023688762368291524, -0.02620639982885991, -0.028975375560737867, 0.04011693881529443, -0.05506564886212516, -0.03450574556620897, 0.012763508265102896, 0.009129098799767846, -0.028672306626802507, -0.017513754807840964, 0.018003170797224705, 0.015322464457511422, -0.02912793002639512, -0.04959747737678479, -0.019642723734476626, -0.03917488066890268, -0.028081444042203998, 0.010109883675223998, 3.747379614131765e-05, 0.01881096894593358, -0.020291125954139805, -0.01026693440846649, -0.015470427292824876, 0.01272382788794436, 0.006439588407165663, -0.013163527870395816, -0.00861307343547155, -0.01939633806764216, -0.012399586965844677, -0.0028411408115700024, -0.004225173266938602, -0.05147593059753769, 0.018264779103845986, 0.015144399011779145, 0.0047802534312348, 0.0375109149808691, -0.030906834088289332, 0.022373623993624216, -0.02520160529927242, 0.003981029579996102, -0.016601981668746515, 0.02628176087617445, 0.003343833050099097, 0.007959410804196331, 0.01757755840868646, -0.0009154281628322336, -0.02398124021456543, -0.027992446866694196, -0.027084445796027395, -0.04426782136113838, -0.015910251149510713, 0.009680639660008924, 0.005967696548403883, 0.008102285415158441, 0.006594124319707918, -0.0024343093741796846, -0.0018863880780665648, -0.001836455372475779, -0.00035549708550356373, 0.03419576047744499, -0.007326794132331552, -0.02699908860004267, 0.027366585148551396, 0.04278292314450752, 0.034087615584183176, 0.011668347645472223, 0.000384952342690592, -0.020376050435883232, 0.011195812350494591, -0.02470692150603385, -0.021272339373795097, -0.005614800361225435, -0.026058066454415055, -0.01890133926120315, -0.0036783095113548585, -0.0050533070453989415, -0.004245834439623552, -0.016063436276463568, -0.015436644035050708, -0.00893285076637748, 0.011813544010549827, 0.001222471835312592, 0.008007144497156046, 0.031141745856916425, -0.01838640336309494, 0.022289973268270046, -0.020699834127791843, 0.008236524694456366, -0.0155680918738441, -0.002137771999116849, 0.025996844242366198, -0.01534343297082598, 0.05965581713081797, 0.0330739553432861, -0.03272598866241225, 0.037013852763028515, -0.02921642338108141, -0.0214247744936636, 0.030512917221323547, -0.02451790032440034, -0.0011084580767367189, 0.016178880587978478, -0.017339374309494452, 0.0010248353960535278, -0.021058102491699118, 0.010300939813089756, -0.00509906402179882, 0.0069911223558183485, -0.01618282480667495, 0.01582521492942321, -0.005348659222610667, 0.0035526950026911266, 0.015702669270305242, -0.009503696412575483, 0.016006519435891188, -0.029649874612493327, 0.014413435540536321, 0.011515537549612773, 0.04201733648145673, -0.028661310318049173, 0.001775024373636694, 0.024189243696306012, -0.021722521001381813, 0.04115394161107638, 0.027415167944316133, 0.03651958512438288, -0.029638497838516624, 0.0055518467235395755, 0.03384840201674499, -0.041157833824765115, 0.0026936160438780677, -0.013528676560823542, 0.00033555074417423287, -0.0047053772039054, -0.010333912337187539, 0.0008042128834637518, 0.004280021215191694, 0.008262192669301865, 0.0025186084793872624, -0.0035299895465831102, -0.009995405782774344, -0.002879119231131688, -0.012846722811765332, 0.038899044813051654, -0.03441026688157786, 0.0030848093693689738, -0.031246014048229662, -0.02845146809821109, 0.001160326183061716, -0.02404882825334009, -0.052111645253465746, -0.024054375722389557, 0.007772565288262106, -0.03582867664918863, 0.03801856971843569, -0.03563044971943174, -0.027029398233661968, -0.022247402631243033, 0.01653494198373308, -0.028563816911952932, -0.0020125655807302595, -0.016683756356875357, -0.0015960136267176694, -0.018389541183214824, -0.0057328136562280665, -0.006718210801079006, 0.010464649928372894, 0.010904776753050602, 0.02652405364731991, 0.012525555833134411, 0.002361331764775456, -0.032029096660745576, -0.005763418341660829, -0.019637847988567145, -0.008396917321539112, 0.0013719494167160682, 0.003145901305045507, -0.04451176319292933, 0.09624213476785871, -0.08943872690206031, 0.02640678959378959, -0.0019447088376218372, -0.03584137171936806, -0.001334654792848815, -0.03559679710995569, 0.006400293175426808, 0.002894152015785214, -0.026745210984342665, 0.021973777792985646, -0.015046291374745521, 0.0023390746982772403, -0.012658713653457604, -0.005397800121209505, 0.0004998184653613553, 0.0028032514175003816, -0.010049992935005896, 0.03099572310791176, -0.010106806069198351, 0.009855356983413487, 0.06124308867668286, -0.055905358851103884, -0.0022305807967086676, -0.012042355463587794, 0.003177526520546805, 0.0071670101474721965, 0.015547983370520204, 0.04456682476718199, 0.012322288361665752, 0.029402878307703977, -0.0021671066617156526, 0.08361554154500396, 0.03254730830556729, 0.038918626545464775, 0.002172067814114681, -0.05470098826856063, -0.011051999792065094, -0.02894674441520102, -0.07186740230138446, -0.039282328591402335, -0.08200679414360222, -0.016455048132373216, -0.057774724632278826, -0.09624136674726509, -0.09956478413821242, -0.0882696842505738, -0.0977297457406953, -0.0860448734423802, -0.046382134713690716, -0.004158688876269772, 0.009349402283220709, -0.008986262175081756, -0.04391491833874819, -0.010933713146711984, 0.023083846056854127, -0.009789029140480989, 0.008768125095044961, 0.008247893873218308, -0.0461224327664508, -0.04650494086196585, -0.018990825459193575, 0.003511032505635226, -0.0707017239007529, -0.01957263945594151, -0.027203362947431278, -0.0900834603102762, -0.03363326122396565, -0.018359428656523673, -0.060715525947760536, -0.08440631149637005, -0.05396290129126055, -0.0251991931106219, -0.04407510078682451, -0.03404502574716042, -0.09953562395527363, -0.015459685997613775, -0.013218696428722922, -0.020541023698595895, 0.049721360952837176, 0.009395406615171228, -0.058856975380937704, -0.010321187680032897, -0.026622579353977688, -0.028807308787072793, 0.0627848504683559, 0.0010063736901895326, 0.02524944413498818, 0.008814954817138575, 0.045461453444764544, -0.024231649218820445, -0.0019005389158990675, -0.030194456050472048, -0.0392735716806245, -0.003591936664289549, -0.0036120787260382923, -0.022505796744137618, -0.0404923451722947, 0.006344650602052842, -0.028839656538252087, -0.020544194149063243, -0.07046495705889486, 0.019876321485292153, 0.044969842160807134, 0.010800306390506508, -0.04532948640049642, 0.026021399836137105, 0.0370215279392153, -0.03724120871625818, 0.006225308682474729, -0.0059434518749806415, 0.004817008612398317], [-0.02016983107129902, -0.02478031044748038, -0.026278948048182815, 0.013712013850622616, -0.013597220912238852, 0.011817346333635981, -0.00602790248077236, -0.03496550905446469, -0.06401122125162392, -0.03990020061806033, 0.02750513299475648, 0.001298140903104634, -0.03981937810760899, 0.026285515434978597, -0.01196854452852241, -0.021296864271407367, 0.009653842495585836, -0.05903135853946689, -0.018467953729300882, -0.04255100709551634, 0.0006027115995299992, -0.0031108650622706, -0.03059243599638346, 0.018063381881776537, 0.015688764070378978, -0.028028813788916935, -0.024793251137198255, -0.010247789454493993, -0.024336694985548052, 0.018992922013672534, -0.009796431687923582, -0.05247697800980614, -0.03946770427609219, -0.00918209642508749, -0.006783838438171526, 0.07137893147124873, 0.012778283941888914, -0.004225269943899739, 0.012014197600477521, 0.07996287656960296, 0.013724379955723728, -0.06596858765788738, -0.011597287983151754, -0.01573829955770324, 0.023462861847573215, -0.012709103602215097, -0.010421650719059365, 0.03547050368102582, -0.05738719578264291, 0.07353604463663957, -0.02147067353334445, 0.04319382968109161, 0.05778080001326346, 0.033170815390488745, 0.031022047327037772, -0.0164884703235488, 0.02702232848732572, -0.03729941680742153, -0.0033892935022349436, 0.022459146874695437, -0.057603676204042525, 0.05466351037207621, 0.020164718705116033, 0.02414431722067739, -0.019349610018269663, 0.022589637480203928, 0.0474002761546415, -0.04843292767766149, 0.04278079014168105, -0.01720346047020282, -0.01158720607957907, -0.004563687206337607, -0.02290947064447322, 0.015121408723981527, -0.04949986422263003, 0.010228063251280468, -0.05047707585216704, 0.007605462203910112, -0.032807970982119704, -0.05960010542189256, -0.010985214998825463, -0.010407813868467985, -0.052303061859089416, 0.02765485049844082, -0.019715827162089992, -0.018417300368927893, 0.0341286877515075, 0.038985082060549806, 0.071258264817246, -0.024592919728150378, 0.046480911508028154, 0.05634931566912787, 0.013829719678379744, 0.03969986822968336, 0.022874853203745108, -0.020935782321117632, 0.023357611535301432, -0.023314875391453747, 0.02776281892276243, -0.03236921175351502, -0.010702690161825956, -0.021787028726296623, -0.01608391247672272, -0.00045768032337570953, -0.065298269068859, -0.05852854400956993, -0.009198881494496278, -0.062314929728314115, 0.04307478501121758, -0.014137515952479293, 0.016608657676120242, 0.029370967942763466, 0.035485347616377366, 0.028706251658088263, -0.007474410837240416, -0.003596777815904988, -0.0656108551669934, -0.015356627086253863, -0.011511991820998652, 0.027531592153504283, -0.04442689239634648, 0.00298987783677507, 0.018381690708839587, -0.020899288350934193, 0.014898668152472797, -0.046926337721341214, 0.01897338701803263, -0.01913447166216922, 0.024337378549538886, -0.018622136791912287, 0.0029933955900315183, 0.011835284017064294, -0.05295398770904861, 0.025155837001917092, 0.05566207584961359, -0.01617746928505316, 0.0435439315784636, 0.008098625969853068, 0.05643172598955396, -0.05676042073191833, -0.02561667760697161, 0.008310556671670256, -0.029558333791910116, 0.0681718884588536, -0.0036859717904863653, 0.010165267242146994, -0.009954867150073021, -0.03268198198056505, 0.0024777516334888454, 0.01717700605961348, 0.0008396105573668743, 0.006635062977087173, -0.01424169457398403, -0.013829534271394089, -0.017920933408890373, -0.018035333826950516, -0.009417549001344522, 0.0029428069909315058, -0.005558180254373306, 0.0031234633347891217, 0.021461748126499904, 0.04711297924844036, 0.0022231646192873923, 0.04827624463251235, 0.06731268752492142, 0.03385691223042752, 0.02055922351138754, -0.02343297835531067, 0.016143264209449792, 0.025418754938243353, -0.006872314597166993, -0.019152551118981957, -0.042893751591427276, -0.02691195099977385, 0.03229288163014641, -0.02333191844380854, -0.0145643426332287, -0.015351475002303109, -0.018295693923086026, 0.02867189550821772, -0.020542960160236472, 0.009139048077530949, -0.003933295758977109, 0.004255702925324102, -0.01566250262924345, 0.0046072415482030045, 0.004660314469706888, 0.009565072340509415, 0.026331900405739034, -0.0005554015902591611, 0.03370193476300365, 0.10162731398994312, 0.0590139264879817, 0.04844848894089932, 0.018887589602960605, 7.00884500572671e-05, -0.025348938937561183, -0.0008797240945725372, 0.03409243619797382, 0.01216329383510426, -0.029782344230842275, -0.022298575288760076, 0.023041234701174144, -0.012533393667952652, 0.022594428861208864, 0.009528444247423898, 0.01659466986211341, -0.004011377042773636, 0.013470649317184837, -0.019385003486023403, 0.016175825780709124, -0.027110076132880995, 0.01337423764957442, -0.00901912243638577, 0.015445092181396745, -0.0022821294366251687, -0.014860311904677657, 0.012617938300832162, -0.006934333538669921, 0.014556639756147429, 0.09349129072886055, 0.11589310454672201, -0.039271323808306814, 0.008476037436002653, -0.004429643580555881, -0.08305885550423124, 0.023289756895856276, 0.011316361344005875, -0.02656516040977811, 0.03481638175728372, -0.02319511538456565, 0.0022281009646413336, -0.005782208346888388, -0.003638489976497597, 0.0028609491699451662, 0.020794463439674515, -0.009091421211797545, 0.002878480223262628, -0.0151547672730119, 0.004898320045549317, -0.0025988435321008508, 0.004263610091281365, -0.014828114438882708, 0.0009081436302322815, 0.016714027539539603, 0.010076134630793133, -0.03600349570988773, 0.020580262483384487, 0.19197100930792182, 0.12084257274573525, 0.03258358567082526, 0.060697624039639506, -0.00988630753395799, -0.02007423136331186, 0.007534614647149114, -0.018346384629950533, -0.014055964167318332, -0.0314679180879659, 0.013514662055336938, 0.01736656284536135, 0.0071066158614483494, 0.009021021376258537, -0.005340954757240012, 0.019535720140314752, -0.004433151069623214, -0.011539833270657971, 0.0018634363621590436, -0.007182976123636442, -0.011930494536285904, 0.006778782686577378, -0.0009614703003588055, -0.0005712261517003103, -0.025716088354151637, 0.012595300415584822, -0.002165217776211122, 0.0014335450604511702, 0.11754825617996466, 0.11206075884561587, 0.004639221115044986, -0.05465476010506964, -0.07336022991568832, 0.027459264509115698, -0.01498251887086514, 0.0384798379810085, 0.002780712454704327, 0.029024756938344155, -0.010299716229698958, 0.004010276247807434, 0.013899570574208748, 0.015824452438389834, -0.0007398288709165205, 0.025343636412067296, 0.023799553695530804, 0.00014037744297801542, -0.01770931992325511, -0.012269532017261579, -0.021355839475141556, -0.0357650835741408, -0.022167691778501974, -0.02657303223642893, -0.011661441850964767, -0.03860537623563029, -0.000485600203711323, -0.04091742093012081, 0.06864995061825484, 0.17304949195410693, 0.0697950660918963, 0.03724428919172461, -0.045402507613942746, -0.0183539866108838, -0.04896244536879854, -0.008286701235640043, 0.02115407919621371, -0.004385868339253222, -0.013333369396014276, 0.011626357547623829, -0.023416346222935557, 0.02127076239460023, 0.0027940984917388025, 0.007434035643365747, 0.004969084562011384, 0.02710203647375322, -0.004113835189882784, -0.02233210044923946, -0.012423456035691297, -0.027913976656239875, -0.01644741547331618, -0.037076865541059836, -0.03627818093906426, -0.024016776384768644, -0.07890428224419926, -0.0621551086035427, -0.042208047440411255, 0.09370363480316204, 0.041445503060063296, 0.05312313707771501, -0.000705476499539335, 0.037824009740550384, 0.027835201952304565, -0.00011131901448530026, -0.015986025182223935, 0.012637996999286472, 0.02601746798020869, 0.023322823477039317, 0.0396951514168026, -0.008379534773903375, 0.013701112580724033, 0.026415827452658764, 0.02098279406137777, 0.00997015924361531, -6.127072564101487e-05, -0.006517178046091125, -9.447202023468169e-05, -0.009909574282167141, -0.022333383619558084, -0.009187504409389783, -0.022380359473772614, -0.03631700370063688, -0.0202582998032734, -0.0596053090484434, -0.054794760293848874, 0.02768979635719917, -0.03959163405066511, 0.031184799862075042, -0.017104183278642233, -0.06130734801000846, -0.0028679326219324384, -0.040552335641868255, 0.030206300741421364, 0.04074962825135729, 0.03821280595505439, -0.010485869273408752, -0.0013941061694882594, 0.015073776404580568, 0.01677782905305039, 0.002740881374914521, 0.02039543841968433, 0.0029553667327699884, -0.0024259572940497328, -0.0012242448672160884, -0.016958452737413726, -0.008530093744505423, 0.00459273126150638, 0.0035890074256176374, 0.005147138014966179, 0.018200390784634733, -0.007217347523700966, -0.040884872072922795, 0.025752125977780038, -0.04873422364232586, 0.018278635576421336, 0.0006397154259023868, -0.039987567076987966, 0.05086209241588058, -0.025237166796273015, 0.004498526790631654, 0.014202968770574196, -0.009430619965804457, -0.02247367197156788, 0.0068761838246963105, -0.012908827247179702, 0.009415482932022, -0.0014309914485120324, 0.014066957984639231, -0.010068198923488128, 0.01585140670437785, -0.022899454028062066, 0.010193215625040873, 0.0010241746209384772, -0.02167630621221952, -0.0015451309836949044, -0.0017708449861034222, -0.022207286288033368, -0.04004471605154318, -0.017500013358871788, 0.008296142894856466, -0.009397641482139243, 0.02487126505088673, 0.01736551485973559, 0.030452008857721865, -0.08256486947953878, 0.023873878454980024, 0.008477875649240976, -0.07900984701259768, 0.05584037013797074, -0.039004685096115224, -0.021873141702320725, -0.007617703254986754, 0.012694258619547365, -0.02264034846441269, 0.005602123304508557, -0.004984551339705361, 0.02407982048178693, -0.03541850425385064, -0.002933337932855701, 0.0009835739612383567, -0.016307326655728847, -0.004950512080926552, -0.010567878406909668, -0.003962328937095859, 0.005733461367184789, 0.011880106305012917, 0.015490289925110154, -0.009134352530510993, 0.040256870753186125, -0.00847225469870822, 0.015888078985721324, -0.036556283812658685, 0.019739562138796483, 0.017667936314721397, -0.026519431991720393, 0.0313991307325197, -0.04399958857001421, -0.01440037359996804, -0.013781943711096284, -0.024562227399574803, -0.026200881243911022, 0.02957320786272278, -0.026474229102312855, -0.013207631285335674, -9.512655123514746e-05, 0.016784128120095217, -0.005284717267349631, -0.011796050575839979, -0.003052970852762713, -0.0070600404346215775, 0.01640427761279864, 0.0018350302448112753, -0.023972281580541762, -0.0013325002147999293, -0.01626985687490033, 0.01059096478752305, 0.013788467174433218, -0.03468032866818491, 0.006778265794189058, 0.00854844369448864, 0.00898870377031173, -0.00774677139751057, -0.02428637648936105, -0.009572700107864898, 0.019994523315008863, 0.02300780976392119, -0.007194582132967066, 0.013525581826491962, -0.005949536410505933, -0.023872724923623283, -0.021774061667810055, 0.002817265696939961, -0.005502319965144714, -0.0246464182615165, -0.005512616729317304, 0.012420959880726659, -0.0030136555352960614, 0.0005947486841135122, 0.004189443546468513, 0.011854629441449544, 0.015378786927159868, -0.011410506836202032, 0.025600121505882863, -0.007507947578791889, -0.039476622691405956, 0.014744989426224165, -0.013698530985725155, -0.016319145234770474, 0.012048576583162914, -0.04134294594607177, -0.0029148122959052345, 0.0002844764391558472, 0.03281548277009765, -0.03905499656748346, 0.03122468617768555, -0.007081200872091698, -0.01731917616953978, 0.020903574210071073, -0.006654837360366671, -0.05255181454747694, -0.006696606934080784, 0.012226591960831286, 0.0031273717920727428, -0.02300616826810688, 0.01687445961584914, 0.016242920416273097, 0.0013513615290429418, -0.005947171164355382, 0.018880032229932522, 0.021811397632171815, -0.03987653063428974, 0.03179834389025916, 0.021938455351294933, -0.008927963002849504, 0.008975664608722178, -0.04929279005223554, -0.03271491467572415, 0.0307147778184915, 0.028906057054673338, 0.01123464454053132, 0.009865007999198714, 0.044101546553436954, 0.050651497267575604, -0.01837035911796956, 0.01970118248274796, -0.011825890255576626, -0.02196838350509217, 0.01066510654731496, 0.002233074243345172, -0.00789782081352261, 0.004768077536472471, 0.023678090411355546, 0.002088243135317901, -0.0068820629106679625, -0.00871954061669025, 0.0018570343815868511, -0.024840601445699998, 0.02892920183393081, 0.006623440302109544, 0.019049547006856137, -0.04836103229137711, 